2766 100
네이버 0.026643347 -0.14286911 -0.9052332 0.08713651 -0.47925276 0.4532323 -0.20567767 1.0523158 -0.3060812 -0.091818005 0.45666695 1.2881678 0.07491004 -0.21648373 0.2839994 1.0320792 0.028579386 0.9280826 -0.43300483 0.48787558 0.02638838 -1.6580247 -0.685339 0.054407198 0.12107003 0.109676756 -0.17972362 -1.5483763 0.6426764 1.305222 0.14298423 0.6898977 -0.53416985 1.3479617 -0.7087306 0.98652333 0.4038408 0.26573968 -0.17876492 -0.07986363 -1.1592988 1.2851944 0.6984701 0.26937643 0.3288102 -0.4076697 -0.6560398 -0.22223552 0.8233192 -0.54621655 0.026046144 -0.5256052 0.88709205 0.7399577 0.59508836 -1.6945981 0.6309061 1.3397235 0.16234276 1.660594 -0.31423432 0.29372263 0.46451718 -0.42738712 -0.76421773 -0.9043173 1.248949 1.2178291 0.14705157 -0.1057304 -0.15842155 0.22940241 -0.94501215 0.925431 1.4987932 1.0555457 0.26883554 0.5668005 -0.5834003 -0.42233494 -1.1814814 0.37412176 0.34654722 -0.3569865 0.8361573 -0.3095453 -1.449911 -1.2320217 -0.8764365 0.31174505 -0.034206975 -0.020035876 -1.3240038 0.59826684 0.32003826 0.44444722 2.1354313 0.2474591 -2.276846 -0.10873257
블로그 -0.76023465 0.30309555 -0.18299484 -0.5475495 -0.26587674 -0.12997976 0.85879594 0.35740793 -0.53793234 0.86132944 0.30618942 0.9582161 0.032857955 -0.66024697 0.441725 0.76240295 -0.7117411 0.5476499 -0.5316564 0.21520655 -0.4084502 -1.5806557 -0.36015943 -0.5845873 0.3252166 -0.50290465 0.10832955 -0.3162433 1.310816 1.3101238 0.24117048 0.6757625 -0.36485374 0.09166458 -0.32958952 0.61390173 -0.5709366 0.38762495 -0.11054861 -0.091636285 -0.6869984 2.3329103 0.19509147 0.71881294 0.3956053 -0.4866547 -0.2475265 -0.33440462 0.6248309 -0.35004222 0.48863924 0.7534204 1.2788216 1.8001229 0.6697628 -1.2174895 0.64327127 0.2864319 -0.8118542 1.6719344 -0.7426635 -0.6994213 1.3984672 -0.4767094 -0.96657366 -0.67194587 0.24258558 -0.19707805 0.5626273 -0.91983354 0.31319782 -0.19862813 -0.2324333 0.2843146 0.8210886 0.53651637 0.8418733 0.35345295 -0.92359877 0.44556993 -0.8593046 0.35816303 0.3049535 -0.05126375 1.1653715 0.8348669 -0.9151819 -1.8036717 -0.9041122 0.459408 -0.6257143 0.2624408 -0.7256007 0.23083201 0.57970905 1.386024 1.4767836 0.49111262 -1.8596284 -0.5630123
머리 -0.23963417 -0.54031867 1.436665 -1.9885123 -1.3496375 -1.5465347 -1.4567697 -0.8026358 0.3945268 0.12661785 0.08326713 2.158387 -1.1251954 1.1083109 0.6829959 -1.5391226 0.83095425 1.4555992 0.046637822 -0.2885587 -1.4782494 1.4636844 -0.016841177 -1.5245064 1.3323762 1.1667323 3.338136 0.00961105 0.4202896 1.2386451 2.4911509 0.3090661 -0.99708307 0.16912945 -0.2527465 -0.77036154 1.6585017 -0.44322363 0.4181864 2.0604093 1.7457428 -0.72011614 -2.392818 2.8610208 3.1411781 2.136914 -0.45621493 0.34155563 -0.35412678 0.4223593 1.9256369 0.9798772 0.16178322 0.31013426 -1.5150633 -1.5255383 1.1844478 -1.1247131 1.4319295 0.24868304 1.7015675 0.98707545 1.1317484 1.701048 1.2563393 2.0101438 2.211304 0.90219027 -1.9228985 -0.7963688 -2.1895242 0.67365205 1.1875453 0.18279782 -0.66745317 0.8513417 -1.4205675 -1.4488151 2.5200171 1.1058745 1.8334264 0.6967609 1.7433243 -2.7819388 -2.0580964 0.7506599 0.030587167 -3.7417169 -0.8449171 0.15826143 -0.14861774 0.9085662 -0.06640619 2.6813009 0.6624586 -1.6577631 -1.1126088 -1.2531545 -0.50607854 1.4415199
가방 -0.436276 1.9640492 2.4237473 0.20336597 -0.7600431 0.72419554 -0.8206595 0.61371595 0.4068196 0.13099921 0.46324164 1.5957135 -1.1841041 -0.27336878 -0.642599 -2.6387877 0.34209946 -2.978964 -3.1652784 2.3552554 -2.1534946 1.7558435 -0.6120465 3.503676 -2.052902 -0.28183243 0.4908416 0.03863227 -0.12566932 3.4604847 0.09046197 4.068654 -0.23214312 -0.94824934 0.6143032 1.4763175 1.2399071 1.4840151 0.037741154 -0.022412427 1.4655904 -0.32090828 1.510501 0.5551788 -1.2868493 0.40286845 2.2643592 1.7169493 1.3402785 -1.6268554 0.31822497 1.2762953 -0.8145417 -1.0244203 -2.7807713 1.6474912 1.3256896 2.5107298 2.357818 -1.8028104 -1.8339463 -0.7564764 -0.8446207 0.2512936 1.9932535 -1.2249808 0.28172246 -0.85142905 0.5579423 0.18179756 0.09878305 0.8036077 -0.63624775 -2.134426 0.8529323 -0.68297297 -1.4205552 -0.23878546 0.70609117 1.1824751 -1.717645 -0.429384 1.1155741 0.24153547 -3.3380194 0.55490255 0.5274125 -0.40467522 1.5973328 0.029093152 -0.41401076 -1.204271 -1.4078523 1.6480206 -0.14807363 0.74738693 1.5966921 0.075317614 -1.0015383 -2.370697
예비 -2.0776434 -0.13721377 0.6213493 -0.044164274 2.4100435 0.7549315 -1.075067 1.9460187 -0.20630613 0.04715742 1.3289398 1.5289694 -0.813079 0.12580939 1.5030327 -2.439129 -0.77818936 -3.122958 -0.93719524 1.5383136 -2.1100094 1.6726623 1.2127571 2.1525788 2.5093162 0.99148417 2.4726462 -0.9040739 0.74719554 3.1023066 -1.829665 2.637093 0.17604707 -0.89201736 -0.05977416 -0.20683667 3.2164617 -0.06993429 -0.62387013 0.41654283 1.2882495 -0.020430213 1.5662216 -2.7590485 -0.2432737 -2.3704667 2.993439 -0.19203803 0.69535786 -2.2628431 -1.8120867 1.7620926 -0.56347334 -3.0321863 -0.20428891 1.1882964 -0.82869774 -0.03387931 3.247963 -2.4863102 -1.8169667 -0.28932068 -1.5433018 1.6835799 1.7952918 0.17782898 -3.4484997 -0.15162046 0.022699848 -0.23584865 0.7946572 2.924456 -2.7974646 -0.07396113 1.796085 0.6814352 -0.45064557 -0.056192923 0.26964903 -0.83416337 -2.0113366 -0.60759664 1.2567323 -1.1762207 -0.22997446 -0.03774528 -0.37171614 -0.87178594 0.05225355 2.4575887 -0.7954087 0.8446126 1.3474398 0.30352977 1.3223407 0.24812375 0.0005970327 1.0264657 1.6849978 -2.6139684
수익 0.08435532 -0.15239178 -0.2664345 -0.8338469 0.4291708 -0.11255908 0.88335025 0.35781798 -0.84976506 0.112781875 0.71456265 1.0286629 -0.7575504 -0.23128743 0.36628586 0.19736956 0.3327573 0.49109346 0.1807594 -0.35617393 -1.5625433 -0.66140413 0.20274533 -0.8065377 -0.0744408 -0.11998374 -0.18459055 -1.0969887 0.819669 0.9857797 0.5291062 1.2520427 -0.25939807 0.7380612 0.5370417 0.9156067 -0.19394562 0.36410403 0.3899828 -0.3014137 -1.7631586 1.4827818 0.86726755 0.7529109 0.29939434 -0.65956384 -0.3250748 0.26711407 0.5769158 -1.4521679 0.70221835 0.055742707 1.0943347 0.9046511 -0.21226677 -1.078076 0.7558866 1.7605808 0.22214466 2.060796 -0.97986907 0.09441081 1.0364386 -0.010911526 -0.5280183 -1.4540566 0.5735841 0.6149165 0.5722625 0.07583134 0.4528914 -0.25016794 -0.6819898 0.6219571 0.9447091 1.3212746 0.7200341 0.25957957 -0.2615145 0.20619728 -0.5789354 -0.39564863 -0.24874 0.078965485 1.0681475 0.80943465 -1.3823255 -1.4443605 -0.7700262 -0.52273 -0.065311946 0.2762543 -1.2174478 0.259325 -0.11735463 0.9316703 0.9954904 0.6243699 -1.4280982 -0.6615016
교복 0.643014 1.8381376 2.8766928 0.77261746 0.5926156 0.79284656 -1.0124452 -1.6615313 -0.5056366 0.9388892 -1.2986094 1.3273603 -2.0825725 0.3872994 0.29828915 0.7367179 -1.2112943 0.73817873 0.8006349 -1.0906109 1.2712023 -3.3393137 -1.382165 0.035332773 -2.2052717 0.44063297 0.36219212 0.6901896 -1.4358935 -0.1865181 0.50072455 0.14499216 -0.25557226 -0.6135372 1.5680431 -0.23498805 0.13975918 -0.763305 0.7371504 -0.12940383 -2.8127599 1.1673826 -1.2339597 -0.40228567 -0.13662457 0.4271608 -0.91760373 1.2434984 -0.23253942 -0.77519536 -1.8626307 0.5466424 -0.62939525 0.23537089 -0.2130533 -1.0818611 -1.3885726 0.37634397 -2.140622 1.334406 -0.8684502 -1.1583816 -1.9752012 1.513605 1.0387043 2.5903761 -1.0549333 -1.7117401 1.2172004 0.095108174 -0.49227998 0.87964064 1.1554463 -0.9797751 2.3248985 3.5090945 0.1378467 1.3047383 -0.8259741 -0.32394868 0.42138353 1.5571262 1.4803073 1.7732964 -1.2610526 -1.9301059 0.17918208 2.7849066 -1.7123363 -2.5549037 0.1689569 -0.8743134 2.8437471 4.1479745 3.032376 -0.14435007 0.6131731 0.3033907 0.9788289 0.98009795
문제 0.8320521 -0.98091286 1.4414551 0.5030847 -0.60562104 0.82234854 -0.089464694 1.9834092 1.1048496 1.7769195 -0.1584321 0.8693501 1.0922636 0.8948064 -1.3106394 0.20714858 -1.0422207 -1.6988902 0.03893571 1.1399912 -0.22501276 -1.2666737 -0.4562017 -1.0560787 -0.5531486 0.8019566 -1.3672314 1.1254551 -0.55429864 -1.6103958 -0.019527169 -1.7970885 -1.1548615 1.5748271 0.17446195 0.9876108 -0.6965272 1.3402852 -0.97756326 -0.47084707 -0.83032143 -1.5869259 -0.3240768 1.1667155 -0.99440575 1.1407886 -2.0131598 1.9387745 0.3424102 -2.2162006 0.25163147 0.20932835 -0.008479817 -0.73757744 0.10250579 0.8447612 0.5944519 1.9126769 1.0816224 0.059243266 0.21241169 1.1948674 -0.56407833 -0.9462589 -1.2529117 0.74722815 0.685266 -0.88961774 0.11555428 0.9838339 0.04514396 1.103275 1.3222668 0.49725518 0.2940329 -0.48311257 0.3893131 -0.7529252 -0.24068509 0.87942904 -0.62588674 -0.680654 0.059169818 1.513209 -1.0563358 0.63312346 0.1417691 -1.4881663 -2.71717 -0.78441995 -0.30221942 0.3520417 1.4994689 -1.7108846 -0.62789613 -0.26502123 -0.539576 -0.6118235 -1.2992258 0.56260926
눈 -0.3184931 -0.63100165 0.42815685 1.2876102 -0.52856433 -1.5541127 -1.50509 0.39069077 -0.1297658 -1.675244 -1.164699 0.64824593 1.1408619 0.42452928 1.4415584 0.22466831 0.25591916 2.5168493 -0.34242293 1.1201993 0.6667462 -2.3469472 1.4689149 -2.126292 -2.3355677 -2.134938 -1.2609783 3.4994314 -1.309509 -1.7188762 1.081327 -0.8150094 0.39505005 2.016428 -0.31368297 -1.1598117 2.1434512 1.1152731 -0.24577112 0.55940956 2.647522 1.1304339 0.07511459 -0.043612238 -0.01703436 2.1253226 2.0645854 -0.8191442 2.4612277 0.4278943 -0.6023313 -1.64432 2.724922 -1.1174383 -0.73215175 0.11232974 -1.3079213 2.3260934 2.6976333 0.90652305 -0.7423846 -0.42381066 1.0618807 -0.94878274 3.1608877 0.8847847 1.2792438 0.40051293 -1.841978 -0.8338515 1.6193163 -0.14388426 -2.256721 -0.5039996 2.1629448 -0.6826592 0.54853815 -0.41437262 0.7218107 -1.2365687 -0.32695708 -0.8661819 -0.47235942 -1.2412922 -0.009413938 1.9735627 1.3703496 0.6369714 -0.41214085 -1.2691824 0.17110156 -2.591594 -0.02404666 0.060764957 -4.1894183 2.4031725 -0.8370378 -1.6939791 -0.66715336 -1.6441039
토익 -0.48531267 -0.014337004 2.6477778 0.7793522 -0.2465002 0.71186763 0.47028863 2.2775908 -0.7271013 0.883383 1.0870533 -0.35165033 0.3138748 -0.98099524 0.31929743 1.8211607 0.5196139 0.2982179 1.02074 0.41457462 -0.43088692 -0.3288857 -0.8420151 0.96719104 1.5912195 -0.015063225 -0.17460841 2.2323232 1.3812159 -0.6017078 -0.14945215 2.4324083 0.085316695 1.0095022 -0.04021089 0.6377357 0.71122223 -0.26937625 -2.436041 0.29523113 -2.2176726 1.5045195 -0.15397556 1.3616701 -0.36892468 1.1359386 0.630752 0.6887045 -2.0139806 -1.5946921 1.208479 -0.43438926 1.1211318 0.021081926 -2.3972216 0.69683886 0.09961489 -0.04616542 -0.20060514 0.40658736 -0.650801 1.0456052 1.1487403 0.48701155 0.1848113 -0.037306573 -0.33988288 0.5277755 0.39525583 0.23135991 -0.60417914 0.0057327487 -2.0001202 0.6035086 1.0733508 -0.086340755 -0.086805105 1.1595181 -0.3331354 -1.7417157 -1.3675878 -2.002698 -1.2879106 0.30795088 -2.0213912 -1.3459452 0.8164914 -1.1634476 0.015806708 -0.2426268 0.62009054 -1.8874692 1.6979475 -0.7131905 1.8513222 0.05833652 -0.14729325 0.986034 -2.7355144 -1.2888016
중학교 0.40868187 -1.8335803 -0.8632068 -0.40574062 1.201477 0.6309748 -0.7048322 -0.34602195 0.27164996 -0.09140773 1.3536422 -0.10218796 -0.60232556 -0.64837736 -1.8966378 0.41565263 0.9957095 0.3089322 2.096073 -2.0634155 2.754603 -0.019055622 1.550396 1.3002716 0.94693714 2.9276085 1.4515218 -1.1767573 -2.7999988 -0.6540441 -0.99711156 0.2982579 1.4091772 -1.4928365 -2.4378302 -0.72833097 -1.5097756 0.82444257 -0.37129584 -0.9973796 0.65867764 3.209955 -0.31814805 -1.5903268 1.475123 -1.0312991 1.0896655 0.22929245 -1.3222204 -1.430684 -0.56912905 3.8562346 -1.4587519 -0.7115914 2.0078568 2.199351 3.301884 0.9309049 2.863288 0.20049115 -0.57119477 1.24684 -0.7969972 -0.6865856 -1.3966775 -1.5053535 -0.6584488 -3.2090142 1.5531722 -3.3027604 0.5964001 1.1707246 -2.167649 -1.2572253 0.17184551 -1.4402438 -1.372421 -2.336886 -2.779144 0.2088787 -0.44531494 -1.3029431 -0.11620677 1.0266427 0.70963115 0.7092503 0.6294131 1.5976925 -0.095582135 -0.37836573 -0.5003334 0.61288846 0.46981582 -2.5457144 1.9485351 -1.0227782 0.7620092 0.92873484 2.1737905 0.051215596
시간 -1.3726099 1.9877685 -0.795182 1.8752427 2.1806927 2.1329787 3.413055 -1.1301907 0.41936898 -0.7596548 -2.1999538 -0.28580233 1.5495671 -1.0548539 -0.37833905 1.6216938 0.48457605 -0.76727563 0.044506703 1.5169797 0.5393998 0.043013543 0.8841964 -0.07426365 2.7088165 -0.53785455 -1.0776858 1.9263462 0.41500938 -1.3508978 0.073031716 -1.5013916 -0.8727611 -0.26872385 -0.008218207 2.700735 1.2838006 -0.36690995 -1.0768176 2.010453 1.8658283 -0.38212436 3.4971824 0.8838038 2.596861 -1.1299181 -1.7350267 -0.008857281 1.5816181 0.87880725 0.33891696 0.9844382 -0.82033163 -0.3344098 -1.7661389 0.5737602 -0.5198393 1.5932404 -0.061439954 0.16475706 -1.3469907 -0.23492762 1.9732571 0.32866162 1.6605331 -0.23456931 -0.22829127 0.07276684 0.72515136 0.32330218 0.019165695 1.9690301 -0.19745654 0.023595963 -0.7440678 1.7387329 1.7457751 2.805718 -1.6511776 -1.7417833 -0.5295 -0.09233912 1.6103007 -0.33760852 1.1847999 -0.9143194 1.4110802 -1.7384354 -1.251635 3.1509514 3.7954423 -1.0436913 -1.9500542 2.7628756 -0.9417721 1.9628148 0.5438306 1.147528 0.2842539 0.515474
마이 -0.13399379 4.069151 -0.52967215 -1.96962 -3.2948616 -0.8540845 0.88349134 1.1433839 1.0313019 1.1450533 0.896113 -0.5793943 0.9704963 -1.9682387 0.96172506 -1.2402046 -0.04911051 0.45609295 -1.2038441 0.08965005 -0.5530396 -0.34175292 1.9434229 2.718152 -0.6810481 -1.2572248 2.2221541 -0.3160362 -0.641763 0.12692471 1.056781 2.03627 2.4306204 -1.105458 -1.239228 1.2546821 1.2518831 -1.3841952 -3.7874095 -0.13669392 -2.143043 0.92170095 -0.7869451 0.9774033 0.3336125 1.1781414 0.36127084 1.0432719 0.8317249 -3.6409922 -0.16856828 -0.43952116 1.3303239 1.2787968 0.42499423 2.3677237 1.1633518 1.1578876 0.27462348 2.171843 0.8543212 -1.3714613 1.2478037 0.7443138 0.27008155 2.8027773 2.099452 0.65000236 -1.3334275 0.49454185 -1.1204337 1.3837515 -1.1865 1.9354731 0.7556997 1.8941478 1.9870883 2.8600075 -1.5173763 0.51940006 -1.2624707 -0.15172534 -2.9187753 2.318575 -0.6118669 -1.7335252 2.2702982 -0.03238288 0.46566048 -0.44266775 0.6590731 0.68734306 0.6164902 0.62139225 -1.2607943 -0.25194842 -0.35700357 0.07430547 0.6404867 1.068155
위치 0.8543677 -0.4512679 0.2790181 1.6916506 0.41681087 -0.6347946 0.69616395 -1.0013416 -1.0176889 -3.0058923 -1.2061282 0.7549521 0.014126066 0.7750384 -0.17736992 -1.4979259 -1.113195 1.8831848 -0.014626589 2.8533473 0.19204943 -1.5770177 1.5260546 -1.1663277 -1.9227418 -2.8686366 -0.37369803 2.580292 -0.54091257 -0.07750148 1.4397429 -0.16536321 0.538583 1.2712843 -0.9516255 0.1746331 1.6381177 1.0214803 -0.9526034 0.46871614 1.4934465 1.4298642 -0.7976624 -0.024659615 -0.5849174 0.7104345 2.363895 -2.2504954 2.9250534 0.07934962 -0.84761196 -1.8589305 2.113072 -0.35596794 -1.6280844 0.6562117 -1.1523151 3.236234 1.2130336 0.17126915 -1.6195151 -0.23950452 0.19442837 -1.4271262 2.486949 0.1838491 3.1549811 1.2642328 -1.7463597 -0.51713246 0.8353519 -0.45028642 -2.1824698 -0.5587123 3.1321256 0.34118706 0.40588513 -1.9024394 -0.694473 0.18511164 0.036358308 0.014616183 -0.089443535 -1.9891243 0.8352414 1.1299633 0.9911576 0.22379369 -0.58575904 -0.21214235 1.7118018 -2.2853796 0.17732334 0.53164804 -4.143144 2.2826047 -1.2601856 -3.139863 1.0684347 -1.8408257
얼굴 -0.5526576 2.5465713 1.0613639 0.9270642 -1.5238336 -0.41237 -2.0182557 -1.2117224 -0.8329536 -0.22730787 -1.5917315 0.8979651 0.11665451 0.52310336 -0.06644198 0.013409175 -1.6275984 1.2084261 1.418009 -2.4359107 0.4069251 -0.34253874 -1.1926571 0.6349202 -0.030630948 -0.0044156746 -0.8556782 1.289641 0.62248117 -2.4543767 2.5373693 0.21033311 1.050909 -0.2837425 -0.3723687 0.31070682 -1.433037 -0.43361634 1.0206913 0.122621104 2.5753484 -0.90210825 -1.3634746 -0.21086682 -2.2035494 -2.0861607 -2.1972685 2.413808 -0.4901329 -1.0716003 -0.13562693 0.002395442 -3.2036054 1.6534438 -1.3356459 -0.43456638 3.5466435 -0.47918501 0.42304167 2.0639408 -0.4833606 0.93709296 1.3721589 0.7113778 0.40484226 -0.55826557 1.3616884 -2.3753202 1.1045148 -0.89521205 -0.11217375 -0.13063644 -0.18952909 -1.140782 -0.0874108 -0.93988836 1.1623218 -1.5787171 -1.7572045 -1.3360676 0.015811434 1.0359746 -1.5090755 0.47570083 -1.9516912 -3.9000108 2.5714037 -0.67323077 2.408654 -1.301343 0.22514465 3.0993428 -1.8026239 -0.4336073 1.9508016 -0.25049737 0.1959039 1.7877446 0.040319644 3.4846914
걸 1.0485306 -0.28112346 4.4192476 0.82773507 -0.58097994 1.0245402 -0.70640373 -1.1548883 -0.22142453 0.8458329 0.18376635 -0.4134411 -1.4783316 -4.012109 2.1808178 1.3678826 0.16038989 -1.2781663 -1.6730483 1.5294635 0.124924265 -0.13700925 0.067532614 3.2370925 2.0624504 2.05833 -1.57693 -2.4485877 -0.9248811 3.4069097 0.13322832 0.68877643 0.25595716 -2.5913239 1.3777347 -2.6365697 1.5794103 -1.6592875 1.9124328 2.4635975 1.7549113 0.013518552 1.2066782 0.41020113 -2.4192224 -0.31602782 1.0111723 1.2694824 0.9489426 -1.8974112 0.68800575 0.05974311 0.11537067 -0.71550333 -0.03593379 -0.9578262 0.5380948 -3.492304 -0.2432357 0.7888753 1.3910882 0.700152 0.846835 -2.405984 -3.0806763 0.4555473 -1.3028258 2.75558 0.21493867 2.8000643 2.7861056 2.9665015 0.9773061 -3.3835056 1.0725583 2.1409523 -0.4336452 -0.39263907 -0.31594557 -0.90704054 -1.8303726 -0.4682072 -0.21450888 -2.2042441 0.76615554 -1.2272166 -0.14642434 -0.4105317 -1.828146 0.86975646 0.17905882 0.726124 -0.20888644 -0.18295255 -0.50488615 0.9124765 3.708534 1.7421749 0.3287776 -0.21253406
학년 -0.844129 -2.0445285 -0.55330986 1.3221514 -1.5231075 -0.27051952 1.035623 0.0036591263 -1.3857653 0.9529419 -1.2040153 -2.2251694 1.8800024 1.0174598 1.1609428 1.80088 -1.2345928 1.8584391 0.76494324 1.043071 -0.6986037 0.07326591 -0.39209604 1.3727983 0.08431974 -0.71031606 -1.2798619 -1.2207276 1.4553477 0.21092866 0.049285773 0.8033961 2.2993572 0.76912874 -3.0023153 -0.59103024 0.050280403 -0.1305449 2.049597 -0.28815296 -2.7814374 0.28001612 -1.3323133 -0.054345906 -1.6923558 2.6054919 -1.4099841 0.7005255 -0.26793635 2.1069381 -0.790736 -3.5287213 -2.0456812 1.4108565 -0.91562104 -0.46894142 2.2990654 -0.24009901 2.6767256 1.1816828 1.2848983 -2.1917076 -3.9629672 -0.5338469 0.5879871 -2.1745362 -0.65876466 0.12287114 0.049147386 -0.8351204 -0.45038018 -1.1827853 1.6918447 -1.185323 -0.05117027 -1.2045807 -0.44775626 -0.5625927 2.4683166 -0.40725228 1.1285486 0.7206049 1.455901 -0.12732418 -2.3874705 1.6829464 1.9590552 0.20651089 2.3315759 -1.584012 -0.22696269 1.3009981 0.70699054 -0.012772774 0.8693174 -1.3122814 0.3600522 0.8874703 0.83577883 0.60627794
산다 0.32063243 -0.2121954 2.1742818 -0.80326015 -0.16263951 -0.9370439 2.0029917 1.5127661 1.12033 -1.000608 -0.63534313 1.2091641 -1.7922531 0.9342627 1.4863833 -1.9432415 1.2012174 -1.1705773 -2.6413853 -0.5469875 -1.0064195 1.1670738 0.5966499 2.0288966 -0.25851974 -0.056653313 2.6268103 1.230379 -2.1585896 2.7908113 0.7410378 3.213105 -1.7344587 -0.24032363 -0.36128232 -0.61169 1.4224557 2.262655 0.19042434 2.002374 0.39438158 3.091786 -0.2947872 1.6178708 3.0735042 -0.95582163 1.8111621 -1.7651951 0.30126736 0.09389327 -1.8573247 4.843195 -0.7518517 0.80906415 -1.9525121 -0.5486748 2.37379 1.4833021 3.4011602 -2.3503065 0.022867301 1.0036911 0.9408196 -0.33848763 -0.22352041 1.5588428 1.0323144 -1.6389058 -0.09927575 0.028739896 -0.8439026 -0.4790047 -1.2479367 -1.3862923 -0.67028105 -1.7009704 -2.135204 -1.2881181 1.6849715 1.053652 0.36569688 0.002908591 0.46134707 -0.3251452 0.20105982 0.874355 0.25110614 0.5534702 1.4798185 -0.13892666 0.33738822 -1.1080598 -0.6060419 0.8430829 0.000725518 -0.30454755 1.7860985 -0.46166196 -1.2350417 -0.5198979
다리 0.97053397 -0.72151273 3.652906 0.7728033 -1.5746689 -1.4485365 2.6362042 -2.0035324 -2.148971 -1.7409316 0.076722346 -0.25009355 1.8492417 2.7518969 0.09083255 1.3210506 -0.50420326 1.5273198 -0.81979793 1.5506173 -0.29577744 -1.145945 -2.4652398 -1.4809078 -0.3982951 1.5706714 0.26098385 -2.1204631 0.4959114 -1.3079286 0.23802309 0.2764342 -0.41095576 2.8590312 -1.9571933 -1.1933277 -1.3097306 0.1910774 -0.78531885 0.5425724 -0.67985076 -0.4436534 2.213752 0.7742909 -0.64185494 1.4020085 1.8859047 -1.771095 0.89559937 0.35466763 -0.29747236 -0.386277 -0.5951127 -1.7301197 -0.69334733 -1.2202955 -2.5949547 0.28712457 0.23272866 -1.0594285 0.48879313 0.037723243 -0.17013898 0.5542705 -1.3246738 -2.8688426 -1.3782817 1.7840573 1.0580528 -1.5159788 -0.2855607 -0.5175401 0.6460196 -1.1848978 0.14145704 -0.56622696 -1.0636508 -0.918572 1.4495625 0.7660666 -0.059072636 0.18022478 -1.2124282 0.20342176 -0.34434798 0.16556667 1.6471318 0.30989543 -2.051638 -0.0969692 1.3983319 -2.571289 -2.6907766 1.2328212 1.4720275 -1.2289087 -0.7842257 -1.3616875 -0.8437054 -1.5319794
코팅 -1.1065748 -0.2883951 0.40411592 -1.0592095 -0.15531449 -2.1033158 -0.9167026 -2.3631246 -1.7000425 -0.97324574 -0.21332061 1.5453258 -1.2192495 -1.6270559 -0.7730176 -0.7730951 -0.48170993 3.1804786 0.14481772 2.121654 -0.7457989 1.0470358 0.038335722 -1.5470761 3.0421038 3.62789 -0.57790375 -2.8895454 2.1027744 1.7542405 2.0996697 -0.7692104 -1.1231687 -2.0628216 0.6642177 -0.9496864 0.4746597 -3.050754 -0.70520806 0.4564219 1.1353045 -2.3379633 -1.6118497 1.869406 0.7832892 1.8800687 0.063454844 1.5144382 1.7695607 1.3772359 2.578514 -1.5317405 0.81409276 -0.46994886 -0.6095662 -0.026268072 -1.0885909 1.0352541 0.5734014 0.6913565 -0.19939971 1.4481902 0.51394176 1.1893711 1.901565 2.284951 0.09363352 0.041248627 -1.6888057 0.50465816 -1.8606101 -1.2379338 -0.41791567 1.2105107 0.9482017 0.38998798 -0.17423725 0.5456305 1.107184 1.1639882 2.0314481 3.8467162 1.065143 -2.1323612 -0.99084467 0.32390192 0.32585722 -2.9546857 -0.80461884 -0.16368292 0.15537485 1.3477446 -1.7761679 1.5338317 -0.54586536 0.12075157 -2.1493804 0.2925779 -0.94129807 1.8164084
준비물 -0.4123243 -0.39168918 4.091615 0.38342607 2.1315255 0.17343198 -3.2122295 0.25693202 0.7358431 -2.2508998 0.32483926 -0.06697486 -0.31579137 -1.4124023 -1.7513369 -1.9859989 0.45664993 -1.8192503 -0.5080086 -0.41124493 0.09254205 2.4491043 -1.2346834 4.6886387 -0.28133613 -0.033789326 -2.0638373 -3.1808662 2.2285159 2.7354271 0.8971608 1.8536088 2.2628844 -1.9475918 2.032888 -0.65837955 0.5201603 -0.9160301 0.9163945 1.5186296 -0.3051465 -0.81682295 -0.8519081 -0.2668576 -1.4661363 1.2154049 1.5987275 1.3088342 1.4018924 -1.9095414 0.71714115 0.026507745 0.24044308 0.9089973 -2.967658 -0.6950416 -0.76106066 -1.4698373 0.16305584 -0.2571556 -0.7621176 -3.3149004 -0.40288287 -0.19144675 -0.37394667 -0.08519068 -3.1352618 0.36457542 -1.4044267 1.7275406 1.3532273 -0.89825535 1.7661133 -1.1906312 0.38838202 3.2458704 0.8245084 0.6397146 0.41990474 -0.4143122 -2.4363005 0.78211147 -1.1217022 -0.18147542 -1.09503 -0.27564818 -2.431963 -0.9953202 0.099186994 2.7110019 0.57884485 1.2438346 0.72347885 -1.773372 0.34503073 2.4228 0.73937297 0.21789029 -0.73994786 -0.5391409
드릴 0.67233837 0.5096339 0.48181978 1.2665352 1.3997986 -1.1657416 2.4158094 2.3323996 0.72890896 -0.47985783 0.34345752 1.5556381 1.5304285 1.5835787 0.59341073 -0.91518795 -1.9102718 -0.8327889 1.1117505 -1.5554756 -0.319946 -1.3890768 -1.0276356 1.0940806 -2.1504915 1.3414559 -2.018725 -0.86533105 2.0235534 -0.49161234 -0.19716159 -1.2648994 -1.5861577 2.4462242 0.781418 1.3637466 0.011151583 2.5388966 -3.6316016 -0.86875856 -0.6207569 -3.2757397 0.96561533 0.99025786 -2.029636 2.5902166 -2.0351596 1.305446 0.43041378 -0.24131896 1.8619448 0.118442155 1.1688169 -1.6681036 -0.91876954 -0.77950984 1.3752642 4.7288504 0.6911868 -1.5304813 0.7013717 2.4340727 0.12696825 1.942927 -1.6936455 2.8690805 0.13761798 -1.7397364 -0.6831141 1.6715626 0.6386308 -1.2433537 1.9945934 1.0307204 1.8061172 -0.15044625 1.9187434 0.37310869 0.4616329 1.9801825 -1.6615335 0.08157859 1.6702385 1.9133221 -0.8939721 -1.3865206 0.052855507 0.06249306 -0.10851799 0.91818255 0.84418064 -1.0925183 1.2655357 -3.015008 0.27591315 1.639426 -1.3192215 -1.0473776 -1.8895702 -0.46305627
사회 1.1531901 -0.7389377 -1.4503464 -0.7810077 0.74815977 1.4984249 0.27057534 -1.4603944 -1.6149166 -0.63100696 0.2760331 1.8418429 0.60135555 -1.7398095 0.7009548 -1.1218644 -0.8893834 -1.9551399 -0.4764142 0.01071385 3.263085 -0.81449145 0.62397605 0.0029570174 -1.309249 0.51362765 1.7537936 -2.3965807 0.5708323 1.8494194 2.2136126 -1.6724806 -0.95217663 -1.7910485 1.5093386 1.0615956 1.282043 0.8825 -0.9720857 0.8628457 1.4099965 -1.0198599 -0.791939 1.1443385 2.5071125 0.76083475 1.547993 1.003042 -0.14963107 -2.432522 0.38521352 -0.47454372 -0.7255051 3.1320736 -0.5278253 0.9907715 1.7219998 1.2241684 0.22988306 -0.072185 -2.6212237 0.5245136 1.2784103 -1.9371272 0.6563793 0.0073242374 1.6737348 1.1308613 -1.0585063 -0.71565855 0.29603556 2.1781816 1.4341046 1.2811013 -0.3359314 -0.6057894 -0.02861861 -0.85050887 -1.3570001 0.49656972 0.9306199 0.5310661 1.845917 -0.41013077 0.700446 -0.60429436 0.00084705837 1.8248761 -1.8075806 0.6095325 2.634112 -0.33607054 2.212267 0.935565 -2.4840188 2.4534981 0.6358277 -2.2153683 1.1129223 -1.8500679
복지 0.47850275 0.5585793 -0.9881204 -2.2258778 0.814477 1.2966485 0.2124085 -1.8563197 -1.739478 -0.82645935 0.9892973 0.7160801 1.0743809 -1.3112127 0.19773623 0.030163942 -0.5157305 -1.3612171 -0.5115553 -0.2154996 3.480568 -0.6241169 0.73090965 0.44398737 -0.6885239 0.30470148 1.3304083 -1.4885335 0.65592104 2.2685156 2.0767581 -2.6815007 -1.4273171 -2.2356231 1.5890092 0.80095667 0.24859409 0.84479374 -1.441474 0.2746124 0.9870395 -1.2030714 -1.8063824 0.48409325 2.3910656 1.8256269 2.6806376 0.8114711 -0.5876019 -1.8204931 0.8670562 -0.28582203 -1.8724234 2.2807996 -1.0072716 1.244149 2.0198681 0.6874468 0.54823405 0.38171178 -2.7851696 0.49003828 1.1973227 -1.7001946 0.47454542 0.024722857 1.3353883 1.2682108 -1.3304776 -1.9789218 0.79932094 1.8922083 1.408622 -0.08063385 -0.85097224 -0.48347577 -0.43574944 -1.3021896 -1.605633 0.9938852 0.8744483 1.5353733 1.5281993 -1.231191 1.6018529 -0.3908962 -0.45461258 1.9006957 -1.2822871 0.5593687 3.0886981 -0.54284894 1.1229022 1.9363514 -2.5397885 2.5240815 1.2028202 -2.7172952 0.92110145 -3.0643363
사려 0.7012955 1.4936086 1.4506681 0.17650062 -2.528813 1.146335 3.8573208 0.5568983 -1.0481074 0.81204104 -1.1377524 -0.2183907 -1.9446504 -0.7509295 2.7155252 -0.28240702 -0.8696522 1.3153679 -1.9342445 0.18586503 0.5556119 1.5580629 -0.57478034 0.7778073 -0.74587214 -0.35121667 1.6501276 -0.22390722 -1.7911325 1.7135283 0.14293322 1.8520764 1.3300902 -0.04534019 -0.19604772 -2.4892921 -0.42077205 -3.1414046 0.52161634 -2.1100786 -2.2510438 1.3774432 -2.2678678 -0.59569234 0.2912518 2.3321095 1.3930025 -1.7504947 0.9805804 -2.1069963 -3.806686 -2.388474 -0.7458891 1.5715618 2.520635 1.0128225 -1.4250135 2.0470731 0.19199605 0.80108535 -1.0162879 -1.5607784 -0.53124404 1.6381868 0.33841845 2.5644174 -1.6439193 1.7082782 0.72169966 2.010085 -1.2151985 0.18286987 0.33266175 1.2253058 -0.6305266 2.6401255 1.8883872 1.3824612 0.31049693 1.0879142 -1.1485159 -0.5155525 -0.3275549 0.7671708 2.6801283 0.09726271 1.3677317 0.739301 0.72306025 -2.012454 -0.033779666 -2.434977 2.739066 2.7980149 0.7928817 0.37683392 -0.3936422 -2.2415152 -1.3017157 0.18651994
학교 -0.44869515 -1.3943696 -2.8684604 1.4233143 0.46301684 -2.7087803 1.2029116 -0.53008974 -1.9022648 -1.7852314 1.894821 0.7467451 -2.5753787 0.43908787 1.9169315 -3.2116194 0.6681768 0.53977793 -2.3140223 0.7287263 0.7897451 2.121088 -1.3234342 -1.5154514 1.846317 0.5086955 -1.5502626 -2.312593 0.5424498 -1.3517572 -1.8599596 -1.7776331 -2.4603257 0.35800835 2.3820658 -1.8080441 -0.07921993 -0.14412393 -0.8532486 0.72302127 0.09604825 -3.5107188 -3.5198953 0.28482726 -0.57596874 -1.1912131 0.88283575 0.32205796 1.4044092 1.3596258 2.3879168 -2.7146842 1.3359584 -0.43371263 2.4218347 -0.025125178 -0.06471927 -2.2917597 -0.3095394 0.08992622 -0.44422993 1.2104777 -2.6305428 -2.7540743 -2.1378856 1.4603692 -2.124128 -1.2275263 1.6647171 4.740918 -1.1011333 -1.4612155 -0.5229246 1.1128998 -1.7001793 0.17769767 -0.6736529 2.0969756 -0.71663034 -0.18906526 -1.3271567 1.2764378 -0.6005884 -1.4483181 1.4435745 0.16488592 1.4018484 0.46978456 -0.113647506 -0.12670103 0.6570404 -0.56299424 -3.6936905 -1.923609 -0.9150866 0.54949343 0.3493634 -0.5410214 -0.07291862 1.9328002
신발 1.0603046 0.033793833 5.472902 -0.20234628 -1.0151747 1.482308 -0.32710862 -0.6111504 -1.1208049 -0.19224392 -2.3177943 -0.09949597 1.4488857 -1.6657974 1.1000311 -1.2714534 1.0494295 -0.40399373 0.31450605 2.197848 -3.0516417 1.4402717 -1.4525533 4.0943055 0.26075596 1.2081165 -0.6349571 -0.6360444 -1.2791247 2.4180634 1.8063157 0.44269928 -0.41522932 0.5186503 0.1396692 -0.8992268 0.72123915 1.4220467 1.6737154 0.69359946 -0.72527236 0.93715215 0.51030266 -0.40714052 -2.8700004 1.4008157 2.1145897 2.392042 0.068137616 -0.92349315 -0.5107 -0.26476866 1.2064054 1.1186522 -2.9051437 -1.1717011 -1.1559283 0.4105185 0.35272378 0.13813138 0.0129608195 -0.5960199 4.3108563 -0.69819623 0.08069012 -1.586494 -3.8118286 1.5656284 -0.83526075 3.3302877 1.2576599 0.92748404 -0.6348307 -1.0424455 -0.8124443 0.45307267 -0.13195828 -2.2395618 0.7692166 -1.1419758 -2.3207784 3.086842 0.28245777 0.60689485 -0.49007097 0.15461479 0.45233363 2.184251 -0.30708334 2.7414796 0.5878375 2.570284 -1.1040417 -0.8091114 -1.1045655 -0.91810423 4.397706 0.36555818 0.5317686 -0.74028766
초딩 -0.71938044 0.6272167 3.9205873 1.1066728 -1.1785233 1.6497163 0.3520379 -1.7844324 0.7168017 -1.5976127 -1.2958734 -0.5336453 -0.4198691 -1.6444476 0.22275883 -2.3920856 1.0694855 -1.4335706 -1.650957 1.6757271 -0.45674077 0.10890179 -2.1773472 2.390482 0.4795265 1.8563999 -0.3154548 -0.66301495 -1.7757256 1.8989815 -0.66529024 0.8621549 -0.7027404 -1.1147584 -2.5682733 0.13526413 2.1449637 -0.40529016 1.0290611 1.8001511 1.0244578 0.91928536 -0.5254565 1.6249149 -2.108715 1.2563708 0.8661476 0.85925704 1.3444786 -2.6612396 2.2628012 -0.03805807 -1.0951245 -2.3653345 -0.19298008 0.42299572 1.5936321 -1.6132703 1.6991622 -0.5614178 1.6727576 0.20101826 3.8651547 -0.9168174 0.65674335 -1.4368703 -2.107395 0.99431044 -0.081373975 2.022784 -1.544448 2.3760543 0.33366746 -2.9501622 -0.530111 1.0996741 2.2321496 -1.4180387 -0.36033875 0.7457205 0.36215276 1.9479574 1.7307899 0.768978 -2.088347 -0.13107628 -0.77039474 0.87293017 -0.83231175 0.70419896 0.26390848 0.3874611 0.30146268 -0.895378 -0.33133137 2.2816875 0.79673594 -1.1100378 0.13044165 -0.1350788
검정색 1.3945746 0.33939275 3.6970663 0.031379793 1.8597697 1.0377318 -0.9550979 0.24948877 -0.7331555 -1.4928755 -3.1528673 -1.1660036 1.3056636 -0.7914519 1.8652409 -0.8641617 -0.86745113 -0.37371126 -1.502618 1.0724447 -0.8379731 0.69370717 0.35003018 2.2743685 1.485177 -2.2457914 1.028182 -3.9029055 -1.6806289 0.24520342 2.2207139 1.6733521 0.4959913 1.3499889 -0.20266613 -0.9621728 1.094852 -0.82256514 0.0946978 1.0695932 -0.30540052 1.1238513 -0.78360456 -2.6667058 0.36808077 -0.4962253 2.6540122 0.37380958 0.1043488 -1.903928 -0.38186437 0.73268914 -1.2929538 -1.0517209 -1.9738044 0.064918466 -2.533545 -0.33350873 1.7110268 1.9382954 2.2105715 -0.17457776 1.4564826 0.54831964 0.31273228 -1.6657267 -2.0904531 1.0841649 -1.5375292 3.8894439 2.002905 1.1530346 0.43620646 -0.56843346 -0.8685461 0.9695379 1.1541054 -2.4397173 0.6377523 0.51386434 -1.1421883 1.3283021 -0.11902339 0.19804893 -1.0334777 0.89489645 -1.7708603 0.65463984 -2.207946 1.1163121 1.3509336 1.2457844 0.70895416 -1.7194113 2.08114 3.7293882 3.4199739 -0.07528582 -0.7195247 -0.5045049
반년 0.36952376 0.6447299 4.3401155 0.6267202 -0.18996966 -0.73890513 -0.244122 -0.5189132 -0.028055202 1.8902225 -0.9697138 1.4823751 -0.3073881 0.85529816 -0.096756496 -0.100688115 1.2221028 0.5170751 -1.8829381 0.682368 -0.29401815 0.2599644 2.196395 0.95829844 0.4066034 0.8958449 2.300111 -0.3145318 -1.9622108 1.7175729 3.29472 1.0475638 -1.4025389 0.20943795 0.96759313 1.4653548 -0.63537574 0.023450602 1.8738737 -0.45684347 -1.1125165 0.3057051 0.6782787 -0.39714023 -0.23277031 -0.43114892 0.7458532 2.9872665 -1.0868522 -2.4075394 -0.3648369 -0.057753757 -1.7209058 0.55475605 0.43920806 -0.5883765 -0.7268917 0.8020527 -0.31875157 -0.74502635 3.0601707 -0.6521795 -0.18747875 -3.2477148 -0.060427234 -2.1471927 -2.3866236 1.7009736 -1.3176055 4.9891706 1.7424371 0.43890825 1.6513823 -0.73098904 1.2761642 -0.2199578 0.83267957 -2.6852648 2.2401266 -0.26908803 -1.1314962 1.8688182 0.14174159 -0.58423823 1.1716541 -1.4735817 0.30467483 -0.012265002 -2.0954635 1.8345395 -0.5517043 0.34998885 -0.053454712 -0.28501552 -2.47562 0.2387481 2.3899872 -0.4029099 -2.4806776 -0.35996482
저번 -0.17120911 -1.1464556 2.8192303 -0.98169553 0.48602715 1.779541 -1.9307152 -0.12175076 -1.5578915 -1.9088519 -3.2232325 0.81079686 -0.3692745 -2.626296 -1.189433 -1.3833299 -0.9946245 0.75291777 -1.3744472 2.7973895 0.33456472 0.79413086 -1.3579446 0.79667646 1.0250181 0.2975878 1.1348381 -2.0976539 -1.0240794 2.8615067 2.2232811 1.1668904 -0.23255782 -1.4790853 -1.039146 -0.17177203 2.3448067 1.1117669 0.8110424 1.0452166 1.1992129 0.52570295 -1.3551036 -2.3144832 -1.1729993 1.0175097 -0.40281293 -1.2506042 -1.0781051 -0.9926336 -1.5045806 0.099623226 1.043595 0.7871221 -0.27702558 -1.5780724 0.55448335 -0.070605285 2.237199 -0.20119822 1.2174942 -1.258253 -0.67547184 0.124793336 -1.1237714 -1.2012665 -4.1173973 -0.38177085 0.09157863 -0.46297187 1.1192648 -1.0885061 0.61640704 -2.081085 1.2058133 1.102096 3.190588 -1.696296 1.8153691 -2.3895595 -1.6586637 0.9773255 -2.386836 -0.31747487 -0.3841505 0.34711453 0.3306854 1.105143 -2.0401056 4.375813 2.7075446 0.27598748 2.2727613 -0.68924737 -0.15186432 -1.3409233 0.3456522 -1.3014786 -0.38156167 0.49711335
완젼 1.3698456 -4.3546724 3.0821042 -0.89665896 -0.20991644 1.149564 -1.4961898 2.0405731 0.25737378 0.69370806 -2.125773 0.7854191 0.6055696 1.016749 2.28218 1.2465913 -0.7023297 0.51804197 -1.6442947 2.539074 -1.8884765 2.1798794 -2.1157591 3.5888674 0.79202056 0.7402036 1.258469 2.345872 -0.087700814 2.1739285 1.6258234 0.6763825 1.1535866 0.5002019 -0.37259296 1.6113874 1.195037 -0.025136054 -0.2828637 0.27816907 -1.1029602 3.1899176 -0.91420037 1.2618827 0.17816414 -0.8804314 0.49246424 0.18308543 -1.473273 -0.1264279 0.7700058 -0.081078954 0.22050269 -0.29078504 -2.855639 -0.2865113 -0.9809985 -1.6425911 -1.3127195 0.41945168 2.1585836 0.8618244 2.2057743 0.8454447 -0.1972892 0.57842916 -2.367474 0.9606453 0.2924862 -0.13770619 1.4183165 2.6829293 1.4007422 -0.43402568 0.15153797 1.1342099 -0.13178283 -0.2214754 -1.4912118 -1.8383107 -1.720989 -0.26944298 -0.59873456 -2.374558 -0.42226812 1.6099352 1.1051383 2.6452384 -1.9013464 -0.7524197 0.7533441 0.7042478 -0.38806117 -1.1589637 -0.98271936 1.0860903 1.560708 0.09495959 -1.2888733 0.16766395
내야 0.11172538 -1.0418564 -0.45614058 0.1594392 2.2047067 -0.9027785 0.9547689 0.8420549 -1.5459799 2.282111 0.7975412 2.804014 -0.15102349 -0.50463057 0.11355782 1.3731048 -1.5756807 0.94794065 -1.191632 -0.07069173 -0.66601443 1.3961053 -2.458751 -1.5805966 -0.142419 -1.7534018 -1.3121674 -0.6836136 0.11384015 -1.0836687 3.023215 0.7196367 -0.83084846 0.7111668 -0.028822081 1.6026509 0.52388984 1.8540744 -1.1611016 1.9753618 -1.4321834 -0.025372077 1.1561173 0.5920996 -0.72866744 -0.41016817 0.048558775 -0.85546076 1.7107501 -0.9989119 -0.20738393 -0.7188792 0.6281893 0.92519313 -0.5231836 -0.612525 -1.0572695 0.13908072 3.187694 0.50406677 2.0158134 -0.47967064 0.25529435 0.6220029 1.68882 1.5088441 -2.0391014 -1.0366185 0.7770574 1.1734948 -0.8046327 -0.054642893 -0.31060013 -1.2922673 0.60475546 -0.89020187 0.04124453 0.45522726 -1.8004507 -0.5475573 1.1474303 -1.5186778 -0.95734197 1.5666668 -0.92790544 -1.5893874 -0.2855131 -1.2141848 0.15779461 1.7485482 0.63387936 0.91026634 0.25917947 1.8634937 0.080322675 0.79891217 0.7301894 0.33814633 -1.382055 0.7637165
살인 0.33984274 -1.4542007 4.0578423 0.049607925 1.3212751 0.5782827 -2.1099524 0.04386801 -0.036619615 -1.6870583 -2.0725057 0.23826481 -1.1875395 -3.6212516 -0.41202185 -1.0928781 -1.6016527 -0.91160893 0.091757536 2.36861 -1.5532602 1.9000386 -0.64216113 1.799206 -1.6176195 -2.0637004 0.9437106 -2.3058338 -0.6427439 0.1757854 1.151939 0.35551292 -0.6137864 -0.4893632 0.50671625 -0.7139562 -0.003317942 -0.35222998 0.83437115 1.0855786 0.3763338 -0.26588446 -0.6617693 1.4419634 -2.1118968 1.3922627 -0.593772 1.3426784 0.9385806 -2.223947 0.25657174 -0.50596744 1.2919831 -2.7927465 0.17987305 -1.4193962 -0.7660774 0.17101745 2.6793916 0.02773102 -0.39250937 -0.93106693 0.0750319 -2.2241561 -0.5000315 -1.8730134 -2.9094458 1.8771765 -0.20372805 2.3760269 1.5729636 0.3829698 -0.27289692 -2.72956 -0.4121974 1.2421918 -0.09734736 -0.629882 0.7189814 -0.37333304 -2.3958297 0.98974735 -0.7371774 -0.14982684 -1.0683755 2.3467157 2.2302966 0.10099752 -1.7248003 2.026175 -0.61266726 1.3535929 -2.2969158 2.6767654 0.3550922 2.3844497 2.324632 1.9477407 -1.162882 -0.81944644
대기 -0.9226445 -2.216897 1.3825358 2.7368765 1.3721919 0.8169695 0.29049194 0.48256922 0.5988228 -0.79647046 -0.94526577 2.2708373 3.4055638 -2.4133415 -2.0742798 0.37183315 1.0863034 2.7673988 1.5895575 -2.1319609 -0.9110697 -2.1701796 1.1072686 1.3725663 0.020718072 0.73672515 0.51474625 -0.273451 -3.55874 -0.55316395 -0.5355182 2.4618342 0.061123025 0.97478086 -0.73297215 -0.72474384 2.6544783 -0.5230615 -0.004438605 -0.09494387 1.4950337 -1.010962 -0.75563705 0.7162464 0.19956648 -0.20475422 1.3747698 1.485807 -0.5145393 -2.3060327 0.13940752 -0.43257758 1.20171 -0.5912647 -3.6663659 -1.0656525 0.5753789 -0.016452672 1.3832885 0.37470084 -0.68512404 -0.7776269 2.5213382 -1.7010788 -1.6614339 0.8800405 -2.6011386 0.8498475 -0.1251462 0.37979555 1.9242893 0.7215254 -0.04033995 -1.6500561 1.4078084 -0.6358197 -0.049041476 -1.5209299 -2.2240005 0.7677209 -2.3860207 2.2084105 -0.3664771 -2.1583886 -1.5056553 -0.30671188 -0.3363914 2.1577463 -0.84980017 3.3423133 -0.5706995 2.9146855 0.8573901 0.043905053 1.6501694 -0.0108621605 1.5342426 -0.7941675 -0.81583804 0.6615817
내기 0.45458928 -1.1426628 -0.6788513 0.94657373 1.6039078 0.42524526 0.35707647 0.7232957 1.0318222 1.4909062 -1.1749922 1.4932408 0.5854391 -2.0395594 1.5387826 -0.41508403 -0.42532742 0.9957489 -0.6878892 -0.29444167 -0.89548296 -0.6903903 1.2798492 0.17634799 0.22111471 -0.67918074 -0.06078838 -0.1522558 0.9424484 0.36835194 1.6220951 1.6521773 0.50529796 2.0748959 -1.6867114 -1.3024882 -0.9337826 -0.094085425 -0.844226 -0.6546383 -2.6463096 2.373818 0.43713513 1.1860132 -0.6202258 2.073833 -0.4248031 -0.4649319 1.3023803 -0.073738985 0.58636516 -0.4597236 0.7833912 0.2460752 -0.051008336 -0.25575373 -1.3943102 1.5481402 -0.75312334 2.5868287 0.38048714 -0.818138 2.6534903 2.5677497 -0.61317205 -0.28715566 -0.77665925 1.1122564 1.2850258 -1.3484641 -0.45231116 -0.4049696 -1.1601095 -1.0113384 1.4687243 -0.60945094 0.46154672 0.7810858 -0.31972 -0.40117308 -0.64794326 0.34565124 -0.14484403 0.3995308 2.611268 0.18621998 -1.7744763 -1.9588633 -0.73543155 0.2632928 -0.65323377 0.82881045 -3.152673 0.30288982 0.27223027 0.42287627 1.8961781 0.14393598 -2.983154 1.6468669
려면 -0.99675196 0.1993437 -0.24349481 0.5755323 0.344971 1.3420503 0.26608652 -0.1707759 -0.5461349 0.31292626 -1.218884 1.1236398 -0.67285234 1.2306491 -0.0052951183 -0.016217351 -0.7943757 0.1393043 0.035529483 -1.375735 -0.8661149 -0.36879498 1.0918376 -0.6336926 0.8337434 -1.7558986 -0.48692378 -0.91943264 -0.34914663 2.6906145 0.88943344 1.2410249 -0.18452172 0.34869033 -1.3224689 1.0403998 -1.6526582 0.5009106 0.80166197 1.4584416 -1.572145 2.7070024 0.5088062 0.44581202 -0.21396309 -0.43174154 -1.6433958 1.2870299 1.7718445 -0.16032988 1.3639007 -0.008680526 0.44069955 0.23752294 -1.4727364 -0.91685843 0.5569946 2.1716547 0.87383264 2.342421 -0.4043275 -1.3755237 2.4969501 1.2172635 0.64746666 -1.0631204 -0.093041226 1.9351267 0.6811592 -0.31840822 -0.161848 -0.6436904 0.9548601 1.3915715 0.23843135 -1.4214542 1.7997575 1.2105762 0.61133087 0.8711212 -1.0473347 -0.26708916 -1.2159857 0.5206762 0.40368223 -0.016458845 -2.4864702 -1.5612111 -0.11905135 -0.40932953 -0.2758501 -1.1272101 -2.077999 0.037569333 1.8233635 0.23694333 0.57544404 2.2114542 -1.7587348 -1.206807
운영 -0.40566736 -0.13912646 -0.85917395 0.081465825 0.3695544 -0.104030445 0.8158487 1.6535069 -0.41567278 1.5135247 0.52923673 1.0194285 -1.3006552 -1.0787389 0.27495155 0.3733313 -0.20519298 0.6153623 -1.4257573 -0.024044057 -0.5539968 -2.3321807 -0.46022472 -0.20537464 -0.68093646 -0.14922605 0.3600218 -1.6786582 0.4316676 0.532588 -0.3534943 0.2504849 0.8723203 1.6881442 -0.41340476 0.26426333 -0.09476296 0.20998372 -0.22195129 -0.89175683 -1.7865877 1.7256169 0.28887722 1.2894409 0.9641029 0.46047097 -0.7112731 -0.39670226 0.5177195 -1.0472023 -0.20031993 -0.2969159 1.6880717 2.6940236 0.85941035 -1.226973 0.97842085 0.50974435 -0.64721566 1.9569046 0.009863358 0.39338118 1.1871265 -1.2920213 -0.48651487 -1.0875512 0.34019226 0.88687885 -0.32848215 -0.79252076 0.39640695 0.02280086 -0.3497573 0.12988544 1.5534608 2.204673 1.4060901 1.0392338 -1.1115193 -0.8300081 -1.0274909 -0.0968215 -0.124036476 0.50337577 2.0216987 1.0591594 -1.9888895 -1.5823432 -0.8423674 0.13585685 -1.073072 0.8158331 -2.0675247 2.0927143 -0.30022252 1.4777726 1.7200626 -1.6541957 -2.5137606 0.041613407
생각 -0.82703847 -0.54421496 1.0538895 -0.98020947 1.6099942 0.5039511 1.7606907 2.3846247 1.3631303 1.3542172 -0.6648127 0.34744504 1.5382881 1.508852 -0.30345643 -0.84257287 -2.2176068 -2.1946335 0.758398 0.009757516 -0.98461425 -0.6168668 0.056905054 -0.6891825 -0.36970213 2.2967503 -3.0211813 -0.13144557 0.5932368 -0.272843 -1.2491943 -3.5140955 -0.6497043 2.5042715 -2.235455 2.1078742 -0.5078842 0.9350397 -2.4707677 1.1703639 -0.44862172 -0.8881896 -1.0579215 -0.6564214 -0.6235468 0.5763794 -0.37290645 0.9427841 0.004840102 -0.6292184 0.92804295 1.5597897 1.1297224 -0.48462915 0.4853285 -0.75171185 -1.107102 1.165012 0.27401882 -1.8552092 0.70712537 -1.5979241 2.4247792 -0.4413833 0.87639904 2.101167 0.50480217 -2.943908 -0.9444864 0.563565 0.90393037 -0.4221842 3.661078 -0.33994904 -0.54184675 -0.73762566 0.46270666 -0.31523588 -0.014797139 -0.7372906 -2.164916 0.35680082 0.35816368 2.7810605 -2.7242844 -0.5236469 1.7886696 -0.7850701 -1.5969217 1.0320799 0.6687657 -1.8829335 1.5737387 -0.0048463773 0.09006221 1.9874028 -1.2134756 1.0298413 0.47327012 0.961826
성적 0.8908623 2.0387597 1.4157529 0.8007885 -0.54027814 0.06472796 0.72778666 2.3651297 -0.6670696 2.3384314 -1.2290889 1.0539612 0.05008813 2.1106532 -1.9780722 -0.8184474 -1.1188526 -2.848674 -0.11713011 -0.23601846 0.32522807 -1.4609053 0.7394414 0.94170773 -0.01564139 0.40938658 -0.3087406 -0.78999674 0.5668064 -0.991288 -1.1808944 0.0859099 -2.7663112 0.98628324 0.34373862 2.5908737 -0.71543795 1.3664483 -3.3816895 0.41024697 -0.08000429 -0.92680264 -0.7292195 -1.1064485 -0.60906804 3.1383958 -2.5261667 1.1379246 0.85153025 0.9315916 0.97285366 2.135596 0.5098295 -1.8061606 -2.0119312 -0.76789415 -0.11104509 1.0334175 0.72956413 -0.013912487 -1.2051718 -0.48197052 2.7916794 1.9014485 1.52121 0.27039278 -0.32611033 -1.2197192 -0.75214183 1.1857126 2.7501218 -0.21153627 2.5666854 0.5414505 0.37535754 1.6652367 2.277594 -0.6822644 -0.012745061 0.68271315 -0.20748657 -1.3396684 0.914666 1.7304044 -2.2630427 0.51846325 -0.06954696 -3.1933722 -1.3129109 1.9468198 0.22354221 -2.0165715 1.4688346 -0.6276893 3.9449165 -1.1077863 -0.1483815 -0.13256085 -1.8503988 -1.2023803
알 -0.6922785 0.6663925 1.7692066 2.232883 0.33220497 -0.58311105 -0.7006924 2.0380127 0.79366386 1.4554216 1.8598785 -0.04039318 -0.13052106 -0.53845227 -0.28786132 0.33512044 -1.8942816 0.701428 -0.47912008 0.29974774 1.360677 -0.018865561 0.4484023 -0.5056132 -0.53788435 0.2402631 -0.20888977 -1.0416996 1.8806336 -0.27108052 -2.3106835 -2.5030954 -1.4352072 3.2284837 0.047158208 -0.76985747 -0.96593666 0.5774674 -2.6615121 1.8989525 0.6840932 2.9739149 -1.7352651 0.3814966 -1.1274068 3.3442304 -0.21123673 1.5316281 0.78783333 -0.93928856 2.079087 2.9365537 -1.1416761 0.7612631 3.6100678 -2.0091074 -2.9976442 1.2151855 0.96893865 0.41557157 0.56024283 -0.80971426 2.5349352 -0.46539095 -1.3975884 0.49613214 2.802073 0.39823124 -0.8365346 1.0224204 0.6584469 -1.5105944 -0.33181554 0.19358768 0.46847028 0.54512304 1.5780203 1.4681486 0.3239392 -0.6833639 0.2611806 0.6929051 1.9196244 0.31348652 0.035253424 -0.18971781 1.3939862 -1.1749578 -0.12129057 1.1868174 0.52296895 -1.368801 0.2697647 -0.00089718547 2.6109493 -0.53344864 1.6251149 0.09315736 -2.063269 0.10034126
학교생활 1.8380727 2.395876 1.9217296 0.56088996 0.4304708 2.47443 0.08351536 0.95058465 0.18179373 0.055466406 1.2730155 -0.06296177 -0.33108738 -0.26467165 -1.5347711 -2.22839 -0.5259762 -2.7493293 3.5613916 0.41499406 -1.32921 0.16921912 -2.347411 2.2609186 -1.6882089 -0.22510976 -1.3588068 -1.3403285 0.93380547 -0.8607501 2.3124912 -0.63804555 0.9597567 1.615733 1.7673292 1.425579 -0.07674016 0.18430093 -1.2270004 3.6169972 -0.54645056 3.4315739 0.9426407 0.7250743 0.5833763 2.1859324 -1.9231129 0.7948566 1.0855112 -0.62108105 0.24049145 0.5503015 0.3488074 0.6577852 -0.07059658 -1.6548803 1.1428741 1.3987865 -0.35564318 0.22910401 -0.4329363 -0.5337523 -0.70365006 1.1769992 -0.7972572 0.18257974 0.58923614 -2.3308587 -3.067463 -0.58009136 0.61785734 0.76444024 2.4976428 -0.21003917 -0.86017716 -1.465273 2.2002177 0.7361178 2.671579 2.6605196 -0.5764533 -0.27354586 1.9911392 2.5424123 0.1883085 -1.1931864 -0.9720443 -1.3595126 2.0007646 -0.44279554 2.4020107 -1.1682276 0.11011273 -0.49024063 0.27169368 1.6862315 -0.8946535 -1.1759499 0.4823826 -1.3214492
인생 -0.56872463 -0.8901446 2.9084191 -0.07428121 -1.8643109 0.5572491 1.3814782 2.782281 3.7839875 0.99087614 0.1259285 1.3899155 0.4167297 0.28015316 -1.3768306 -1.2394127 -0.848039 -2.1034153 0.1039269 -1.0823337 0.26434195 -1.8784136 0.6382415 0.5613994 -1.0705762 1.1114008 -1.9672706 -1.805371 1.6918201 -0.8914843 0.6702585 -1.342943 -0.6435854 1.882028 1.7430855 0.9176874 -1.6430098 1.0655863 -1.1892194 -0.05599043 -1.557886 -0.49604705 -0.5982072 -0.3229349 -1.8843659 1.8926593 -0.34352157 3.4280176 0.8173141 -0.64712256 -0.6065006 1.9488237 0.00081322726 -0.22884439 1.0904074 -1.7812518 -0.33542612 0.46700254 1.8944771 -2.5151083 0.114808805 -0.13532308 -0.13011913 1.4506516 -0.5755016 2.265299 -0.85699326 -1.1841731 -1.7313771 0.4229849 2.1333807 1.0159041 2.0237193 -0.25438327 -0.59316546 0.3356709 1.1026611 -1.4627829 0.5194884 -1.6204638 -1.1838595 0.089226365 0.39635754 0.06075333 -2.7939634 -0.15251061 2.1051388 -3.3654833 -1.3643787 0.7405299 0.034507833 0.3632992 1.0452766 -3.073547 2.777584 1.7680776 -0.5738222 0.1741271 0.38684207 1.1754792
최대 -3.2598748 0.5449228 2.5649219 -0.08287926 -1.3494778 -0.9865938 -0.4678757 0.17892839 0.70259625 1.4162529 -1.844812 -0.7703264 0.83632725 0.84485376 -2.1108904 -1.9242967 -2.6489403 -0.48901972 -1.5929344 1.2070364 1.0100118 -2.3383021 -1.6977763 -0.8445843 1.216526 0.17596135 -1.9005473 -2.2198372 -0.39838836 -0.3976167 2.1725056 -1.4002048 0.42732343 0.6194799 -0.25454566 2.136368 0.9685292 2.3727562 -2.082073 1.7751589 -2.0386922 0.57224655 -1.0937521 -0.026856033 -0.4124656 2.7168334 -0.024753233 0.88949364 1.821129 -1.1269864 -1.0914906 2.959851 0.93644863 -1.0434743 0.10256951 -0.96709394 -0.17867221 1.1445779 0.598805 -1.905594 -0.7315466 -1.2252434 0.7123686 1.3603605 2.1133397 3.1094131 -0.30354425 -1.4311088 -0.7612844 -1.4734136 1.5447139 0.51466715 3.1401074 1.594618 -0.7667335 -1.8328596 1.5475365 -0.4001584 -0.94149023 -0.48937926 -0.12970766 -1.6019068 -0.20464434 0.89963007 -1.614115 -0.08722189 -1.3421936 -2.9374866 -0.5668447 0.99384856 1.0282073 0.4504937 2.7244685 -0.6635575 0.4067705 0.4237128 -1.635197 -1.9608347 -0.8164172 0.5601511
거뭐 1.1292505 -0.19569364 1.5617815 0.41938525 0.5941589 2.7517183 1.7001544 3.0738354 -0.028022252 3.1545482 -0.17945641 -0.39893436 0.32504922 1.4888715 -1.0185331 -0.9615606 1.4785727 -2.5974443 1.489471 -0.34230798 -1.3276201 -3.7588527 1.0232792 -0.7795258 -1.0699 0.38751987 -1.2285603 -0.15101063 0.20285508 -0.02389257 0.07277506 -0.7628267 -1.4030099 1.1816812 1.0338598 2.3214252 -1.8159491 -0.3073463 -2.8972673 -0.29822078 0.18143982 0.08207979 0.107859455 -0.82193047 -0.73368025 0.8590206 -0.178066 0.6690513 0.42135823 -0.33217573 0.11322921 1.2716819 -0.44310823 2.207839 0.99171907 -2.0722554 -0.5463023 1.5719764 2.2819755 -0.86265934 1.005243 -0.6717245 -0.033848733 0.4802017 1.5774114 0.42166954 0.090760775 -0.515696 0.20247154 -0.36482593 2.4109128 2.019683 3.5098557 -0.19064207 -0.35969365 -0.8900238 2.3422616 -0.62496704 0.60184467 0.5077477 -1.4123764 -0.34571117 1.0757722 1.2024897 -2.7634852 0.70681626 2.5358396 -2.2164726 -2.669412 1.509509 -0.97769594 -1.2052605 -0.1906336 -1.3658066 0.9071088 0.47370276 -2.1825569 0.30223975 -0.44399747 0.6422504
여태 0.99381775 0.4828998 2.7476282 -0.60639864 -0.9108597 0.61984944 1.5842036 2.361685 1.0878781 1.9623649 -0.23055072 1.4764497 -0.4327727 1.7633238 -2.576246 -0.31226754 -2.1260653 -4.2676697 0.8144083 1.4754196 -1.7671504 -0.9464068 -0.5632746 -0.819195 -1.5929294 1.5230458 -1.3897119 0.4428476 1.7384518 -2.9423482 -0.4092161 -0.23304561 -1.9559613 2.3734362 0.5912236 2.6004794 -0.0753675 0.90953046 -1.5858216 -0.635887 -2.239903 0.046651527 -0.26422256 2.0919409 0.30641437 1.6035444 -1.7741933 2.0774503 -0.1429112 -0.20599848 0.72069824 1.7166215 -0.5093556 -1.7620608 -1.3428712 -0.029244123 -1.1785331 2.2927933 -0.08318516 -1.0197318 -0.8739896 0.9847809 1.6760412 -0.88926905 -1.0004976 1.3282169 1.1572752 -1.1180794 -1.949371 -0.10475167 -0.16377464 -0.32625484 1.1655078 -0.23322056 -0.09308543 0.7140584 0.8367925 -0.7671183 0.78250307 -0.8361233 -1.4195285 -0.7411474 -0.346966 1.675101 -0.6791085 0.3071547 1.4824581 -1.0796609 -1.4704682 -0.7154994 0.6607417 -1.7481095 0.18428406 -2.567087 3.1177676 1.5913076 -0.24408826 0.964988 1.0388534 0.34204373
년 0.061971124 1.3584248 0.6038403 3.4307327 1.0431587 2.3793988 3.5647247 -1.0160328 0.04910503 -0.005846389 -3.5084603 -1.1376361 1.9130251 -1.6274139 -0.84067065 2.6670463 1.5271335 -0.56681204 -1.5750455 0.8650301 -0.5175506 -0.51869243 1.9995916 0.70881367 3.0973535 -0.8388907 -1.7003467 2.3109047 -0.36214882 -0.73854285 -1.5537952 -0.7634254 0.49517876 -1.3906385 2.3848734 2.2699707 1.2134575 0.7657012 -0.15463611 -0.9249299 0.3636667 0.50241935 4.1666756 -0.3744472 -0.22742367 -0.6720743 -1.7251068 0.2007257 1.1233096 2.1167014 0.2685382 -1.1480273 -0.6429297 -0.39649782 -0.55838877 1.273059 -2.6570756 -0.2549498 0.1519272 -0.21117909 -1.7345388 0.8651293 1.4394228 -1.5310816 1.5999813 -0.8430791 0.55644274 0.40163726 1.6389289 0.20087606 -1.3445598 0.5912716 -2.4645865 0.9113129 -0.4094383 2.9730093 1.2888566 2.3413372 -1.9206342 -1.0976509 0.24349518 1.7781072 1.7627082 -1.3707976 0.7801854 -0.6281744 0.92286056 -0.8335653 0.37125915 0.6381289 1.8816152 1.7006226 -1.4714621 1.6689216 -1.3124715 2.0804372 0.17610869 1.7283937 0.10574378 -0.69156814
질염 1.8283395 1.2989728 -0.49578705 2.006676 -0.6630192 -0.50122917 0.18428229 -1.1421982 -2.6210012 1.0542642 -1.0129656 0.38771915 1.6651763 0.4647277 0.40351692 -0.050605744 -1.3633235 -1.1430142 0.6622595 0.73537254 -0.19233462 2.4148316 -2.6936648 2.3888366 0.7597612 1.6863549 -1.6393622 -0.20760632 1.2286669 2.5164165 -0.45740902 0.82681453 -0.70141333 3.122134 -0.22847158 1.2715839 0.9711616 2.6017735 -0.49164388 0.30043036 -2.2706885 -2.1902175 0.3217297 -2.917444 0.17428654 -0.20436244 2.1102822 -0.03703523 -2.0047567 0.9136457 -2.2429483 -0.11694035 2.023232 0.8237546 -0.74391466 -2.1382883 -0.7590076 2.5634842 -0.73492956 0.1483988 -2.404153 0.68840873 1.4061413 1.6962392 0.9053207 0.91415066 1.7181175 0.5801177 0.22846025 0.33769098 1.7833353 1.3594205 -0.7186085 1.4851067 -1.4801292 0.6958209 0.25240678 0.32125056 0.93424624 1.4001883 0.21863313 2.0674765 -2.7840137 -0.38366294 -1.1903262 0.669634 -2.107621 0.4886245 -0.43191925 1.1407782 -0.71041024 0.96695465 0.49183705 -0.67152876 1.1040386 1.0066006 -1.3475187 3.296643 -0.04573132 -2.0458238
냉 0.22193712 1.0965054 0.34292266 -0.21766527 -0.38892967 -1.5373156 1.990963 -0.24115731 -2.6349485 -0.5613499 1.6737505 4.443757 -0.03074654 -4.301488 1.094241 1.1682549 -1.2411828 -1.543612 0.26194555 -0.20345594 -0.4567752 -1.621199 -1.7233444 -0.5643466 1.9619513 1.3662425 -1.3678417 0.5074663 0.45839614 1.8565718 0.2325669 -1.0438812 1.48356 0.1441097 1.8915719 -0.21866688 0.7120637 0.7283363 1.6846745 2.3657882 -0.63187605 -1.8274225 1.6192994 -0.66698694 1.1591336 1.9004978 1.223131 -3.7168844 0.18654467 3.4975147 1.294213 0.9116017 -0.33863655 3.0121047 2.7641006 1.68795 1.8714665 0.770415 -0.97239083 0.1596279 0.19281715 0.7349777 2.502454 2.1173172 -0.9222477 1.5996153 2.4336233 -1.3950213 -2.6802053 -0.17303953 -0.053741496 0.101324275 0.52570176 -0.9298956 1.7146466 -0.2783417 0.79363334 1.5628397 -1.3977356 0.1558817 3.0610747 0.12614676 -0.38333675 -1.3709983 2.0925632 -1.5218079 -0.63110346 2.1972032 -2.3273234 1.291667 1.3046105 -0.05455429 1.6525862 -1.5193508 0.78196526 -0.37213376 -0.28383547 1.9809141 -2.2379758 -0.57036895
조언 1.0909724 -1.6501986 0.30994147 -1.5137782 1.4329445 0.7010355 1.5015182 0.7438387 -1.2181016 -3.1809452 0.68841475 -0.63695234 0.54032165 -2.6486578 -0.8108368 0.2876603 -0.0039123916 -1.3033977 -2.5965896 -1.2913907 3.0513804 -0.058503915 -0.27635553 -1.3803017 1.0429503 -0.94551486 -0.8135352 1.0650741 -0.2315354 1.3727628 0.6309943 0.50598854 -0.07111063 -1.6867574 0.6716796 -0.12142019 -2.6698637 0.07503792 -1.777015 -0.17661482 -2.2574074 -0.1461662 -0.18305093 -1.4207923 0.85898864 1.6550004 1.7879398 1.5456823 -2.9543715 -1.8655014 1.5951118 0.34777 -1.4515026 1.2469027 -2.1429813 2.2657716 -0.21534596 -1.0011518 -0.24790496 -0.52831864 -0.6545273 -0.8773483 -0.23070094 -0.6918522 0.8666618 -0.4029432 0.0795358 2.2601032 -2.8344028 -3.03378 -0.23521216 0.95427865 -0.24720289 -1.1300831 -0.43220273 -0.007328123 -0.8029532 -1.0356477 0.023778977 -1.9796574 -1.2881874 1.1200867 0.26055893 -1.5823308 -1.0529271 -0.9505894 1.5864604 -0.24520133 -0.831417 -1.1326904 3.463839 -1.2615094 0.09822894 1.7220267 0.9133136 1.817793 -0.23929244 -1.0794071 -1.1169202 -3.341942
허리 -0.25604796 0.34074867 2.3654752 -0.14192447 -1.5143404 -1.3820539 -0.6249247 -1.0962029 -0.48557964 -1.0519139 -0.49979144 -0.29031226 3.4495301 1.4516575 -0.22508019 2.0061443 0.68281066 2.4980702 -0.66129714 -0.7368609 -1.5765508 2.018421 1.4927741 -1.2776743 -1.3054256 2.2819788 -0.5553019 -1.7189012 -1.4929637 -2.6854239 0.11310674 2.6018956 -0.45043966 2.2718499 0.4188504 0.44814667 -0.68851346 -0.9634809 0.48784038 0.10959098 0.6473135 -1.6713331 1.7507756 -0.010008381 -1.3852069 -0.10623301 0.5938503 -2.7123778 1.1249218 1.7173483 -2.4079232 -1.2336962 0.7079986 0.20174342 -1.2223434 0.85859907 0.8223768 1.4516551 -0.71895456 -1.6579733 0.23655222 0.022489611 -1.3950056 2.4759336 -4.1958017 -3.2482326 -3.261672 1.3176162 2.3014743 -2.0923157 -1.4978954 -1.4194545 0.08802345 -1.1922257 -1.0506186 -0.54319394 1.49486 0.05633969 1.6985855 0.846911 -1.403053 -1.2773917 -0.8351285 0.66549647 2.2454782 -0.1590993 -0.31562817 -1.1735969 -0.94599664 1.0022744 0.37949073 -1.0343825 -1.9568031 -0.12489095 1.2373301 -1.0439799 1.3983532 -2.0303967 0.18087278 -1.0569365
허벅지 2.863024 1.2804902 2.9498084 -0.46663952 -1.7035241 -3.0519392 3.1351063 -1.7181957 -0.6898636 -2.183493 -2.0019932 1.7697511 -0.6678272 2.1372144 3.2571616 1.3216567 -0.49044585 -0.28575975 0.008181567 2.147473 -0.75884944 -1.065216 -0.60755354 -1.7671336 -2.2776775 0.9100107 0.48502094 -2.067137 0.25827608 -0.6209734 0.40841347 -0.13280457 1.2304975 2.0682075 -1.9390607 0.6436236 0.15660466 -0.5547303 -3.1999214 0.3446867 -0.33077523 -1.3164406 2.15232 2.1723006 -0.9547354 -1.0947199 0.8382568 -3.0309632 1.2603147 -0.3959617 -1.9870017 -2.2033987 2.2057378 -1.9561187 0.905795 -0.25927088 1.1880991 1.9340166 1.8795244 -2.1952603 -0.88488495 -0.83989334 0.83113956 -1.0958906 -3.313947 -4.646701 -1.6051652 2.962778 0.1769823 -1.4297158 -1.7810371 -1.0974424 0.19902547 0.7016143 -0.49338737 0.56458277 -0.014830468 -3.9297621 -0.5273964 4.7311 1.1802319 1.0539021 1.7512316 0.013941157 3.1644394 -2.7889297 2.4512544 1.2848271 -4.13524 2.3363805 1.5233583 -0.067894705 -3.21677 -1.1192355 -0.63676864 -0.98870176 -0.5342361 -0.6537043 0.7882552 -1.3416106
자로 -0.7047032 -0.045380857 1.479829 0.11706656 -0.20734257 -0.87493104 2.3545964 -1.9074798 -1.1408846 -1.7442509 0.4192599 0.30527455 1.0484649 2.4446003 -1.2910683 2.444999 -2.444891 0.75072926 -1.4299263 0.033597074 -0.40997782 -0.63429135 -0.7654803 -0.119134106 0.96582514 1.6653327 0.8317593 -2.5841968 0.41697502 1.218448 1.2218854 1.4333155 0.7368163 1.5215418 0.9707406 0.61970246 -0.2438098 1.1379226 0.10924471 0.4215297 -1.7537943 -0.8960688 2.2656581 2.6394224 0.39563814 1.2884221 2.903035 -2.232621 -0.26155275 1.024571 -1.8199894 -2.5156093 -0.6930216 -2.6887045 -1.9841532 0.06832364 0.6118107 0.25032848 2.4417825 -0.87108845 0.060854275 -1.4719095 -0.99120015 1.0953689 -3.566053 -3.344298 -3.2323408 2.2385085 -0.163763 -2.5398612 0.12980731 -0.07842076 1.2892002 -1.6957027 0.58215564 -1.4772261 -0.6652408 -1.0909783 1.0772579 1.4330343 -0.20122589 0.8783823 0.38186803 1.5034381 0.82075304 0.60495853 0.3695255 0.19632705 -2.3551774 -0.1871245 2.9670286 -0.87500083 -2.102833 0.28820828 2.078012 -1.3582462 1.3286119 -2.3188138 -1.0205683 -2.0233672
염색 0.63533324 1.6824069 1.8930712 0.9123811 0.91821337 0.5005973 -0.91661143 -2.4802763 -0.8161905 0.9491713 0.4482647 0.38396576 1.1967432 0.119561315 0.5719637 0.2652167 -1.164096 0.6474531 -0.6192019 -0.947859 -0.7364311 -1.7254366 -4.5348444 0.002001197 -0.6395446 1.5316172 -1.4465424 0.58265704 -0.6920334 -3.6099057 0.9455496 0.94654006 -0.5482935 -1.0039314 -0.37264758 -0.29380837 -1.770161 1.6525409 -1.4930248 0.53717417 1.7254289 1.5025895 -1.8090155 1.9202288 0.33962795 -1.1353341 -0.40983996 0.37313104 -0.7374711 2.6962786 1.4670238 1.0102327 -0.6363781 1.0371399 -1.3134341 -0.41545278 -1.194764 -0.15065001 0.17387031 -0.5222258 -1.576203 0.518502 -0.6860131 2.0743666 -2.3111567 -1.1800508 1.672336 1.3214002 -1.396821 0.46638125 -1.0518509 1.0955938 0.540784 0.7148424 -1.2799605 -1.2124909 3.3985538 0.8877042 1.4299611 -0.25628155 -2.3471787 1.2916583 -0.007887353 0.47602576 2.6615622 -2.1465347 -0.42763218 -0.35776788 0.05992891 -0.23410404 -0.41285518 1.854983 -0.55688393 0.78401834 -2.5881271 -0.030940756 -0.093495615 -0.74268746 -1.85503 -0.53906214
봉사활동 -0.1775015 1.4635823 0.4587185 1.6279756 1.8072025 1.0642583 1.9444352 -0.91716784 -0.036025435 -1.6736107 -1.8962169 -0.05501624 1.2911762 -1.398231 -1.349529 1.8808265 1.5991936 0.12844408 -1.9638169 0.681875 0.35496774 0.24633507 1.0102782 1.1743629 3.0836241 -2.7603357 -2.450713 2.6610577 0.22943908 -1.2659483 -1.1236264 -0.34236005 -0.12291195 -1.3357579 3.146157 1.2542635 1.4200718 0.8502398 0.97278076 0.5753278 1.2793405 1.5744526 2.8809626 -0.71936625 0.8468351 -1.326209 -0.7240096 0.84637654 1.9369859 1.077957 0.5861403 0.37599638 0.5393414 -0.5145037 -0.030014394 1.9063745 -1.5783622 0.089628905 -1.1690032 -0.035794098 -1.0283815 -1.7411511 0.90800947 -1.3069434 0.7474811 -0.33265224 -0.09426433 0.779395 1.9083878 0.84299785 -2.0125759 0.7509141 0.24865212 -0.029889064 0.4618743 2.2437296 0.71702766 2.4800346 -2.4034986 -0.2074267 0.69386625 0.4801799 1.0776118 0.16247821 1.8719631 -0.61406666 0.40920573 -3.1313517 -1.5254158 0.8042919 1.781911 0.5969799 -1.1818492 2.7327156 -1.6499963 0.16057684 0.8208108 0.71496534 0.79966164 1.2028543
봉사 0.31718767 3.2536762 1.5608112 1.7630665 2.959707 0.86947286 2.5507097 -0.87275535 -0.9149977 -0.2999386 -2.460118 0.5777819 1.2130306 -0.079153754 -0.49485165 2.0197475 -0.08966768 0.79533225 -0.7483962 1.5786252 1.1123824 1.4393989 1.2722982 0.41994312 0.60392094 0.51759386 -1.0265318 0.686143 -0.62442386 -0.7643287 -0.25864115 -1.8076851 -1.0733246 -1.6096896 1.4396397 1.7950832 1.0626208 0.344811 -0.47461978 1.2863768 1.3482668 -0.820259 3.3710792 0.16886759 1.1969503 -2.3081784 -2.514418 -1.4452518 1.6018417 1.0637566 0.13427284 -0.30567795 0.5341197 -0.2913196 -1.8692186 0.9648168 0.3332386 3.384875 0.12199895 0.8505398 -2.083806 0.028769877 2.6562254 0.34424543 1.5399754 0.073999576 -1.1913669 -0.94637376 2.3542638 1.2540684 0.7784302 0.6237444 -0.00016267752 1.1650728 -0.21420735 3.2435715 1.9361283 2.313833 -2.8231559 -1.0057209 -1.0057902 1.2582356 0.5172124 -0.09829321 1.0606289 -1.240665 2.112394 -0.22731413 -2.0153368 2.8177707 1.2219741 0.41950366 -2.5029888 2.034761 -0.035599764 1.296526 -0.74580044 0.61579365 0.44151834 -0.55132264
카메라 -0.14909087 0.42352563 0.9269336 1.4401643 -1.6508813 -0.42065737 1.1343977 -2.0612676 -0.66793734 -0.26964754 -0.12488464 1.1346487 0.3896914 0.22052759 0.1117922 -1.7219808 -2.4327655 1.5702604 0.49324 2.9709048 2.5976813 -0.25604331 1.634496 -1.5646465 1.4391714 -1.0296472 -0.7574039 2.9325156 -0.39897114 0.5999454 2.3466759 2.112934 -0.5251833 0.9825235 -0.506711 -1.0532107 -1.3297384 0.17054778 -0.46669617 -0.071890846 1.1588738 0.39783025 0.4769314 -1.2328289 -0.05941431 0.048813827 2.42245 -0.12882154 0.83843094 -1.1049838 -1.1528658 -2.65141 2.2612433 -0.6880446 -0.7412514 -0.02411178 -0.30054948 1.7579962 1.5774723 1.8770372 -1.0307589 2.2202861 0.6592788 -0.45936358 2.9761882 0.2356003 2.2140028 1.0155456 -1.4151702 -0.6290202 1.1441042 0.7091039 -0.36453992 -0.973381 2.8116806 -0.36204445 0.9557943 -1.9488679 0.85570884 0.36178863 0.7070196 -0.04135981 -0.41889283 -1.2172228 0.8308787 -0.49966532 1.7764716 -0.04079898 1.1623847 -1.4356127 2.1614082 -1.597597 -0.6520761 -0.5332078 -2.0450182 2.0806847 -2.474649 -0.23342565 -0.26102993 -0.89479035
바닥 0.5337993 -2.681251 1.2726606 1.6689538 0.46135068 -1.2962637 2.71988 -0.24116911 0.10400858 -3.999449 3.4615872 1.0095383 2.1171327 -1.8157651 0.6632111 5.2330894 -0.66505796 2.1827114 0.000146088 1.1424087 2.7549536 0.7533996 -0.2684785 1.0254436 2.5846043 0.58888406 0.099922135 -0.18954256 -0.4407607 -1.4252688 -1.1624628 -1.228005 0.89699614 -0.23903611 1.4187455 -0.46631238 1.8293098 -1.2985877 -1.3117735 3.2004876 -0.30420995 -1.2762636 2.7533298 2.940845 -0.48388723 0.06295038 2.4064107 0.77854246 -0.78144747 1.792093 1.2240548 -0.75465024 0.6573177 -0.88566947 -0.14061375 -1.4869121 -2.2886612 -1.8274947 -1.3618575 -2.3397374 0.52415955 1.4760466 -4.110515 -2.2465181 -1.3309908 -2.1488388 -1.1571723 0.27662235 2.7120752 -0.9985856 -0.32050306 0.49972013 3.0775175 -0.6932681 -2.4736006 -1.4629192 0.3073561 -0.5913868 0.035511047 -0.42007542 0.13956097 -0.7449666 1.1562985 1.6311007 -0.4650916 -0.4147881 -1.9625795 1.3031671 0.4510987 0.15652454 1.7713935 -0.692288 0.7600895 -1.7141744 -0.784404 -0.6562915 -0.9262703 0.8074407 -0.3832141 -2.9034357
사진 3.0135827 -0.89668006 1.2477334 0.107993945 0.010788526 0.67928785 -0.743466 3.6254487 -0.24295628 1.4683347 -2.5856693 -1.9834216 0.6204307 -3.700855 0.6696186 -0.3140331 1.7474127 -0.2590837 0.33703053 0.40208098 2.069355 -0.53137356 2.5411851 0.51871467 -0.17685595 0.8688956 0.838858 -1.4382255 -2.43034 -3.1010633 2.8431163 -2.328723 1.3752995 0.15768866 -1.3427134 -2.5494556 -2.2832594 0.65609765 0.981273 0.26516846 -1.2884336 1.5566715 2.9405472 1.2266041 1.1343385 1.8669591 0.64627486 0.59881353 0.7876862 0.020012239 1.1351169 -1.9252266 -0.24564126 -2.134334 -0.21339926 -0.16629243 -0.27387345 0.9683153 -0.49455452 1.9579289 1.3145725 0.9034345 2.826272 0.8012015 0.6522493 1.7935454 -0.4656126 2.329734 1.1038994 1.8503325 -1.4352541 -1.7850158 -0.21195891 -1.2347347 3.4191399 -0.23042546 -1.0533713 -2.1358118 2.5380485 -2.158182 1.5620072 -0.014035854 -1.7003083 0.56823915 4.126471 -1.9146693 -1.5679934 3.2854977 -0.3640885 1.0804785 -0.71930605 -1.3829386 -1.6724497 -0.3595677 -0.180238 0.93055826 -0.55615896 2.4586024 -2.546742 3.309908
헬스장 1.3208562 1.0603303 1.3487555 0.1767442 0.021135962 0.44197157 0.601302 -0.23460805 -0.9959782 -1.6932472 1.2414721 0.13621494 1.8742249 2.0783226 0.42073032 -0.36622483 0.9557422 3.3113563 -1.3515762 1.5687007 0.2953101 -0.37616435 2.8556979 1.7819889 -1.9254785 -0.23129238 -0.113950804 1.4373314 0.13077463 -1.9526464 -1.58782 -1.4467181 0.058786724 0.29836413 0.09560082 1.9770937 1.8687294 0.47866935 -1.155902 2.1463168 1.1233426 -0.48244742 -0.9331197 0.86704284 -0.2968147 -0.63275343 -0.437731 -2.589792 -0.5803235 0.59137416 0.78993064 -1.5626562 1.4125527 1.3878669 0.67157453 0.5868542 1.2083057 0.7062234 1.9016823 0.72672784 -0.45884085 -3.912333 -0.006463032 1.0816377 -1.3707782 0.47841305 2.0955014 2.3691866 -0.40394607 0.9092389 -0.4821314 -0.35321015 0.32759783 0.16175249 1.6889582 0.8780629 0.4033728 -2.5882385 -0.30095395 1.8968574 -1.0583338 -2.3396268 2.3713768 -0.74256665 -0.28910223 -0.117255025 -1.1109027 0.07649961 -1.1849866 0.9428162 -1.2097937 -1.7987503 0.39519674 0.8309744 1.2620207 0.7343925 -1.1758292 0.49793512 1.416684 -1.3938584
인문 0.73125535 -1.2561787 -1.0713221 -2.5143874 1.5799077 1.0918657 1.1973743 -0.70646656 -1.9772267 -0.35867462 1.451288 1.2566682 2.8607366 -0.85602236 1.2577779 1.9474654 -1.3065618 -1.5093557 0.4246361 2.319773 3.504265 -0.82692534 1.539402 0.7684717 -0.50291365 0.8503557 3.016779 -2.6746154 0.27172983 0.8398338 1.6698731 -1.7211821 -3.1065722 -1.7897793 0.4191509 1.17734 -0.84886086 1.257831 -0.6965048 0.6138455 -0.96363103 -1.223212 -1.1229709 0.3159966 -0.23343047 0.54948807 3.4630022 -0.096465625 -0.5950141 -1.1219401 1.3787051 -1.484901 -2.4613998 2.0286076 -2.598411 -0.34778348 0.7179464 -0.106080905 0.8264728 1.2598928 -2.8149412 0.7292848 0.7268539 -0.4300975 2.114408 -0.8019633 -0.17168976 1.1763461 -0.11346804 -2.2813272 -1.4615656 1.9986978 2.7327058 0.2060434 -1.1046938 -0.42927602 -1.9551504 -0.91981024 -0.6543652 0.56704736 -0.043566104 -0.48085976 0.8091902 -1.8603112 0.2980215 -0.27594933 -1.0872887 1.473547 -1.6707985 1.3403747 3.554423 -0.43923864 -0.0950247 0.25022423 -2.1292703 0.1695899 1.5376607 -1.2716122 -0.62183386 -2.9696786
사람 2.9564712 -0.785973 4.2920365 -1.3058149 0.4712262 -0.06524883 0.25828555 0.88417953 2.0778685 1.072591 -0.15967673 1.8163319 -1.8996141 1.3951898 2.0480175 -1.0137703 0.17976645 -1.4029099 -1.6070141 1.044793 -0.10405549 3.5022483 -1.2886854 0.9345451 0.74309283 -3.2344668 2.3734457 0.56139714 -0.46279672 0.7035779 0.7520277 1.3567642 -1.3071129 1.6463469 1.5575931 -1.9887733 1.57196 1.4022542 1.6903229 -1.8664187 3.1569686 1.280785 1.1844888 0.482894 1.7454575 -0.79166424 1.3512408 -1.5293218 2.7155998 -1.5637323 -1.9163282 2.2565713 -0.26157972 1.6894755 -3.5329306 -1.0072246 2.0761402 0.22287904 1.1033212 -0.35401568 -0.5066457 -2.6401691 -0.7185168 -1.4064019 -2.699918 2.7235022 2.0126243 0.6789084 -0.66796356 -0.22696371 -3.1365347 -1.5742809 -0.042194754 -0.44796723 -0.22804947 -1.5955014 -1.5062418 2.4405048 2.6621614 3.4398532 -1.5344099 -0.50611436 0.6726299 1.3057758 0.71084607 2.4467096 -1.8896844 -1.1427954 -0.27881303 -0.61459756 1.1947267 -0.09381084 0.82750094 -0.47230804 -2.1907082 -1.1952338 2.1108744 -1.7551813 -1.9002343 -0.7381013
돈 1.3410131 1.2981592 0.49183592 0.78410274 3.373382 -0.90306765 -1.0261359 0.29062298 1.7860972 -1.6279916 1.401024 1.927522 -0.6424659 3.6761427 1.2861161 1.1704184 0.8191885 1.1624849 0.28781807 0.9264527 -1.4850998 1.4924985 0.3121425 1.4831382 1.5201141 -3.313354 2.434742 -1.5453238 -3.167966 2.9352818 -0.23075557 1.184577 -3.9568005 0.3312742 -0.31956568 1.7631265 -1.3342258 2.3896194 -0.48800302 -2.1624298 1.5693159 1.5170704 1.6697096 -0.08833338 2.5405467 -1.2965362 -1.415367 0.06787857 2.6645858 -0.78551257 1.6215513 2.0407007 3.4374197 -2.3706868 -2.5281525 0.5141862 1.5460883 -0.47483495 2.6132863 -3.2893095 2.5135064 -0.100853704 1.2310712 1.336747 -0.47705764 0.7286068 -0.30457792 -0.6594957 0.8048627 -0.016157378 -1.7291021 0.5572452 1.9208446 -0.5768321 -0.17910199 2.3529441 -0.29030275 -2.6621392 -0.78495944 1.6896222 -4.3393884 0.5431419 -0.372642 -0.66492844 2.0698564 2.0977745 1.1057185 1.6737903 1.666829 -2.1466331 0.64122146 -1.1355633 3.5780835 -3.002635 0.23217706 -1.3101416 4.8372874 0.6318615 4.837274 -0.50066423
관심 0.3562319 -3.53584 -1.320656 0.831034 -1.5377004 -1.9468957 1.121221 2.0422003 2.0986388 -3.8788147 0.18426958 -0.52027285 0.5616761 1.2941003 0.25486767 -1.919537 3.6751432 -0.4521631 -3.4729123 -2.035779 -0.8059505 0.56566465 -0.37467754 -0.26078278 -1.8533651 -0.34053478 0.82328314 2.1001084 -1.0075008 3.198176 -0.9303882 1.6587945 1.7323699 -1.2474135 0.22949576 1.3657484 -0.45020777 1.8363923 -0.46159852 1.7096181 0.63058513 3.964638 -0.9263943 2.4118428 2.1694903 1.1057734 -0.5711547 -1.1732118 -0.32597956 0.8979841 -3.9350748 4.6845994 1.1552602 0.13897952 -0.54923594 -2.0679693 1.9168082 0.18621768 2.415973 -3.4756744 -0.25682953 2.3339381 2.605577 -0.81116575 2.8617425 -0.5920605 -1.8926289 -1.994478 2.7583518 0.059566084 -0.854943 -0.13849533 -0.22186837 -3.237695 -0.5746588 0.6804342 -0.53687835 -4.2791033 0.30258626 -0.1002247 -0.44681963 -1.0356805 -1.8120298 -0.06978752 1.1471078 0.04593863 -1.5089843 -1.2200904 4.0109634 0.31874478 -1.2988452 -0.2833776 -0.66074157 2.5184653 0.50050527 -1.2442114 3.1613138 -0.22567259 0.7227785 -0.082858756
자연 1.1820872 -0.2866076 4.3328547 -1.1966542 1.5785999 -1.3685331 0.43423074 3.3162796 2.6472263 1.2721243 -0.40644926 1.9186244 -4.1558676 0.69650096 -0.8374069 0.9160289 -1.992566 -0.9151133 -2.6820774 3.0453062 -1.189324 3.4270587 0.46478966 2.66431 0.50828844 -1.9139117 0.2653421 0.81881154 0.48958007 1.5882187 3.3097064 1.9649043 -1.0637034 0.16221116 0.6931823 -0.90991527 1.6900636 2.804732 1.3682173 -0.4284504 1.0182345 0.9178711 -0.11179954 1.2068555 2.566403 -0.1902559 0.35256636 -2.533535 2.033351 0.57698065 1.1186492 -0.2866823 -0.840332 0.9278664 -1.4953798 -1.0087996 0.19224274 0.50993925 -0.6328888 0.46868148 1.0035611 -1.38259 -0.35610288 -1.4563448 -2.297994 3.5012681 3.5568657 0.5888737 0.7824305 0.3324792 -3.611867 -3.343623 0.8020095 1.2190083 -2.2528362 0.053554215 -1.8396859 -0.1663518 2.43668 2.2176678 -1.2686199 -0.33508667 2.6660135 2.6784256 1.9253739 1.6693074 -1.2976409 1.180176 -1.7747996 -2.2963514 0.5648249 -2.115178 1.4366246 0.575106 -4.235403 -0.1043177 3.0903828 -0.045601185 -1.3178599 1.5468918
첫 2.508797 -0.8757573 -0.26727933 0.61068946 -0.17589399 0.10408678 0.06417997 2.395789 -0.87477624 -0.3217354 -0.8052862 1.341854 -0.22717313 1.3755409 -2.0547676 0.7018326 -1.9860367 -1.4126358 -5.014104 -1.6232376 1.5271358 3.1441326 2.1624243 -0.6123092 -2.7908678 -0.39170876 -4.060204 1.7081174 -3.2021694 2.1558638 1.7649441 0.42154458 2.4364374 -1.5406818 -0.47309008 -2.1519637 0.030993197 1.8143411 -1.3215842 2.297542 2.6423225 2.6563783 -0.7580662 0.40351892 3.2645483 0.70616794 2.5372164 -0.3213634 -0.8092401 -0.8607559 -0.4811491 5.371118 0.50519943 -0.5738171 -0.027927177 -0.17338608 -1.2663202 0.74263483 5.0992265 -0.3586009 -0.63639647 0.59526634 1.023415 1.223967 -1.337061 1.0463496 0.93276054 -1.6827735 -0.33099422 -2.7535748 -0.08412079 1.5954992 0.096048936 -1.0322348 1.0588791 1.1389824 -2.913163 -2.185596 2.5056908 2.7039218 -0.8108862 -0.4386898 3.4300742 -0.095467865 0.2961402 -2.4127443 -1.6702381 0.10798868 2.374917 3.0345182 -2.8280437 0.81228685 3.9775734 -0.7150612 -0.66229385 -1.2528768 -0.107860945 -0.26619926 -1.7056851 -2.1409042
아디다스 1.7254254 0.96456516 0.21270695 -0.114154 -1.4128177 0.12964943 0.5537236 1.0618125 0.7203644 -0.22625223 -1.4658685 1.3630372 -0.19556165 2.8014915 -0.56191 -0.8499966 -0.9186627 -2.953437 -0.7773502 -1.7666205 -2.7565248 -0.7280574 1.5239005 0.0698691 -1.7764603 -0.9548447 3.639486 1.1669841 -2.6009946 2.4130125 0.026353907 2.4107566 0.015097687 1.977249 -0.87639934 -0.09343134 0.60408676 -1.4218731 1.4696319 3.658628 2.0127409 4.885491 -1.8740131 2.408073 2.4090714 0.24394341 0.3564056 -2.9749498 -1.6177856 -0.022656934 1.1861342 5.2385592 -0.3185879 0.6389393 -0.33920127 -2.6236982 1.7794522 1.852851 3.1348145 -3.5429275 0.4764799 1.2254088 1.8040003 -2.4097629 3.0877032 0.1298306 -1.3191814 -1.0917819 2.0851681 -0.6432139 -1.2631749 -0.9718949 1.9487549 -2.436308 -1.2555605 -1.8365463 -1.5878336 -2.2267258 3.6745493 -0.7677035 0.9888972 1.5374222 -1.294541 -0.20181426 1.2647055 -0.27925938 0.41374713 -1.4104906 5.5871124 -1.97845 0.66904056 -0.51604897 0.5504995 0.8815405 1.5003464 -1.3074391 3.1579947 0.7211827 -2.376305 -1.5443586
운동화 2.3483894 -1.6906406 0.60570985 -1.1042554 -0.50510603 -1.0475022 1.8470098 1.9770099 0.66150576 1.3075178 0.43369693 -0.3866871 -2.0576062 0.8874689 1.1088272 -1.6099108 -0.3341114 -1.9803196 -2.5589263 2.0766134 -1.6492774 0.20945293 0.80628085 1.9090179 1.4694636 -0.75436354 0.49733382 0.068549834 -3.4029214 3.1850293 -1.7300212 3.1416137 -1.5239103 0.98556304 1.3437879 -0.98398596 0.18879658 0.3655331 -0.25554898 2.3588548 2.3141792 1.435174 0.5053129 2.44571 1.1149247 -2.3149886 1.5225178 0.41326833 1.4077007 2.264423 -1.2141794 3.0081682 -0.52197766 1.0060863 -1.7187998 -1.0625694 2.9503937 1.9647255 1.9582251 1.7294981 -3.5169141 -1.7061405 -0.1187476 -1.6362513 -3.0183878 1.4524026 3.819641e-05 -0.4442871 1.8137728 -0.09227762 -3.4058964 -0.61009204 -1.5646489 -0.9656344 -2.1120977 -1.7262927 -4.6654797 -1.5959482 2.4109519 -1.9720495 -0.21832734 -3.129402 1.3787059 -0.5028774 -0.818773 0.038409285 -1.1590865 1.014682 3.187082 -0.92274266 1.1540868 -2.790097 0.048753895 -0.69403666 -0.83016866 -2.5351918 4.408938 -0.7413953 -0.32233515 0.47655663
대하 -0.435069 0.9127757 -2.4837432 -0.093166366 0.8702866 0.19410793 1.1578904 -0.58599424 1.4623699 -2.1776626 -0.4444691 -0.45245814 0.023222724 2.184532 -0.21045287 -2.9312646 2.2236683 -1.2774098 -0.48921987 -3.0601232 0.13119185 -1.3347466 1.4331244 -0.7932402 -2.428985 0.042549133 0.6675194 0.8918095 -1.5600647 3.0497284 -1.9771707 0.72670054 -1.4285417 0.39932337 -0.6398986 -0.8867782 -0.6399094 1.7900997 -0.8749158 3.664028 -0.86586887 1.4738265 -0.9327185 3.0635958 3.0179882 -0.71872866 -3.309237 -1.56979 -0.8303256 0.09437515 -3.1819263 4.8414946 0.96815014 0.11017392 -0.49541944 2.334681 2.1201463 -0.79890674 3.8733974 -3.3594573 0.79336107 3.3141294 0.9781758 -0.9064218 0.36706436 0.39173043 -2.7156456 -1.2608447 1.1331985 -0.96714026 1.315998 1.2008518 -0.5909946 -1.5478563 0.55471253 2.105483 -3.1554334 -2.6476061 1.7514963 1.0743135 0.5663024 0.4324983 -0.49442318 -0.14227341 0.12764382 0.59617126 0.706525 1.6944631 3.8203712 1.4902315 -2.3584504 0.06102054 -0.50168014 0.14191887 -0.49575981 0.030745273 0.9459658 0.051691733 -1.1608988 -0.36113265
푸마 3.3250544 0.00014734898 2.7989907 0.7573872 -0.80116713 0.024682729 1.3398477 -1.3505535 1.8048395 2.9392138 -0.18211752 0.2081198 -1.7184763 -1.3289398 -2.2254355 -1.9055506 1.1560214 -3.9347432 0.25594392 -1.2868195 -4.2532816 2.566733 -0.034451388 -1.0707123 -2.106335 -2.4587646 2.938267 1.039762 0.75938684 -0.8443833 2.916958 2.1985545 0.3499086 3.9964824 0.1139341 -2.0772235 -0.4012545 1.7838104 0.38660085 1.7303921 -0.33935696 0.71180433 -1.3136384 -0.010569457 2.0053835 -1.5061579 -0.5089755 -0.24955498 -3.6029122 -0.69301546 -2.6914933 2.3522024 -1.2018267 0.36431086 -2.1705375 -3.3930693 0.38946256 -2.6616976 3.5881383 -0.5625965 -1.9673471 0.80914015 0.027925713 -1.6297146 1.5202075 -0.013311502 0.55515796 0.69482094 2.9686997 0.7037656 -4.0143776 -1.9428247 0.13137953 -1.5575368 0.9508851 1.7625141 -2.0237646 -2.3997078 -2.6233099 -1.6522532 -0.39806315 -0.8095951 3.7372148 -0.62119424 0.49820334 1.704516 -0.8612982 0.2838883 -1.4426769 2.6750283 0.48908344 -3.590606 0.69861704 1.2388555 -1.9255819 -0.5821032 4.115124 1.0336844 -0.6015915 -2.174983
딸기 2.69673 -0.27297175 -0.14468738 -1.0225805 -1.8152213 0.75336033 -0.93458396 0.60245675 1.3687373 0.5809173 4.0008264 -0.19906645 0.6225301 -0.27925986 0.58699167 -0.92312646 -0.39718732 -3.231044 -1.253534 1.8101965 -1.2462312 -2.834469 1.65471 2.249893 0.4974542 2.5104043 1.202195 -1.7503625 -0.89059484 1.4530997 0.18908066 2.8363898 1.314407 -3.27596 -0.8220643 -3.9465714 1.0004436 2.8459554 1.5113771 1.6138239 -0.35738915 3.835936 1.538154 0.48149663 2.9377975 -1.7875702 -1.7386267 -1.5784692 0.5361481 -1.2507703 -2.3954773 3.0533876 1.9269049 3.5465214 -1.023406 2.5043538 2.0178993 -1.5986627 2.3855753 -3.0545013 0.8056396 2.4282308 0.8258501 -0.8904871 1.917281 0.5628072 0.1683447 -0.94834477 2.4025216 -0.87202936 -0.6657426 -0.35025686 -1.5005134 -2.316279 -0.065957874 -2.8310564 -2.556767 -4.6971583 1.8867426 0.41364053 -1.568354 -0.46003395 0.8702843 0.27982175 2.277182 0.8472526 -1.3360676 -1.1562698 -0.15123063 -1.7143136 1.3992641 -0.292116 -0.7703291 3.3102446 1.4891129 -2.993432 2.1714923 -0.44207782 -1.4362351 -0.2277466
흠 1.2992042 0.7081242 2.5117943 -1.0642909 0.05500357 -0.78653824 0.9097186 3.114858 -0.16748588 0.03790366 -1.3052994 0.7806078 -0.33012468 0.5917217 0.6034952 0.14749563 0.41937214 -3.0682127 -3.3526914 -0.14000456 -2.6205587 0.99741304 3.0035176 1.6265833 -1.0208529 -0.54949564 2.3844154 0.22231779 -1.903913 -0.47750983 0.8157362 3.259925 -1.7424631 1.6853542 0.2260355 -1.5290108 3.0934765 4.533439 0.63908345 -0.73431784 0.89642644 2.0605025 1.8354131 0.8381125 -0.010663994 0.30834913 1.4573296 -0.9837504 -0.86995614 1.3210658 -1.4589905 4.1737704 -0.12694617 0.6913983 -2.926681 -3.175633 3.1515365 2.435299 -0.29498604 -0.27211598 0.42819554 2.0019057 0.84381187 -1.4177303 -2.5802834 2.6131353 2.5754724 0.77847415 4.105994 -0.31286776 -1.2336649 -0.057254016 -0.8157824 0.7060014 -0.65485024 -2.5658066 -2.5419486 1.965684 0.27355093 1.3601109 -1.4635994 0.36281672 2.0892546 -0.1087288 0.069609 1.3973347 -2.03081 2.4011672 2.118153 -1.5088317 0.49119997 -3.1426747 0.18889005 0.16162194 -1.2118093 -0.25900018 2.7017944 -2.4388635 0.3542098 -1.1010358
고민 -4.228548 -1.5679905 -2.1014423 -1.1768498 2.9919508 -1.5826969 0.14804894 1.4975113 1.8019813 -3.12706 0.14143157 1.2045256 1.5252984 -0.20850338 -1.962664 -2.854667 0.8505271 -1.0419074 1.5468793 -0.3537226 1.1413088 1.7929713 -1.5911001 -2.3102012 1.2627888 -1.2995778 3.1451497 1.9315214 2.6498764 0.71681327 -1.810434 -1.5320365 0.87125134 1.3604077 2.457043 1.9501354 -1.2980788 0.5911489 -0.23749112 0.45813587 -1.8571631 -0.13933215 1.1715777 3.907291 0.36789513 2.194275 0.93521404 -0.75675553 0.4774204 -2.2793465 0.20675133 -1.7015765 0.4867315 -2.4509413 1.9469136 2.8143706 -0.3173796 0.1317251 0.49004754 -4.37421 -0.9278971 0.8082412 -0.55719876 -1.7688633 1.5154859 -0.51232576 -2.9819317 1.4214312 1.0853341 -0.5966774 -0.68212384 -0.41139597 -2.7124379 -1.1946516 0.66485125 0.76950836 -0.2813366 -1.5933964 -1.9180688 0.50229895 4.9976926 -0.98263776 -2.1001801 -0.8534478 -2.159876 -0.76442397 -0.4991034 0.41692027 -1.3322343 -1.1719915 -2.1026938 0.7850586 -0.30679628 1.5397135 1.2022873 -0.118789494 -1.8106424 2.1241446 0.5887225 -1.252324
버튼 -1.8214561 0.40915588 3.2898076 2.971165 -1.91185 -0.40311122 1.5381293 -0.77256954 -0.020600755 -1.311626 0.31537932 1.2685722 0.768154 -0.7260449 -1.7391443 -0.7540676 -0.8713831 -1.2767198 3.1331828 -0.18084385 0.40818647 -2.4318612 -2.267446 -1.9658083 -1.8753722 -1.3824602 0.91220003 0.31133196 -0.6956812 -0.7748841 -0.1510603 -0.43322968 -1.4642464 -0.47990003 0.8788511 -3.795576 -0.7990255 0.8664238 -3.5098462 -1.481136 -1.3940765 0.5743586 0.6070688 -0.7344228 -2.6157184 -0.80074674 2.7446928 0.7727195 2.2226496 -3.1387658 0.17386718 0.3526336 2.909407 -0.94493085 -1.3245556 -1.5074462 -2.81251 1.0909572 1.5953195 3.8801653 0.7280621 1.3277409 1.119976 -0.9114732 3.6890028 -0.41174933 -1.1877472 -1.0535239 -4.629813 1.9111984 -0.49930072 2.0170772 -0.5992152 1.3657637 1.4926236 -1.7898606 1.2842816 -3.3388128 -1.7780102 -1.9458473 -0.8378845 -0.86906487 -0.10479478 -1.0476477 -2.4813175 -0.44204715 0.011976636 -0.69433355 -0.23526606 0.5998895 0.73345023 -4.307816 1.9065155 -0.4489363 -0.57537484 2.1625516 -1.4990823 -0.44706395 -3.0386972 -1.68506
길이 -1.5787518 -4.001573 1.8975669 -2.6253896 -1.5612072 0.25137624 -1.154194 -1.8038039 -0.771034 -0.2093276 0.063917376 -0.39112216 -1.3159704 -1.0349126 -3.64347 -0.30329597 0.9764073 0.37197778 1.7498966 1.1001831 -3.253444 1.388627 -0.81646055 -2.0847695 1.7289401 4.73808 0.6696101 -1.7052562 2.8218648 0.04930101 0.61794853 -1.4323232 -1.6538585 0.91786253 -0.038557485 -1.9654343 -1.0172524 -4.8088107 -0.6283416 -0.32619223 1.6768854 -0.3867941 1.0639907 0.66100216 -0.15678136 0.4485145 0.21606159 -0.53291744 -0.12669474 2.1355343 0.9242315 -0.44794056 -0.113917135 -3.1429846 0.6047055 -0.7128013 0.010482012 -0.50260913 -0.05078881 -0.032317333 -0.40135416 -0.0547096 -0.09169493 -2.2957094 4.552381 3.7207627 0.015690375 0.87703526 0.4396957 3.702911 -1.0234494 -0.44314373 -0.15160674 3.0047133 -0.5164724 -0.07952164 -0.056416474 2.422406 1.4101208 1.8744471 0.1360444 0.50398284 2.5173774 -3.1924756 1.4592878 1.5910662 0.28631833 -3.0109477 2.7161086 -0.41147482 1.4423443 -0.2804431 -1.7410638 -0.22759664 -1.5413979 0.23191202 -0.5557225 0.53631485 -1.044873 0.7141613
파마 3.4966283 -0.52526826 2.9589818 -0.04438591 -0.3858986 -2.7961528 2.3977501 -1.4937342 -4.525521 1.012662 2.2482603 -2.5247765 -2.3032773 -1.5512134 -0.06824479 2.1248071 1.4642383 -0.4398249 0.51813495 2.1181886 0.4255685 0.31922805 -1.0983585 -0.20256467 1.0807877 3.164624 1.5809801 2.1950135 2.437992 -2.5370898 2.4352412 -2.1678934 -0.70002085 -2.9451587 1.0876843 4.4796934 3.3725111 -2.1950405 -2.2592552 0.5921866 0.47946084 -0.04305978 1.0640932 0.9896939 -0.7903026 0.14030923 1.0443056 1.4430772 1.7757974 -3.960735 0.65508556 -2.0991564 0.75380266 -0.7757011 0.48033798 -2.0226238 -1.2527125 1.5277504 -0.61816955 -0.92678905 2.744169 1.0894341 1.3271745 3.3261871 -0.938579 -0.48414972 0.05066552 -3.6483953 -1.2234911 -0.30216935 -0.6184218 -0.8814961 0.51192415 4.298711 1.3286037 -0.08312465 -3.1210678 1.3601949 1.276732 -0.27029866 1.6001977 2.2536194 2.7102146 -5.2929273 -2.6796026 1.9579283 -0.38524106 -3.7321186 2.900944 0.34398758 -0.5969804 -1.0554183 -0.837843 1.154027 -0.060253244 0.55313355 -3.1435928 1.6066425 -1.5496855 1.7686337
두발 -1.1919348 -1.0144881 1.5185224 -0.28672275 0.41945744 -1.9870441 -1.171169 -2.972771 -2.240057 0.16876197 1.188338 -0.4197838 -3.8829143 -1.4528645 -0.4475274 -0.9015203 -3.414081 1.256677 -0.9311351 3.2386858 -1.933517 0.6804236 1.9635553 -1.2024189 4.199997 2.2859037 0.4994321 -4.817342 0.8354615 -1.5779356 0.932156 -1.9894238 -1.5539175 -1.3781365 1.6035383 3.0313323 -0.83155525 -3.1743927 -3.7671742 0.5752521 -0.12240121 0.5536283 -0.048101928 1.9590465 3.8101237 1.1036849 -1.2528166 -2.8383496 0.30328962 2.534859 0.84944177 -2.4603088 -0.84754765 -1.7389488 1.4148023 -3.0256748 0.69430023 0.7147068 2.9543264 -1.2276925 -0.48923078 0.70690256 1.7823203 -0.22402798 3.0399964 3.4078312 -1.1019944 -0.7444996 -0.9277555 0.8749559 -2.4291658 -0.19838478 -1.6276654 2.4501438 1.7371212 -0.6359012 1.2354848 1.8132951 -0.21683258 -0.046363775 1.6747353 2.9184709 -0.8372804 -1.5115516 -1.3280358 2.0438752 0.33220655 -3.0220153 1.3217366 0.55659306 1.3919325 1.175363 -0.58805877 2.2395225 -1.8474164 0.4547769 0.6680363 -1.4582369 -1.5954899 2.0414822
탈모 -1.0299746 1.0424033 -0.19832774 -0.6450888 -2.5884097 -3.5097082 1.901141 -2.6924186 -3.6276133 -0.25569323 0.7554126 0.77427363 -0.7076583 -1.3501332 0.48722678 -1.5218761 -1.4310225 2.7981033 0.45224163 2.7446077 -2.5952559 -1.2760744 -0.67202926 -3.76742 0.120273955 7.1719484 0.7042206 -4.8646545 1.6504041 0.1198108 3.0605958 -0.3739121 -1.0584362 -1.2141956 1.0875816 -0.5087503 -0.3734203 -3.175544 -0.11864017 0.86277646 2.4768293 -1.5883362 -1.8347783 0.8809034 -3.44662 1.6711606 1.2339292 -0.20636865 2.776595 -0.055613022 -0.56914234 -1.7611476 -0.11975817 -2.6048155 -1.6648345 -2.5699413 -0.5795947 -0.38690343 1.2228665 0.22022413 -1.7970668 -0.8181576 2.8925247 -0.12572603 2.478049 1.2457308 -0.59002525 1.7092997 -1.7939854 0.34402546 -0.7850633 -2.5897696 -2.8570924 5.917088 0.30968356 -1.7073807 -0.20427898 -1.3261161 1.6690934 0.2624841 3.875281 2.8674912 -0.9631192 -3.7334948 -1.8776486 0.96397805 -1.6288145 -1.037182 0.861575 -1.5696331 1.050058 1.0465174 2.487105 0.970026 0.9025053 0.4218075 -0.6908886 -1.1262972 -0.020451939 -0.5068006
다가 0.6519789 -1.4443624 0.8132167 -1.192861 -0.72382826 -1.1819963 -0.8611628 -0.7228014 -1.2936385 -1.0778142 0.17168501 -0.56584233 0.48506162 -4.064265 -1.1219565 1.5907526 0.45196697 1.8888611 0.13926893 4.353363 -0.5595411 0.15982611 1.5064518 0.20246984 1.562701 2.0830812 -1.6903039 -0.9889292 2.5117908 0.87793845 4.1335077 0.38377935 -0.22093214 -2.2815561 2.2423873 -0.12649909 -0.6140587 -2.6643977 -2.7597044 0.13396622 2.755031 0.45138505 -1.5107719 2.2616568 -0.94097275 3.5102894 -1.2990346 1.9286531 1.5882233 2.1827378 -1.063874 -1.5190779 1.8975515 -1.4550834 -0.6319447 -0.41390905 -3.0091271 2.368318 -1.2451161 -0.778656 -0.6534015 1.3636532 1.6960913 0.7911625 1.0580307 -1.0958098 -0.14459206 -0.10447633 -1.7069033 -1.2095505 -3.521375 -1.7687597 0.5537078 1.4678662 0.62906283 -1.8486117 -0.34201804 -0.42546922 -1.7207228 1.6525117 2.5193627 4.4153705 1.5561496 -2.1243868 -0.42312247 0.86420625 -0.4014149 -2.281719 0.6394048 0.87101847 -1.0094568 0.03658201 -1.5722378 2.1763258 2.627545 -0.034726735 0.17290683 1.5797206 -1.3320149 2.2224686
소리 0.7862353 -0.26471078 0.5493359 -2.1226645 0.46034807 -1.5365766 -1.1338135 -3.1839979 -2.8802044 0.19790423 0.785777 0.011267202 -0.42837334 -1.1844255 -2.325326 -0.12466677 -1.9561242 2.0821955 -1.2981409 5.0821934 -2.8481493 -0.50521094 0.082411714 -2.6132736 2.2013915 3.3117256 -0.52477616 -4.760812 0.84525865 2.3594034 0.97730714 -1.4513175 -2.1608188 -0.701591 -0.18959637 1.6790702 2.1841927 -4.59271 -0.7995494 0.11865592 -0.28836814 0.057230677 -1.3583218 1.3554143 1.0695943 0.75527555 0.3341763 3.2714808 0.84840316 0.15438809 1.480549 0.230451 1.9683948 1.1050403 1.0733014 -0.31001985 -2.7770028 1.072208 0.66408104 0.6959835 0.22105418 1.0361159 2.115341 2.1356502 1.8849281 1.3337864 -0.309428 -1.1904236 -1.1799629 -0.49394062 -3.2235744 -1.7205926 -0.07668217 0.16233164 2.4050753 -1.4990885 1.8140705 -0.3659683 0.611523 -1.8225803 0.38125157 4.5564284 4.183875 -3.403521 0.2524354 -1.0295128 0.11552822 -1.1086193 1.9494177 1.3986298 0.08644942 0.3985637 -1.5563272 1.7802002 -1.162802 0.18540624 -2.4454508 1.8704227 0.91073215 -0.28075957
다른사람 1.8529446 -0.42167097 -0.7124489 -3.4543252 -3.7674506 -0.23309559 -0.49702993 -0.17746866 0.9890245 0.33795944 3.5297382 0.97052246 -1.3337299 2.7946303 3.2705023 -2.733187 -1.1343553 0.12573767 0.79558647 2.5036194 -1.2183907 1.5977027 1.3003101 0.72767043 0.49050203 2.8420885 -0.4336272 -4.6792808 2.8503814 -2.1320753 0.31719658 -1.9752408 -2.2864153 0.36818004 1.4380472 -2.0442119 -1.1740589 -3.0647228 1.5024261 -2.2962985 5.4507084 -0.20777574 0.13884875 0.35860962 -0.9613925 3.204146 1.6799599 -0.29183695 -1.6643723 3.7200642 0.42220324 -1.1460937 1.9332268 0.96276885 1.1010286 -4.1902947 0.98184514 0.8032623 3.1605082 0.94644326 3.060847 1.951518 0.6516861 0.6254328 -0.006938157 2.7363696 1.0134192 -1.4430413 -0.24211314 -2.3024144 -1.223485 -1.5701207 -0.32192275 0.55356586 1.9016123 -2.1997938 2.4715984 -0.45670226 -1.0991948 1.5130563 -1.7518302 0.70384896 3.7888248 -3.2731209 -2.255539 1.3327649 0.11742661 -0.11147389 3.9912057 0.34088656 1.9653927 -0.9161598 -1.0464454 2.6008005 1.0909127 -0.7643509 0.21292514 0.7693694 -0.9564371 -0.06312147
숯 -0.5761003 -3.453066 3.0925076 -0.5639693 -1.1175166 -1.2525705 -3.095939 -1.2350962 -3.3020513 -2.4712095 0.7426572 0.6959902 -0.2418261 1.5055616 -0.75817114 0.2918575 -1.0292928 0.94020855 -3.178382 0.91838956 -4.1971655 -3.0636659 -0.039722834 -1.4927372 1.6702892 1.4311007 2.9317613 -3.2606096 -1.1433009 -0.47042418 0.23729324 0.11724689 0.040357087 -1.0873052 -1.6549507 -0.4490095 0.12714088 -2.9410048 -4.8067904 1.858767 1.6467444 -1.9752083 0.9100014 -3.435291 0.84087616 4.342962 2.521705 0.50644505 -3.1116514 0.65485406 0.4866944 -5.5574822 1.232329 1.1102631 1.0629961 -0.4118338 1.204821 -1.9151801 1.5221165 1.6825421 -2.0132387 3.1874015 0.7907549 1.6115513 2.6202629 1.1511832 1.7965521 -0.9494639 -2.3148851 5.951775 -2.8909428 0.7924006 -1.2527509 1.552448 -1.0814593 -1.9940101 -1.3543895 1.5186843 1.5913063 0.041412883 1.9128594 0.2632524 0.021072881 -1.3184067 0.37709945 -0.4282551 -0.12055167 -2.761527 0.1648603 -0.6342989 0.5041505 0.12695237 -0.7498986 1.0684685 1.6873976 -0.028407218 -0.24275997 -0.1643984 -1.2412391 1.796829
자유 -3.4825537 0.3911345 -0.9000314 -2.9350247 1.5854867 -2.5493553 2.4986696 -2.1463745 0.28909743 -1.6167984 -2.3284187 4.021375 -2.4667542 -0.27242947 -3.3857062 0.034507 0.21577024 3.3679605 -2.392747 3.5121455 -1.1882634 1.329102 1.4603366 0.6447659 0.6877677 2.8187952 0.20084196 -1.9634637 2.5819738 1.6979266 1.8593256 -0.6697891 -2.235897 -2.6872916 1.1440197 0.112128235 1.6590263 -2.394814 -0.02194967 0.13779882 0.43514913 0.5486544 0.18358503 0.67234355 -1.1761191 2.1475792 -0.19687608 0.11439267 -2.8887155 -0.68627137 1.9699976 -2.7517266 3.2042105 -0.033979002 0.061210748 -2.1708407 -0.35411444 0.88877195 0.8723842 0.8051393 -2.086159 2.6701899 1.9811963 1.3486348 3.5676804 0.86310977 -1.358177 0.69159085 0.6739003 1.7726493 -4.594051 -3.6185892 -0.49909133 3.4792738 2.5377467 -0.7662949 0.27387854 3.2708027 -0.6815826 -0.60692203 0.76552445 3.4893034 1.8830215 -5.236878 0.07068207 1.3108242 -4.345763 -1.5030042 1.1675771 -0.11691088 2.224264 1.5026275 -1.333508 0.7618528 2.8728979 -1.6428939 -0.5976165 1.2296764 0.09198553 1.8303589
잔 3.5426373 0.97760165 3.3576186 0.50699204 -0.5785757 -1.9359467 -1.4037448 -0.6076458 0.4073628 0.30026704 1.4509751 1.3802184 0.032389183 0.002920786 -2.3066633 1.5773855 -2.2312477 4.115441 0.48341268 1.5665606 2.3692906 1.1098896 -0.84670883 0.08695372 -2.9269848 2.2224162 -1.9286859 -2.652132 1.2415223 2.1193004 2.9752605 -0.5703956 0.8640221 -2.7653434 -1.3144323 0.9122397 -1.0448796 -2.0014546 -0.39723346 -0.28911313 -0.17734855 -0.3252746 -2.0424347 2.5533266 -0.76201284 5.087991 -0.9636742 2.4299083 1.4158163 -2.4270709 0.6148791 0.34597483 1.0236232 1.8904552 -2.1775327 0.80954665 0.023345381 1.1181228 -0.78273505 2.4220726 0.12528571 2.2290273 1.5628033 1.4941427 -1.608876 -0.009851779 0.3281607 -1.7580385 -1.9518061 -2.1781752 -0.27476528 -3.2766151 1.1891904 -0.10521875 1.4512471 -2.094443 0.050741017 -1.0161625 1.0721325 2.2003071 1.8678561 3.9755566 -0.29281297 2.0459886 -3.7870698 0.67071086 -1.1281961 1.4961065 0.28725022 -0.8046965 -1.7820878 1.2475932 -0.46370086 -0.07774632 -0.42935497 -0.9093199 -0.87203485 2.011917 -2.4523673 1.2598075
녀 -1.7749025 -1.9400319 -1.8461387 -0.38182044 1.6632743 -1.4724919 -0.9709596 -3.7135975 2.3016982 -2.6183975 -0.94436437 1.7339455 -1.0271922 0.63829094 1.6963496 -0.7152578 0.6292723 -0.6783839 -0.4559818 -2.0941052 -1.4200171 0.023729527 1.4052931 -0.34607357 3.9963849 4.1085296 1.000294 1.0813756 0.9456612 -2.218622 -2.6831331 -2.8664668 -1.5571902 -2.4652226 1.6921716 -2.4365594 0.5473632 -1.1270535 0.8289607 -1.6594559 2.1148703 -2.0969036 2.5764165 0.8555196 2.2485478 0.0058664535 -1.8488295 -0.28870952 -2.020438 0.6454459 1.1165193 -2.2392292 -0.7037916 -1.9690708 2.0443485 -0.5769949 0.9132859 -0.40056488 1.155333 -0.94272894 -0.29144102 -0.03756632 -3.354955 -0.81243515 0.16667353 2.9058285 0.5471909 -2.0816662 0.8889465 1.505365 -2.3978045 1.1746575 -3.0397398 2.6157157 -0.5820877 4.3504453 -1.0838177 1.4891254 0.4281624 0.61652905 0.057707362 0.8471547 2.2310967 -1.7615781 1.7431146 2.1686902 -1.1166135 -1.8730804 -0.13022229 -1.3356396 0.85342216 1.2188454 0.07138345 1.4600065 -4.567453 2.6431146 -1.4709834 -1.3296183 0.03894 2.1297405
심한곱슬 -0.012352075 -0.4753787 0.37298995 -1.5061002 -0.97301584 -1.8585206 -1.1211299 0.16909982 -3.9566355 -1.750702 0.63219583 -0.45203662 -1.5301474 -0.97353095 -3.342201 -0.5507545 -0.1904344 1.3942245 -1.9687642 2.707479 1.9214952 0.2369922 -1.3889897 0.36648482 0.015309891 0.70396405 -3.2683356 -3.007222 0.85518205 0.34544185 3.1032774 -0.16146597 0.39435244 -2.541442 0.87338084 1.3811252 -0.77030855 -2.3240452 0.016893683 1.4022292 0.2617289 -0.8764771 -2.5415244 2.2485445 -0.4076745 2.0810306 1.2579036 2.549105 2.7465954 0.29117808 2.2597249 -1.196853 2.39237 1.534499 -1.5564358 -0.79337776 0.08853456 3.8145602 0.061225016 1.1882409 1.9007381 1.051993 2.707639 1.1444538 -1.3379837 0.39744648 -0.315514 -0.010445109 -0.9136313 -0.6551668 -0.8678152 -4.968808 1.3051819 -0.3501567 1.1893133 0.15078412 0.38777447 0.70015746 0.045061614 1.4908798 2.4841971 3.3222165 0.8159306 -0.73142344 -1.4275594 -1.3794441 0.44267505 -1.003347 -0.800521 -2.1581757 0.15813765 0.99643934 0.26601556 0.6382447 1.0828009 1.0789969 -2.1663074 1.0500567 -3.144624 -0.49306628
정보 2.8589582 -0.5853215 -1.6115396 0.3619078 0.56659687 -0.4457536 2.233067 -0.84416026 -1.994376 -0.45464954 -3.8800418 -1.3595978 -0.92637783 -2.2465599 -0.76011014 0.8775514 0.41491508 -1.6680596 1.1384424 0.96163034 -1.6761438 -0.07397871 3.8471746 1.3848256 3.1303818 1.462796 -0.30102107 3.7052963 0.8950751 -2.4851415 -1.0710247 -1.6422803 -2.9019616 0.6089472 -0.5732594 3.1127048 2.7936122 1.0433693 -1.4634132 -0.8992609 -0.36866555 -0.43258092 3.1490755 -0.91360706 1.9909914 -0.9830677 -0.003583678 -1.7116594 0.8616618 0.68423426 0.2265131 0.622915 -0.97324514 -0.06618277 -3.2894802 0.65480936 0.3878267 1.893984 -0.2193917 1.3439621 3.0788023 -0.0049474942 1.0258492 -0.07523104 -0.5214105 -0.9573114 0.5547029 0.9027959 0.118174 0.14950535 -1.7576475 -0.25328916 0.13116884 0.08972008 0.4130591 2.5480077 -1.3499018 2.4987543 -1.0578797 -1.3937539 -1.9112062 0.26620695 1.9370908 -2.980384 -0.37823537 0.91013527 3.2187884 -0.02357208 0.25245684 -1.6539792 1.9586381 0.5801117 -1.3858619 1.3088384 -1.9405042 2.9472387 1.1945736 -1.4628404 2.1378675 0.17136759
처음 -2.2456267 2.1974425 -0.6652983 0.8409364 0.4950481 -2.6293693 -3.7982945 -0.5951626 4.21717 0.6045315 -0.19324122 1.1321886 -1.3574117 3.3168588 0.21584062 -2.1398082 -2.1880102 -1.8234228 3.3823383 0.6353189 -1.2840889 -1.3252338 0.55415255 -0.7952957 0.09303831 -1.9676096 1.9806577 0.22607753 2.4107924 0.61200655 1.3604255 0.43212748 3.1535442 4.971147 4.382488 3.0459948 1.7244806 1.3144376 2.1739337 -0.34848437 2.4689837 -1.0121288 -2.1050494 -0.10629637 -2.989782 -0.9998843 0.9908279 0.7879826 5.535385 -0.7498155 -0.97256577 -2.334714 -1.6487404 0.15163425 -1.6662967 1.4347088 -2.452808 -1.3277916 0.84185624 -2.0458846 0.3606697 -1.7534465 -1.8276966 1.1727552 2.8256543 -1.0090579 0.36528972 -1.9988657 -0.060387917 -0.80016863 0.061775643 0.13796733 1.246476 -1.1141832 1.2134956 -0.85139644 1.4021378 0.2550514 -4.412403 -3.0071294 1.113109 0.72490335 -2.3003798 -1.429653 1.3130586 -3.1828084 -1.4164758 -0.17449884 2.340517 1.9945128 0.027446406 1.8753303 0.09485715 0.45813215 1.8523643 0.47772798 -1.5876459 2.5376828 -2.7426245 -0.921654
밑 -2.0414805 1.733042 -0.12618896 1.2042258 3.557521 -1.3170859 -0.47088438 0.97925943 -1.3481363 -2.6343417 -0.34117368 2.106305 -0.13333148 3.4281163 -1.2885094 -1.715556 1.0508996 -0.9966638 0.9115634 -1.5847842 0.530086 -2.4358726 0.7487784 0.18798347 -2.5628016 -0.6590124 0.5599115 0.71713185 4.4258194 1.5311236 -3.475667 -1.2973363 1.0941567 1.2446012 3.8065634 1.0335652 0.6444596 -1.2341517 1.6497688 -0.3417149 -1.4660866 -2.5608578 -0.09171994 1.9639335 -1.1578493 2.5803945 0.8845105 -1.2273817 0.89143133 -0.039739266 -0.60636014 1.5278167 -2.7830195 0.44520745 -0.31612167 -2.5424051 -0.17655669 -1.0624777 -0.97120917 1.7007294 1.2145226 1.2236489 -3.726528 -2.3304005 0.9206675 1.30439 -0.9503192 -1.9753206 3.3416135 -2.5456448 -0.7277878 -1.4446306 -0.750926 -3.4687355 3.7922735 2.6498306 -1.0734651 -1.9834023 0.19016604 2.9718504 3.3700602 -0.39634797 0.6980044 1.9096568 -0.7350564 -3.2845488 1.7025951 1.630262 2.5491533 0.8705528 -1.8569807 -1.425514 -1.6276509 0.655605 2.5457032 0.451604 -1.9697841 4.1107574 -0.3391116 0.87029094
입학식 -3.2752514 2.063086 -1.3977463 -1.5863235 0.58614045 1.2295452 -3.094675 2.3409894 -2.363403 -2.1483479 0.44390306 0.506712 2.0452142 -0.9043125 1.5526179 -3.1499333 -0.4809694 -0.26257563 2.6865945 0.8513559 0.14519392 -3.2755213 -0.68322307 -3.4998367 -2.378081 -1.4047518 0.61431694 -2.6341138 2.9853747 2.0846834 -0.89413154 -0.6310748 2.846329 -0.8062928 0.89408666 1.5460515 -0.3500121 -0.54225504 -2.394025 0.018089449 0.8756042 -1.708868 -0.5325539 -0.4372588 -3.6931958 0.769605 -2.7096767 0.6237524 0.5110491 1.7519839 0.58562577 0.30186805 -5.8196483 1.1415086 -2.9700093 1.1398302 1.4645495 -0.44999987 -1.1138747 1.9609098 -0.52879184 2.0151663 -3.0282247 -1.0514777 2.8230505 -4.368889 2.0316782 1.2754581 1.8949704 -4.4873753 -1.4110724 1.6139315 -1.3603657 -2.5846195 2.0063386 2.4516964 -0.071925275 -0.050103962 -1.1864104 -1.9290192 2.5968015 1.5652686 -1.1713618 -0.2067004 -2.087959 -3.4127693 1.0030184 1.3134054 0.3224206 2.3061416 -1.4480362 4.4785786 -1.0890235 -0.2883519 0.7648933 1.2148021 -1.09366 0.66382927 0.7930198 0.7474433
끝 -1.9788761 0.3981877 -0.9226638 1.2585557 0.72024083 -0.48320365 0.03938641 1.9646695 0.51044184 -3.0705347 0.053509884 1.4319732 -1.3112361 3.9715106 -2.6124213 -2.5550914 1.4935259 -1.0104893 1.631636 0.17894383 0.8993567 -1.3364371 0.31177962 -1.9188815 -1.6207923 -1.8727355 2.7347436 2.6919158 4.845933 1.9054468 -0.1936521 -0.006074168 0.52149665 2.2595878 0.8502954 0.41642678 1.3562368 -0.39517727 -2.7575204 0.51004696 -2.915245 -0.36330402 0.10405883 1.8653357 0.9769592 0.96820647 -1.8413482 0.58113194 -0.41904694 1.2173274 2.399696 -1.28376 -1.5681999 -1.406121 2.509938 0.6433389 1.4178184 0.09643305 1.3959422 -2.9544399 -0.31385022 0.23802081 -1.2132239 -0.20582181 0.9556779 -1.6235379 -2.5875878 -0.18218346 1.2233381 -2.8062384 1.2181141 -0.5208581 -0.6606188 -2.86162 2.2173557 2.2337615 1.2716742 1.064341 -2.8532434 1.4203284 3.707971 0.53788376 -1.6083089 -0.20266964 1.051658 -2.0433257 -1.4950991 0.8861319 0.16894433 -1.7314354 -4.1474056 0.65677875 1.232872 1.2161684 1.0778214 1.31324 -2.6939502 1.880033 0.19562866 -1.6520671
사복 0.27067316 1.7097365 -2.0019271 1.8363479 1.515916 0.8221981 -3.4017532 -0.18850145 -2.1639717 -1.0067511 -2.5239017 -0.12936732 1.9877541 -0.5562223 0.82818913 -2.3571935 2.2918975 1.6264387 1.1231701 -0.96456504 -2.8037455 -1.6893547 0.86064154 -1.9353752 -2.3952224 0.14316842 1.7274374 -3.0893931 1.4159789 -1.6642661 -0.2019977 0.40392753 1.9026104 1.1186111 2.0414464 -0.8582435 0.33257368 1.1283317 2.3108566 -0.70303243 -0.2582192 -1.2723112 -1.1187284 -0.9591477 -1.1597489 0.741074 -1.2049015 1.1765577 0.19124112 -0.039660838 2.3065348 -0.16680461 -5.060247 -0.37521306 -1.0629339 -0.9943842 2.374252 0.47381848 -1.0781713 1.1528342 -1.9463875 -0.35251036 -1.3314154 -0.4991867 0.49303254 0.4507262 4.236265 -1.6614194 1.1493869 -3.2061253 -0.25205767 -0.55334914 1.626848 -1.851781 1.5314803 1.2901341 1.7149261 0.713836 -2.842669 -0.98367774 2.449586 -0.9818812 0.61806184 3.5824041 -2.772041 -2.1851447 3.0276318 -0.86444694 4.633065 0.77879596 -0.6733138 2.210975 -0.27638355 0.44876674 1.3854487 -1.1356263 -2.6980598 1.9177669 -0.096064694 -0.12136572
최대한 -0.50536054 1.4827304 -0.84158677 2.6246107 2.2826016 -0.886795 -3.1930065 -0.34149557 -0.88607097 -4.0911226 0.5116307 1.7324721 -0.1147872 1.1864443 0.68099993 -1.0105878 -0.1443952 -0.47160032 0.29957813 -3.12854 0.24746086 -5.341222 -2.271929 -0.28302422 -5.1686187 0.6603731 2.399767 1.3255287 2.4171865 -0.3439271 -1.0151145 2.2554524 1.0496764 3.209308 1.7285067 3.0339751 0.49317968 -0.11435802 -1.0409461 -1.8346956 -1.7801998 -0.03892054 0.69561577 3.5868034 -0.92900515 0.39734173 -0.9831901 -0.12075919 -1.1579882 -2.6222878 -0.397454 0.4663318 -0.84583277 -0.37507987 0.707211 0.9914899 -0.8870677 0.9468927 0.04053203 -3.3757207 -1.2272696 2.8366323 -2.6850367 -1.358478 0.8088634 -0.78431416 -0.4475161 0.054225694 3.3772433 -2.404001 1.107986 -0.39614293 -1.7801137 0.16923197 3.8680344 1.9691821 1.3808643 0.91430575 -0.83329415 0.17518955 3.585299 1.5508348 -0.85338867 -1.0970321 0.11498161 -0.78574556 -1.0579091 2.1870015 0.5603588 -0.34811917 -1.2983679 0.49163666 -0.78976387 3.8808458 2.1276655 0.6523471 -1.3218609 0.29788107 1.3182313 -0.9359389
