1245 100
하다 0.5273443 -1.0878068 2.1106944 -1.1503872 -0.79607457 1.9736845 -0.58384615 -0.94722974 -1.4117894 1.1562355 -2.263076 0.01568938 1.1102633 0.13564575 1.4776915 -1.1889321 -0.7852229 -0.2899928 1.6377562 -1.9451659 -0.33196852 1.1058478 0.8306198 -0.170195 2.4867578 0.87591755 1.8879609 0.017977195 0.64664865 0.42869967 1.7600257 0.16440466 1.6983728 -0.79102355 0.4154151 -0.27312994 0.6497088 0.22357386 0.25983688 -3.9290411 -1.6488293 0.59547806 -3.5894456 -0.883089 -3.0417967 -0.70465726 -1.9377661 0.7067789 2.5515864 2.7545695 1.8869423 0.2199496 1.0680064 -0.3899694 -0.73081005 1.675515 1.6387805 -0.40987438 -0.77915317 -0.23649503 3.125864 0.5808133 -0.74821776 -2.1677377 -5.0983524 -0.5440214 1.6624967 1.9418544 1.0011456 -0.5496909 -1.7127672 -0.1725919 0.22083499 -2.1855044 5.7084446 -0.20414923 0.33037826 -1.5529331 -0.5231978 -0.47650984 0.70472974 -1.1397933 1.0374621 -0.7648922 0.022473026 0.83084106 -0.22665599 -0.66524625 0.47794482 -2.6859217 -0.7441025 1.6616436 -0.31879184 1.6274033 0.56774515 4.0088973 0.81474286 -1.1706054 2.319936 2.063245
에 -2.0177267 0.3922974 3.356671 2.3159468 1.3357955 -0.6870868 -0.2949238 0.37712497 0.7848438 -0.9941241 -1.7500448 -0.052276984 -0.8823987 0.52242285 0.08351058 -1.805078 0.8647299 1.7565141 -0.51850873 2.8289495 -2.5260425 0.16172579 -0.55618525 -0.8366702 -0.019133067 1.483706 1.2123575 0.6800185 0.5493132 -0.0544612 4.546896 0.5411499 0.34966385 -1.979575 -1.9352205 0.9586754 0.09507609 -3.2276618 1.1460059 1.5898607 3.145724 -0.9799715 1.5538963 0.5679348 0.5760719 -0.03011884 2.2578185 2.1727617 0.4743818 -2.0685601 1.6235838 0.28540337 -1.5201287 -0.5625494 -0.85414666 1.9984848 -0.44973892 0.017828036 1.4469297 1.5465435 0.43957353 0.7411451 0.22840762 -0.52288556 -0.5590073 -3.6479974 0.93988836 -0.05829941 -0.45003688 -4.2563286 -1.760987 2.2879815 -1.9439564 -2.079972 2.3170853 -1.3273522 0.1351406 -0.08304426 2.4587739 -0.32237533 -0.050794892 1.0689849 -1.0827568 1.3967879 0.5803649 -2.5119944 -0.993611 0.3828843 -0.8585956 -0.64096963 -1.7112359 -0.95047086 0.8256983 -0.72148424 -3.1689684 0.6488065 0.65330076 0.96558267 -0.2931306 3.2084038
을 -1.0163952 -2.6583343 -1.249385 -2.4538183 0.71901083 1.1204472 0.16045614 -1.4177787 -1.0020092 -0.6257886 -1.7904334 -1.911497 1.1326361 -0.18029214 0.58261424 0.36757344 0.29906306 3.1932225 0.66002303 -2.2148206 -3.7985334 -0.23128137 0.9071181 -0.57734776 2.773474 -1.2738093 4.099271 1.9284698 0.648736 -0.41436335 -1.9692088 1.2620015 -0.2846325 -2.302225 -0.5525523 -0.61581135 -0.54888064 2.5349457 -2.538096 -4.1139545 0.18790312 -0.45079523 -1.1567248 -0.6051033 -2.1733525 1.6326641 -1.5714505 -0.48315704 -0.47515535 0.46287066 -0.6710909 2.7018383 -0.14015834 3.2534077 1.0256382 -0.9438941 -1.5163748 0.13570356 0.50344515 -0.52652615 0.14696144 -1.4754807 -0.055024 3.462526 -2.9665954 -1.542981 -0.12957928 -1.5788369 -2.605415 -3.5176055 0.621908 -1.5236084 -0.14202806 -0.28483948 1.1439084 -3.210662 -0.9138984 -5.267721 0.63733107 0.13638367 1.3109106 -1.2246405 -0.9537393 -1.2055604 -0.30256683 -0.6688786 2.4423654 -0.84454066 0.422336 0.70699185 -1.7233813 1.7365583 -1.9866846 1.9320923 1.430725 0.94087386 -0.0354338 0.20972294 1.2471926 1.4840554
되다 1.2755401 3.469301 -0.31258497 0.41653046 0.39522895 -0.8916105 -3.2204337 1.5716727 -1.0288557 3.8707366 -0.6525619 -1.3332437 -3.831151 -3.7610617 4.3560505 -1.3386354 0.54465735 1.4205537 0.750038 1.5981601 0.11338654 0.13708213 -2.9816637 -3.4957724 -1.358075 0.8541502 0.67109835 2.8790417 1.962566 -0.03656914 -0.94404906 2.6748495 -0.6850686 -2.4698577 0.54547 -0.017456569 -2.6501303 -1.9908323 -0.09855999 -0.9884599 -0.72720987 -1.5172129 0.1752008 -0.31121504 -2.6897469 -2.1498263 -0.04046363 1.07744 -1.1043522 1.5535202 2.6083825 4.491568 0.8279073 1.120186 0.045616128 -1.3273461 -2.054741 1.2270484 0.76445097 -0.09207885 -1.6797594 1.2754167 2.2425508 -0.43406367 -2.6676111 0.81576264 0.26395604 0.42748195 -1.2281581 -0.3862021 1.3333421 -2.381038 0.8009578 3.1391976 -2.1179543 0.6281658 -1.9904609 -2.927873 -0.9174849 -0.9863119 -0.9556793 -1.2478858 0.81291354 -1.4100707 0.2871763 0.36698863 -0.89448214 0.68199205 -0.3791981 -2.2191763 -1.5899714 -0.9610375 0.86802137 1.0097475 0.32699293 -1.1915377 -2.0551581 -1.9353606 0.4552228 0.41471323
이다 -0.98809046 -3.098285 3.437342 -1.9972689 -1.419318 2.732412 1.2381006 0.122587666 -0.43209237 -1.5017682 -0.91137886 0.15807694 1.0725265 -3.1217294 -4.9470415 -0.43094903 3.2709312 0.51494014 -2.4560552 -2.6184213 2.9113233 -2.2218797 -1.829788 2.6425793 3.8570201 -0.70052314 -2.0890572 -0.88334215 -0.38143265 0.26682487 -2.116772 -2.7570975 -4.7017884 2.5626025 -1.9237862 4.617752 -1.0914934 1.9227332 -2.2270987 -1.2883911 -1.1840242 -0.22540857 -1.2811629 -2.1042998 0.8586608 -0.43433702 3.3569415 0.7757435 2.589105 -2.7037816 -0.7416852 -1.5651889 -6.2681756 3.8761497 2.2647023 3.0685937 -4.001217 0.64372754 -2.302403 -0.8099309 -3.5659766 1.2583324 -2.2645833 1.2011949 -5.4793963 2.747309 0.9851913 3.9735672 -0.4361988 -2.5486572 -0.9168914 -0.64111394 1.1056483 1.7574649 -1.8449491 -1.513478 3.2095335 -0.3068272 -3.8231666 -0.86999094 -1.6491073 -3.209082 -2.3802743 -0.53718746 -0.6772494 3.3098707 2.1435282 0.29103112 4.33592 -2.7541914 -3.4809117 3.4351308 1.4750502 -2.3604722 2.4208448 1.1993557 -0.83793557 -0.82156724 0.46307403 -1.6052037
어떻다 -0.95075035 -1.424842 -1.0003798 1.0266932 2.1752658 -3.3987274 3.9213636 -5.40317 -3.035423 4.2568245 4.06593 -1.0457916 0.76997614 -1.3654448 0.0661529 -3.2122836 0.16544072 0.048945494 -2.615379 -1.5226003 -2.4390478 -2.3104787 -1.1404176 0.6399333 1.9513538 1.2640842 -1.4791602 -3.670475 -0.8522592 -0.52270544 0.12332559 -0.5969117 -0.4831725 -2.16085 -2.0117092 3.9067376 -1.5877082 0.3557156 1.1080961 -1.582968 1.5065458 -0.8994687 -6.4620295 0.7080818 -2.8402255 -1.1382328 -1.8885769 -0.2490466 0.98578346 -1.7056109 -0.1832395 1.7996296 -2.3155465 1.393913 -2.1520424 1.1214957 -2.3405445 -0.5714186 1.6856511 1.5293709 3.4301474 -1.5201122 -4.596306 1.5162758 -3.4048257 2.7536373 1.2513535 -3.1411483 1.4588107 0.9670897 2.415437 -2.6559348 1.7839639 -4.9638042 -0.91059846 -4.016279 -0.36421996 -1.9289153 0.839819 -2.4667761 3.2849886 -1.4682419 2.9387965 2.3064058 1.9869161 -0.92076916 0.4044687 1.1408575 -3.0537632 -0.6261038 0.70797235 -3.3924584 -2.200556 2.0113673 5.1252575 1.2753985 3.184456 1.8479835 -2.0390272 1.6390424
네이버 -1.481928 -1.1266592 -1.3924118 0.9136313 2.3469691 -0.6583029 1.5414664 -1.3179578 2.1890836 -1.6046953 -2.9379306 0.44446787 -0.84208393 -1.497222 -0.5069163 0.03569095 -0.46884614 1.6678746 -1.1489556 0.5640996 0.3854334 -1.2030177 -1.0768223 -0.61483043 -0.1322628 1.0372161 -0.28585842 -0.45665362 1.6460068 1.0882244 0.38074383 1.2622017 -0.918006 -1.84625 -1.1375676 0.022636002 2.8222582 -2.2727568 -0.11527642 -3.431924 -2.3615012 -2.6628962 0.58228195 2.3258197 0.40671012 -3.110633 -0.22201745 2.7361836 -4.252192 2.7103553 -0.25396717 2.7523515 -1.7273189 0.3997926 -0.98213655 1.3828186 -1.3280189 -2.9028041 2.2423987 2.266448 2.702153 -1.1538154 0.37374097 0.7182121 -2.4088805 0.86668426 -0.10411126 -0.5561384 -1.0082319 0.2946719 0.4513801 0.026765421 0.82637763 1.3723059 0.37531686 0.2347689 1.5689467 -0.62296 1.3949848 0.42977077 1.8060812 0.64232105 1.9842919 -0.105996884 -2.2054052 -1.9565253 0.5916261 -0.37307894 -1.6532427 0.4161649 3.5021522 2.1890333 -0.6246105 0.5224673 0.5568711 3.402284 0.5546971 -1.1606241 0.8126049 -4.6965413
블로그 -1.6660627 -0.3687 -1.3362777 1.1486921 2.3504999 0.9427176 1.4872502 -1.2518616 1.1700604 -2.6293442 -1.7293319 0.86739194 -0.662835 -1.9419556 -0.97025204 0.34837577 -0.49118146 1.5388725 -2.852505 0.4456513 1.4915426 -0.861887 -0.8596132 -1.64749 -0.6696923 0.40915123 0.06656182 -0.853916 1.6581795 1.2656119 0.7078467 0.40568763 -0.26388988 -2.0230243 -1.4117644 -0.9058354 3.3850071 -0.9495254 -0.023639578 -3.9691763 -1.8444011 -2.3236265 0.8099655 2.6895323 -0.2025837 -1.7431209 0.57968885 3.1938353 -3.571823 0.8846731 -0.39258862 3.9666932 -2.188847 0.8263278 -0.20912452 0.53621733 -0.40827507 -2.3236144 1.9684 1.8125088 2.0199869 -1.0225492 -0.22207774 0.6453132 -3.25356 0.33814263 -0.16589034 0.50805825 -0.8315714 0.316385 0.17296343 -0.23573323 2.0177917 1.5533127 -0.08059801 -0.7260733 0.82205325 -0.76955205 0.7621094 0.43006474 0.8846563 0.946813 3.8848019 -0.5071578 -1.6820418 -2.3592238 -0.62242013 0.07905978 -2.2245176 0.49207014 2.3591747 1.8094167 -0.41351452 -0.1546407 0.7471022 2.3734455 0.0032520967 -1.7839644 0.10280298 -3.9304206
인데 3.7548945 -0.9926828 0.8640855 -1.5215864 5.6954875 1.8832837 2.894539 -1.4204696 -1.6517786 -1.817907 -2.8971074 -2.9832535 1.7456115 -0.5997372 3.582875 -0.75144386 3.5883856 2.5117874 -5.1725616 -2.0848799 -3.445994 -3.6604693 -1.9113686 2.746143 4.8613663 0.17312706 -1.3437524 1.2246792 -0.33384243 1.5349647 0.5483485 -1.0513442 2.2920566 2.711078 -1.7873509 -0.8766717 -0.61008984 2.0650241 0.42246106 1.637113 -3.6782377 1.2578864 1.210371 -1.4127803 -2.079965 -0.43283635 -0.9960136 -1.4117839 -0.6885444 -0.95366 0.5447431 1.1337843 2.8064923 1.278781 -3.0058267 1.1653004 2.0196538 -0.60347503 1.1038117 -2.171607 -0.052146822 -1.0119606 -0.9769466 5.329924 -6.571645 -1.4045455 2.4370399 0.89284205 3.7313344 0.6843914 -0.705912 1.998164 -1.2146745 -4.178945 -0.34826258 -0.8155883 -3.2129126 -1.0246211 -1.8826283 -0.030244643 1.8300347 -1.9286257 0.12577036 -3.0712986 0.21071999 -1.8447037 3.2104354 0.594847 3.4925497 -1.7596251 1.7715061 0.5653984 0.07888092 -2.0835285 1.696156 1.0599465 1.0133266 -2.7328858 0.145503 -3.9149168
머리 -1.0062195 -1.9831917 -2.360755 3.470794 -1.4582808 -0.11404052 0.8718015 -0.7293598 -1.0778987 5.1288514 -1.2731087 -0.30222458 -2.705146 0.57752144 1.426591 -0.24759619 -0.63571244 -0.43472067 2.3425589 -0.4523498 -2.3112695 1.4268544 -0.98409307 -1.4739313 -1.7006183 -0.46121272 1.6055845 3.9100795 -0.83955014 -1.48955 -0.7579283 1.633981 -2.2317374 2.656147 0.5761501 -0.28714254 0.2016132 -0.07472016 2.5320494 -0.87161183 -0.40318185 2.7032413 2.7850337 -1.6673771 3.6313312 2.9653358 -0.9296534 1.8360795 -1.7280583 -1.6606007 2.3123717 1.493007 -1.0128909 2.2147434 -1.1951206 1.9205472 2.0316591 -0.54327554 -0.30303258 0.50209355 1.7203666 -0.94921994 -0.69866383 0.7183264 1.6277616 2.2444258 4.6495404 0.8347667 4.6809444 1.6732507 0.40619975 4.1522775 -1.8806926 -0.2578254 -2.7659535 2.5463452 2.9172857 -1.7097214 -4.635435 -2.2651134 -0.46894324 3.1868355 -1.0796732 0.9791502 -2.1223342 1.742055 0.8195823 0.5440147 -2.5551891 1.5976481 -2.1587396 -4.421424 -3.287951 -2.1589859 2.6357522 -2.526448 -3.8420966 -2.2745094 -0.4821925 -2.1023226
가방 0.9664442 1.0903465 -1.5809681 3.7476325 2.0011327 1.8293453 -0.5085929 -0.22833034 -0.24537309 -0.51772803 -2.852485 1.1812729 0.38030747 -0.8064801 2.3048003 -1.5759317 -2.909339 -1.1856734 1.4789327 0.7984244 1.0095065 -1.8082875 -1.0754535 -3.5740643 -0.07950926 1.9351947 0.2868344 -0.65329295 -0.0027753238 0.7310242 0.077241406 3.113344 -0.17922188 1.7830654 -0.037555177 -1.4582441 2.7374153 -2.8468115 3.5417728 0.4886397 1.7496861 0.5333158 -1.4818935 2.4296432 -3.1481347 -0.33065778 -3.2289903 -1.8973881 -2.440522 -1.349636 2.5847654 -0.6413764 -1.464405 -1.6220034 -0.13982423 1.4774224 0.843478 2.1655533 -0.72065616 -1.542501 4.207887 0.34525433 0.752635 0.03722932 1.9049438 -0.85973424 -0.18514489 -0.58443594 2.110774 -1.2841505 -0.0137171345 0.8872315 -1.0700748 1.4088238 -0.8479848 0.42983282 2.506908 -0.16120662 -0.12134434 1.8522116 1.0824962 -3.361852 2.6606872 -0.3265058 0.4158778 1.442891 1.0332441 0.19151515 1.583093 1.6684128 -1.8291283 1.1781001 0.49417678 2.9646566 1.1052592 0.07148852 0.50434995 -2.7853594 -2.4689562 0.14947897
은 3.5032334 -2.1514847 0.37456164 0.07701701 -0.49643236 -1.4212886 0.8898921 2.6016667 -0.041663237 -2.202665 1.6099494 -2.2703016 -1.9582303 -0.7264031 -0.024293575 2.669896 -0.9451128 0.6090823 -4.3161287 1.9320697 -0.438897 2.3783932 1.6123439 3.0311253 -0.23496461 0.5335425 2.516982 4.7801633 4.3648305 -1.1006551 -2.2841258 4.549427 0.47551244 0.92624116 1.4403801 -2.1073558 -0.24658151 -1.1036233 -4.98048 1.3265697 -0.99202514 0.056104023 2.6791606 -5.4187574 -7.858422 2.1203325 0.49684265 2.7371855 0.4360793 2.1231997 -1.1072843 4.257996 0.3471985 0.075362034 -2.3488085 1.6059531 0.6977007 -0.50885624 1.4007547 -0.19881456 -3.6811523 2.969412 0.70145977 -3.8679183 0.9870787 1.9477345 -2.8008513 1.7333163 -0.0775729 5.0957894 2.2228456 1.0016377 2.028376 1.4669081 0.36533633 1.8216908 -1.2979276 2.5882795 -3.1861808 -1.1902678 -1.002083 1.8771416 0.76551557 -4.055824 -1.1951057 -2.486789 1.2211084 -0.030121408 -3.7284772 -1.0627601 -0.2272303 3.0625076 3.4886084 2.0860283 -2.396283 -1.7641796 0.40316898 4.603674 -1.6399734 -0.5235658
예비 0.99424416 -0.35717422 1.9707271 -1.6958872 -0.90343684 -0.13089724 1.2493885 -0.3480492 -0.29538858 2.1347418 -1.1173006 2.7786593 -2.505677 -3.611168 1.8608608 -0.8487774 0.39323315 0.47859114 0.7059286 1.1568654 1.3438476 -1.3216451 0.43540505 1.9341788 -2.7756834 -2.103977 -4.5494375 -1.6154817 1.7001786 0.48051193 0.010059023 1.852499 -4.3285255 -3.714951 2.6504364 -1.8244922 0.35943705 -3.077538 0.52231574 1.097751 2.9480217 -2.3385732 0.8082543 -3.198835 -0.86623275 -0.10238866 0.63848174 -1.0339197 2.4714472 -0.27209017 1.3564525 0.9568355 -0.2618381 0.6906395 1.8469414 2.0038774 -0.9902885 1.9653219 1.1781708 1.1909081 -0.27450117 2.7381701 -2.576016 -1.9325622 1.0664963 0.6875897 1.2895205 2.247043 -0.31115073 1.5569427 -4.010746 -0.18447994 4.047397 -3.2700493 0.5440614 0.215407 -0.009505935 0.68869805 -2.950042 -2.6388485 2.0757596 4.0824866 -2.3529453 -0.5150469 0.37070233 0.3882329 0.086092934 1.9803473 -0.49903715 2.0990996 3.6293542 3.182663 -0.8859087 0.34063458 1.9122844 0.34376517 -3.331211 -0.2219196 -2.5392323 -0.8326557
수익 -0.24574934 -0.6491624 -1.7924261 2.3462725 1.4088647 1.4550697 0.37334526 -0.3242796 1.2531989 -1.568766 -2.7468703 -0.32231015 -0.8069276 -1.8569264 -0.32724655 -0.60359275 -1.0816264 1.2341485 -0.030598707 -0.9057388 2.1733453 -0.99726933 -0.93218994 -3.8555524 -0.062270585 1.0732163 -1.1708626 1.1539886 1.449656 1.751743 0.8119008 1.6150331 0.8203059 -3.0118158 -1.9446582 1.3860159 3.851023 -1.9927626 0.12473246 -4.526564 -2.4715838 -2.4429374 1.4975027 2.6897986 0.18784599 -1.2024063 -0.69818807 2.1745799 -2.6499898 1.5130858 -0.9056477 1.9034238 -0.37193346 0.77579683 -0.16269007 0.52639407 -0.82220083 -2.350957 1.6669797 1.905966 2.766946 -1.3467014 -0.9128655 -0.24909382 -2.9875872 1.4943746 0.33887252 0.70719314 -0.9799023 0.22411048 0.71708375 -0.36052442 3.3420613 0.4265461 0.6856442 0.14239505 -0.42174459 0.33697796 2.4849389 0.08196646 1.6603662 0.6778421 3.3438993 -0.22550103 -3.1615827 -1.0859866 -0.08542622 -1.1933167 -1.8678315 0.30490837 2.3733776 1.2491566 0.29100388 -0.18830357 0.96197873 3.511838 0.9274256 -1.5925269 0.09476235 -4.539434
는 -0.45956877 0.694285 -2.0180686 3.6632857 2.541566 0.39510822 2.021776 -0.05390736 -2.4799514 1.8313559 1.3514471 -1.6502784 1.717519 -2.479376 -0.9347257 -0.9019879 0.8552299 0.7638016 2.1454713 2.7328382 2.957907 1.3396165 0.060744695 4.253736 -1.293295 -0.30024043 -2.2467504 -5.448549 2.8069813 -0.071464926 -0.053042654 2.0692477 3.5637593 -1.5574414 4.190856 -1.8692343 -3.0371907 0.72784066 -0.2796445 3.887716 -0.5722415 0.1687434 -2.3519714 3.4380972 -2.4014943 1.9504657 -3.4146447 -1.0457584 -1.1469992 -1.1290898 -1.0114383 -1.7729115 1.9088318 0.66008097 -1.1029583 0.52707696 1.6340288 -0.08735084 1.4730828 -2.1423888 -2.4883308 3.3257778 -1.638842 -0.4883808 5.10608 -2.01969 0.19646253 2.139963 -3.8783357 1.5038313 -2.1430807 4.5353503 4.476715 2.2726347 -0.34426782 -0.46896228 0.9903658 0.77035886 1.045297 -4.7714853 4.446488 -0.48325145 -0.31504646 -1.3212233 -2.2346563 -1.8644183 0.92685074 0.643549 3.7270732 -0.23830874 3.1579132 1.50397 0.81652486 -2.2317197 1.6545835 -0.061944142 -4.3702984 -2.8814776 0.07308031 -2.713251
있다 2.083702 -0.17015012 -3.9236865 5.699504 -5.3439116 1.5359244 2.6710489 -1.1400238 -1.239546 -3.312752 1.540132 1.8079866 5.943967 -5.2509074 2.889481 -3.5726252 -3.4902494 0.82423913 -1.0788044 2.6511247 -3.1193588 -0.24293506 3.9556298 1.2943822 -2.938249 0.15059912 -1.8550999 -1.0386425 -1.2826283 1.5454737 -2.1726823 1.3167225 2.1348627 1.4323747 -1.0604742 -4.3763304 1.6223902 0.71523964 2.051089 1.5559086 -1.5098399 0.023900133 2.2318869 -0.38646162 -0.88877815 -2.7650445 -0.4899998 3.2210445 -2.4692855 2.0062304 1.4690461 -1.9356343 -1.2078671 -3.6543813 -1.2766631 3.1755404 -1.0670173 -0.086325355 -2.880268 -1.9208664 0.17069803 3.397533 3.2258322 -0.041311286 -4.655368 -3.0752187 -4.084849 -3.4624572 -0.45190227 -2.914831 1.2050002 -4.1044173 -0.61325413 -0.98618466 0.1399079 2.5968363 -0.080233656 0.8719851 -1.4908804 -4.5360126 4.705042 3.2103264 0.89691323 -1.49646 -2.7783096 -1.1382369 0.87297356 -0.2716587 1.0216062 -1.6340365 -0.46378627 -0.13800466 0.3089431 2.6300175 -2.1458232 -1.57949 2.2483137 -2.341447 0.28389436 0.6172574
입다 -2.2291224 -3.1184347 -1.8946359 0.5897398 -1.5009676 0.6405142 1.5037955 -1.1412262 -0.25255984 2.8923619 1.4001594 1.053325 0.85683656 1.978528 -0.51510376 1.1161793 0.1049169 1.4240761 2.2657208 -1.0992881 -1.965646 -0.68978524 0.31285965 1.4604692 0.1616711 -0.21110395 -0.90457195 -1.8866811 -1.2957351 3.3319318 1.2054389 1.1778524 4.307513 -1.709555 2.2253866 3.595903 0.24643686 -0.6440697 -1.2569815 -2.8480475 1.9062953 1.890421 1.6315093 -0.34354565 -1.6170257 2.1089265 -2.6663663 -0.03716781 -0.8667032 -3.1089373 2.1455534 1.0900592 0.20023598 0.43686497 -0.5657284 -2.0971265 0.50751704 -0.62637717 -2.5390587 0.7220642 2.219312 1.8712174 3.766634 0.2965795 -3.0945315 -0.21004151 0.7508582 -0.8697481 0.4017518 0.8877914 -0.9267134 2.6943088 1.7767678 0.51632166 2.6299477 -3.6329324 4.0170174 -1.6840765 -0.0022491799 -1.6942595 1.7658708 -3.836944 0.5516382 0.30174413 0.5988323 2.0167613 2.9503179 0.96716744 1.3995746 0.8569627 1.5408092 1.9075351 2.9527066 2.237542 -2.9523802 -1.1179123 -0.13104305 -2.4768858 -2.8164306 -0.1594988
교복 -2.0040827 2.4252505 -3.212587 -0.4736401 -0.6844642 -2.5911613 -0.28163663 -1.2492526 -0.87454116 -1.4819299 -0.37880856 2.2890456 1.5932136 -1.983286 -0.0015359643 -3.0475223 -4.295959 3.5005229 1.4238036 0.051592294 -0.33244413 -1.3261834 1.8251743 -1.9011325 -3.0224743 -2.0462937 -0.8976055 -0.74252105 -2.1139019 -0.049808048 -1.8863425 -0.17865513 2.2509906 -3.2603953 -0.18215667 -0.23529105 3.544283 -0.9072594 0.79264045 1.456819 0.46981522 -0.15431078 0.00091914553 0.04278825 1.824548 2.2294261 3.2426274 0.59895897 -0.07748017 -4.8044124 -0.23572536 -1.8912559 0.6099499 -1.8607131 0.40675217 -0.5680407 0.22082357 0.7891561 0.030161325 2.369199 1.2366511 2.931445 1.632479 0.4529877 -3.0648227 3.3712227 -2.4217424 -3.1626496 2.1483197 -0.9731668 -2.5230005 4.16547 -0.16450323 -0.36826172 0.46944058 -1.5005199 0.067578696 -0.8706029 -1.8783487 -3.4847472 2.8468568 -0.22583026 1.8275737 2.1625254 4.214703 -2.140655 -0.36981082 3.796109 -1.6057854 -0.46521327 3.0148902 2.3307676 6.0365944 0.23037343 -0.103318855 -1.050375 -2.2638164 0.9922982 -3.163966 -1.4065884
까지 1.9057008 -0.90455276 -0.5791899 0.5806999 0.17004237 -0.818081 -0.59256834 -1.8480836 0.52726555 -1.0570499 -0.49736467 -0.38878745 1.4143009 -0.7314697 -1.7667181 3.9558444 2.4510074 1.0190301 0.67551947 -0.47982863 -1.0488565 2.8972898 1.7669461 0.6357675 -2.5895393 2.0020125 0.33643174 -1.5840951 0.4532377 1.258479 1.9818848 0.24761452 1.874526 -0.64177775 -1.1515931 4.117927 0.36804798 -1.5701473 -1.9240954 0.5582002 2.0068634 1.5277644 -3.8548927 -3.0053422 0.72142434 -3.0749197 -0.026213894 -1.8361518 -2.2729132 0.24550644 -0.58300525 -2.750289 -1.4000893 1.9825709 0.14078678 2.8212829 2.3332317 1.5986217 1.112562 0.5157348 -1.025632 -0.42913663 -1.1345589 1.0694976 0.0246374 0.288579 -0.9403896 1.553832 -0.87480515 2.3978422 1.8166239 1.774115 3.6407185 -1.8445238 1.7587148 2.4411275 -0.71886903 -3.2919557 -3.673615 -1.2734617 -2.5986779 0.11427668 2.0413308 1.0429653 -1.2003648 -2.346895 2.107152 1.4266515 -0.85642153 4.6610417 -1.6629572 0.9781706 1.8212433 -0.88577735 -0.071459964 -0.15216778 1.5810616 -3.6399498 -4.103779 -1.2770493
들 -2.4814954 1.609087 1.2193763 -1.9014783 0.062443443 -4.151208 5.816576 -0.4329989 0.017025014 0.25225207 0.6966312 0.37368006 -0.8541552 -0.3943632 -2.369816 -4.6602283 -1.3298838 -0.7210655 -3.1731987 -2.7530272 -1.7073355 -0.35709018 -1.5791565 0.4197924 -4.706417 -1.585317 -0.254262 -0.4232936 -6.569786 4.455247 1.6624987 2.8434613 -1.6820943 -0.43050435 -0.6468368 -3.1141362 1.8366476 4.1576667 -0.65700275 -3.2127674 3.5695255 0.8066546 0.6951433 -1.3333601 5.234588 -2.347353 0.72479326 -1.7542182 0.0051659173 3.1716368 -1.4423878 -0.03674782 3.9618125 -0.5742586 0.26760018 0.19935173 -0.9078025 1.0353278 2.4783573 2.2052977 -0.8268397 0.9841889 -1.2972419 2.7053745 -1.4292732 -3.2461855 -0.19572045 2.230868 -0.8461392 -1.7794479 2.1580276 2.4563763 -0.77406913 -2.6931012 1.6560211 0.6210261 1.3973806 2.182713 1.03924 0.76207715 -0.43822947 6.89011 2.5895529 0.89904445 0.26055995 5.0900617 2.3541808 -0.039889734 -2.5459852 0.9591971 -0.85227597 0.5941224 -1.0367327 0.18639834 -6.0569715 3.4496367 0.8206538 2.3458095 -1.509654 -2.934511
해주다 1.997071 -0.9573553 2.9667816 -1.5484852 -1.6572032 -1.670019 -2.373595 -6.2800474 -4.410058 0.45353252 1.3100007 -3.4578626 -1.6339259 -2.2343307 -0.20121244 -3.078075 -0.16340393 0.27601546 -1.0953312 -1.8217672 3.461821 -1.9044988 0.057020985 -0.21362658 -0.20387524 0.11922896 -1.125492 -0.8718178 -1.5634202 1.8541949 -2.432175 2.4267836 -3.2024446 -1.1428561 -3.1970825 1.2985517 -3.659901 -0.33372864 -0.8956675 -4.108034 4.233687 0.78134686 -2.8712106 0.5392961 1.8409245 -1.7946922 -3.333251 -1.0611304 0.7137986 -1.6821411 1.6868533 0.6159053 -0.7269714 3.5172992 3.1618516 -0.7509607 0.3786603 0.14039649 -2.4203918 0.03210667 -0.4073979 -1.7139598 0.8777263 -0.8523117 2.5133228 0.334781 3.667037 0.055043735 1.0345771 0.51255214 -2.4762046 -2.8714855 -0.1286654 -1.4251444 2.3755429 -1.5185003 -0.44988278 -1.7090069 -0.042223465 -3.120879 1.6148019 -0.2753193 -0.21862382 -1.3775172 5.0691376 -2.914012 -3.449621 1.0411743 -0.052565776 4.1393614 0.441707 3.6003218 1.5660524 -0.42179522 3.9927342 -1.7292105 -1.6015638 0.150158 0.74682695 1.6188531
부탁드리다 -1.6621917 1.4351957 1.085162 4.578469 1.7044381 0.28020003 0.40751243 -1.0527264 -1.3934635 1.2871759 -0.01587674 1.117306 -3.356822 1.5122931 4.166464 -3.2980173 1.0666072 4.06855 4.1503954 1.3299214 2.392965 0.8860192 0.21399075 0.345753 4.555871 -0.6296067 2.2958214 -0.3562293 3.0442371 -0.057440862 1.0049719 2.3746316 0.89742494 1.0641923 0.44990528 -0.44767523 -4.5423794 -0.53602344 -1.8985868 -1.3078792 0.01981773 -2.0192082 -3.2632914 3.1374733 -1.2816036 0.45657575 -0.32854033 1.5030049 -1.982153 2.0002072 -2.0292916 0.7064861 0.16094965 0.70204145 2.1680505 -0.6228853 -2.233534 -0.8674703 -0.91942346 2.616915 2.2535975 -1.3112155 1.5625567 0.67154455 -1.3219837 1.0298429 -2.6101658 -1.8924704 0.6861529 -7.7619314 2.987549 2.4665017 0.90013045 -1.9614252 -0.4138901 -3.3936331 1.0103853 -2.9623566 -1.8117622 0.20515093 1.8087887 -3.2328625 0.2522055 -3.4176729 0.0040045017 0.675108 -4.496156 -1.1081843 -4.986772 3.2706044 1.8935591 -2.3372753 -3.0770776 0.7046873 -1.1127535 -1.7254865 2.583912 4.1124973 5.4965224 0.94068897
그래서 -1.4212357 -0.85724276 0.19631757 2.2963798 3.585947 -1.0394139 4.463292 1.0432743 -5.4172897 1.3243023 0.025063563 1.7102711 -1.1805452 1.0317504 1.966001 -0.09487672 2.6129978 -2.8492475 -0.5747514 -1.6199845 -0.4234755 3.4094715 2.1593297 0.2163367 -4.231322 0.233877 1.4113752 -0.74340487 -4.1188974 2.0847113 1.0567011 -1.8774927 3.342556 3.5537674 -1.094358 0.91359895 -3.1376739 -0.8222275 -2.8691773 -1.3013257 -2.378783 3.9355807 -0.819892 1.7820369 -2.6529052 0.7970166 -0.12558961 -0.03576493 -3.5027173 -2.7832935 0.36917356 1.9039462 -0.8730538 -0.37489668 -0.55461544 -2.103201 -5.762613 -3.1366172 -0.91218084 -0.6371001 -4.544149 2.133156 4.6540747 3.000176 2.084249 5.431961 5.0366664 2.3532798 1.815578 0.111703366 -2.9592624 -1.0831118 -1.7532946 0.24888995 -2.1446404 -2.5321047 1.6070125 -2.855897 1.9149693 -3.1747155 -1.0552787 -1.497723 -2.7638183 0.05896166 0.099526875 1.5550957 3.439567 1.0729233 -0.9084066 3.6736643 -1.1486326 0.21054016 -2.599763 -1.4664178 0.83337116 -3.5108848 4.213524 1.0262215 0.65036684 2.907038
안녕하다 -3.4857187 3.2046325 -1.3882855 -0.9058028 -2.5767 -2.96127 -1.2691512 0.3308286 -3.4031048 3.2046268 1.5181485 -1.9053023 -0.74466515 -4.581186 0.34368753 -0.5739509 1.951189 0.7404274 -3.548493 0.037747793 1.8691031 1.5593883 -0.5464743 -1.5078549 -0.37434742 -2.1915503 -0.4311762 0.7087379 1.1697439 -0.4770648 -0.47685033 0.15438183 -0.6209296 -0.8370011 2.9684718 1.3307205 -3.2981756 -1.3365598 2.065403 1.4666564 2.9074736 1.4157476 0.5634328 1.1545973 -0.4811493 -0.9585044 -1.43979 -0.026985701 -3.0691912 1.9044765 1.9426069 2.4320323 2.8704402 -1.0115441 3.9667306 -0.03054946 -3.252487 3.770252 0.45444453 2.580274 -0.33068883 1.0578365 1.2221903 -0.8939692 2.8153145 2.6775327 1.7967273 1.8642747 -1.3105074 2.2493453 0.45475513 -1.2242149 4.5710063 2.2240071 -0.41580793 1.3462994 -3.3566918 -3.293768 1.0455953 -3.3967986 0.30148724 3.5860114 1.2125835 1.0655265 -1.1762236 1.8329613 -1.405107 2.512166 -2.0707312 -4.8724785 1.0113946 -3.6742606 -1.4862194 3.3182538 -0.4872667 -1.0498719 -2.2409506 -0.5119193 -1.1962787 3.713049
보다 -0.05366166 0.2130232 -3.0784051 0.42342454 -1.1375332 3.3132002 2.082705 -1.0450876 -1.0921282 1.6015224 -1.3284273 -1.8515693 0.5626769 0.8931081 -1.5049769 -1.6740047 0.6749704 1.7079386 0.26528454 0.7087489 -3.4055688 -0.8258986 0.37861985 -0.87699205 0.09559532 3.1401682 -2.805945 -0.027155638 2.8579402 -0.60495377 -1.3977255 2.7721272 -1.9958596 -2.643294 -1.7643833 2.7774434 2.3275325 1.315606 3.377551 4.5887585 0.20097269 1.9627596 -0.016542662 -0.58449656 -0.9989278 -2.9531512 0.0044339886 1.0775183 -0.79165083 -4.122995 0.22749443 -0.6958444 1.0412062 1.3237348 0.25439164 -0.45692098 3.586766 -2.6019893 -0.8564599 2.9717116 1.7989099 2.2510126 4.114046 -0.017957833 -5.063909 -2.3541746 2.0759566 -1.3205494 0.8289924 1.9550742 -2.0656543 2.8508775 0.84351265 -1.8717455 -0.8112871 3.5653853 -1.7217008 0.03634661 -4.363504 3.079916 -0.050530337 2.0744627 4.092767 0.8907766 -0.13428584 0.32556874 0.7949951 1.0327957 3.8386877 2.1434903 0.3176929 0.43178827 -0.9662759 0.67328876 -3.3554614 -2.7801106 0.07053718 -0.008224031 0.905183 0.4331908
많이 -0.82540435 0.28812718 2.3020155 -0.28038257 0.5188275 1.3164996 -0.85220957 -5.646224 -0.47539756 -2.6204014 -1.2497838 0.52193415 -0.523879 0.5518216 0.9097027 -1.9261922 -2.1872513 0.037001085 -0.6575262 -0.6912498 -2.8950458 -1.4015698 0.94189006 -1.7003641 -1.7010477 5.7147074 -0.76782846 -2.8023436 1.0064514 1.0912622 1.0058403 -0.81568456 1.7736994 0.73910236 2.2095435 3.1587727 1.450294 0.39608312 2.5632648 0.041415233 -0.5167476 1.815902 -3.8325124 -1.572601 1.054311 1.0288268 2.160135 2.4107034 -2.5298455 1.6998665 -0.015578111 1.7460549 4.4439473 -0.0063963416 -1.5107417 -0.9860766 0.5432092 1.321239 -1.6070968 -0.51911527 -1.9390186 3.0359118 0.8310333 2.3784537 0.9260228 -2.3354964 0.009650933 -1.1293057 -0.8185227 2.870724 -1.0574845 0.13627714 -0.84424126 2.2939527 -1.4972728 -4.940722 -3.1809921 -0.6797033 1.8829339 0.28233197 1.7948433 -3.8215342 1.6410772 3.9620483 -0.10553679 0.7043749 -0.43976113 -0.1976348 0.68152875 3.3043375 3.7378352 -0.13495235 -0.8733477 -1.3492332 1.8877866 -1.1214962 -2.615961 -1.0737504 0.8318371 -1.4809493
문제 0.8710467 -2.0296123 -0.4322017 -1.9895722 0.3802961 0.09585594 -1.542332 0.4846488 2.2929814 2.8986795 2.8979962 2.061195 -3.0777702 0.9193856 2.523881 -4.356686 -0.8409966 -0.9696828 0.9307306 -4.8118753 1.6478267 2.6310904 0.48025066 -1.0087973 -0.66605586 0.8244578 -4.2022614 0.83092743 2.3617313 -1.8704455 -1.9475373 2.6239905 -0.1311302 2.391328 4.306889 -2.9374707 0.7156978 -0.99800247 1.9710861 0.52729523 0.85992545 2.023425 -1.3317363 2.3570535 -1.3678569 3.0865672 -2.4200912 0.0789677 2.338529 4.1644425 0.6343784 0.49531558 -0.93785584 0.84749943 0.046193488 -2.948486 -0.031735595 -0.5115152 0.0673232 0.8991836 -1.0360565 -0.1269078 -0.5252183 -0.22512731 3.1663468 3.2375789 0.17217116 -0.33868143 1.5804344 -2.8103468 -0.8078491 0.22693215 0.6203724 1.2568563 2.052282 0.0084093325 0.43752494 1.6347636 -0.69385475 1.5709598 -2.1242476 2.5175767 -2.2479308 0.07452931 1.9061747 0.42702213 -2.255145 3.5786705 2.9225821 -1.8892225 -1.7831633 0.79063094 0.7352481 1.788656 1.4730836 0.38710576 -2.248677 -0.41802004 1.2248861 3.4271593
사다 3.0227523 0.9555434 -3.22891 1.4472926 2.1225803 -0.6593813 -2.13143 -0.10696602 -2.5283692 1.302746 -0.46057448 -0.17295176 0.06804028 -3.9730265 -1.65487 0.5878244 -0.38920996 1.2764984 -3.6532843 -0.5318228 1.1130294 -0.93548834 -0.21166891 -0.43690133 2.0632038 -0.26418427 1.7573391 2.1617944 1.5101544 -1.0050024 2.2634642 -0.45472473 -1.228818 -1.6380608 -2.3219635 -0.5284817 1.6205181 0.053372543 -2.11353 0.5895919 0.045796245 0.19322306 -0.056702215 0.15814944 -3.5424728 -0.7147035 -0.9220555 -1.7750106 1.1595218 -1.6903507 -0.40802276 -0.9927098 -0.41933265 -0.5927659 0.4907391 0.83829546 -1.6714387 2.7274685 -1.5957565 0.085211776 1.0070614 4.804024 0.08624375 1.11696 -2.5604808 1.6861824 2.2852113 0.5229239 -1.4346662 -1.7860085 0.8954288 0.020807909 -2.4903004 0.01237885 1.5944698 -0.58288306 -0.28862706 -0.29029968 1.2317066 -2.8677719 -1.0996655 -3.8901637 1.662072 -2.7601209 3.5650582 -0.0790061 -0.27502346 -1.0867742 2.0427313 0.46215826 -1.5045748 0.065657474 0.30417144 1.511754 5.392995 2.4118316 0.1791233 -1.8002348 -0.26362163 1.6035517
눈 0.20914696 1.169194 -1.8570724 -1.0441954 -1.6685721 -0.64410233 -1.0955034 2.5795252 1.7228903 2.5113652 -2.925014 -1.380304 2.2154796 -0.8748026 -3.1222205 0.8015694 -3.281822 -1.7765458 1.1360201 1.2584363 -5.680873 -3.4130714 0.41875 0.41223726 -2.030986 2.4834116 -1.6746374 -0.78377104 1.786431 0.6483523 -2.4233248 3.3514173 -5.1165814 -3.3591743 0.2979603 0.15563835 4.049721 -0.4820924 1.43826 1.4165893 -1.2135112 -1.0128587 -2.238243 1.7290525 3.2086675 -3.8638704 1.1283948 -0.61284846 0.12163503 0.45440072 0.5079378 -1.2426968 -3.1665306 -2.2439537 3.6144614 -0.37094975 -1.0213076 -0.46986276 -3.1850388 1.0528462 0.7195806 1.4012867 1.4076366 -0.20821762 -3.191943 1.7360497 -1.0331624 -1.3437155 -1.3947686 -0.5030239 -1.999832 2.9924686 2.1763513 0.92408705 -0.3141223 3.6101608 -1.9112127 -0.8436338 -1.726277 1.247506 1.62053 2.1451006 4.921007 -2.211759 3.2891614 1.8947091 -0.8698366 3.3282259 3.856375 2.3814478 -0.027037859 0.9786678 -0.13953021 3.5163636 -3.4562197 -2.504374 -1.1510887 -0.9305063 -0.836428 0.3786236
않다 -2.4333088 -1.9673009 -0.35750216 -0.27395922 -4.084716 4.1911063 0.51051366 1.657365 -2.1815214 2.1545708 -4.256271 -1.0569198 -3.5257938 0.25935113 -0.13614419 1.6684123 -1.6924969 1.9267305 -1.6763271 -5.1772027 -1.2057712 1.0677801 0.6617242 -3.2662385 2.8739746 0.12465319 1.6052834 -2.0186338 0.7098535 -2.0239048 -2.3432279 -0.43742627 1.2883213 0.78439784 0.9333843 4.181834 -1.850092 2.5200338 3.0312657 -1.1580604 -0.050505403 -0.8108073 1.5311762 -0.1505352 -0.16612391 0.9454099 0.0810242 -1.3154476 1.566452 0.552848 -0.7994934 -1.8412449 0.26765803 -4.5528107 -1.2373247 -2.9931 -1.3887403 -2.7023962 -0.76492274 1.4842879 1.5073256 -3.2116113 1.0493345 -1.5192772 -2.5337522 0.350429 -4.041052 0.18902172 2.8774931 -3.7745686 -2.3568735 -0.66804945 1.601701 3.2426152 -3.2239077 2.274002 0.5737506 -0.2347039 2.192072 -1.3891937 0.70066565 -3.5682726 1.8208221 1.8709381 1.1727742 5.3277164 1.1623157 -2.9735384 0.5686358 0.51605266 0.5451702 0.9354457 -0.34492588 -3.7242367 0.8120481 0.38270965 -0.056539036 -1.8573742 -1.8975307 1.1055281
토익 1.7817986 1.8008455 0.7232596 0.7382775 -0.12336459 0.36268854 0.44926804 1.2330419 1.164547 0.49165553 0.39314845 0.05126157 3.4552157 -1.2545828 -0.67288905 -1.1795151 -0.82090944 -2.1758666 0.6968104 2.640853 -0.20714302 -1.1262801 1.3701745 -0.09800041 -3.1082187 1.1137604 2.3913922 -1.3960958 -0.2180023 -3.3246958 -0.22814462 -0.3088196 -0.5484407 1.9590415 -1.8987066 0.5619081 1.8920206 -3.268492 1.9876803 -1.7088903 -0.2721675 -0.04858022 -2.0572703 -0.17283843 0.37919503 1.5937868 -2.8587248 -1.5509106 0.57192135 0.31913695 1.5433649 3.7354302 0.61292285 -0.057139467 0.6462332 0.39807877 0.30786076 0.3451864 -0.6939356 1.7664378 -2.5570176 2.180128 -1.3803064 3.9763455 -0.037948757 0.15464063 0.15165071 0.47270167 -2.3027422 1.4722927 -0.5205618 1.173113 -4.0998526 1.4487172 -1.7858405 0.5047525 -0.94301766 -1.0381695 -1.1493043 -2.7590513 0.7666118 -1.0440557 -2.3955278 0.76393384 4.3420224 -1.7901925 0.6346294 -2.6131346 1.4680547 0.75177735 -1.1930308 1.409767 2.4502513 -1.7111741 4.565253 -0.74738514 1.6363297 -0.6277458 -0.21943778 -0.6684203
부터 4.0121593 -0.8532807 0.09837012 0.5179422 2.7354598 3.2035036 1.695973 0.9247766 4.961324 -1.2043431 1.3333411 -3.611917 1.7130967 1.2506417 3.2299035 -2.333684 -3.4139209 0.5409893 0.3750956 -0.64721006 -0.3507706 -1.6663413 -2.340729 -0.34120527 -2.7200413 -1.132116 -0.38708943 1.1302933 1.3670911 -4.0430484 1.0417392 1.3289124 2.616435 0.85159653 2.4422362 3.4292023 0.04032961 0.039006088 2.522435 2.4542115 0.15838553 1.8337724 2.3552384 0.081418745 -0.9901276 0.18496367 2.6357353 -1.2811166 -2.7641695 1.9123255 -1.6854229 -0.2277587 0.3157872 -4.0033617 1.3421532 0.9426877 -0.71368384 -0.38693878 -2.5312066 -2.0306215 -1.6293699 1.7703575 2.1063862 -0.75806713 -1.037253 -3.25134 -2.8174384 -0.76590466 -0.046541736 -5.3442554 -3.8985837 -2.7326317 1.7955167 -2.431586 -3.6440613 -0.83429635 2.1404614 -0.8991773 -0.18231314 -0.7734278 0.010820453 -2.283742 -1.0451765 0.5833921 -1.1300098 -4.9096875 4.87282 -2.3186336 -2.1441648 -0.3861996 0.5539544 -2.2829154 -4.099429 3.615096 -0.103564546 -1.963769 1.1849674 -1.4010864 -1.2917632 -0.15962815
많다 0.6638286 1.3893498 -0.9011789 -2.69779 -3.5463498 -3.0458894 -0.8280109 -0.5720941 -2.3435133 1.5609313 -3.4880028 0.51514024 1.0610113 -2.8809898 -3.511981 -2.2454998 -1.7975603 0.011510455 -2.4077122 -4.158364 1.8102965 1.0317966 2.7833593 -1.0247396 -3.6171517 3.761718 -0.96966547 -1.7042267 3.570084 4.110132 -1.5897249 -0.47355524 -0.982104 -0.4086983 -1.2537811 -0.8165358 -1.3527275 -0.8762377 0.5621968 -0.8993438 1.3112047 1.3180703 -4.021593 1.9202893 -2.0378582 -0.92189324 -4.919252 -1.6237234 1.045134 2.3370998 1.5574665 -2.160085 0.05982838 1.5449003 -2.356975 -5.4384093 4.0756993 1.5024958 1.8962284 -4.896467 0.42181674 2.8383234 -1.0968387 -2.7650528 0.41248932 -0.44908088 -4.3811665 0.3901992 -0.31576893 0.06970581 -2.5751193 4.9634824 -1.4456371 3.726373 1.3219972 -0.5932852 -0.18100701 -6.6624327 -3.5798342 1.3586216 1.3774348 3.5869577 0.98495114 -3.4586637 -2.4642453 -1.2364092 1.531198 2.9390106 -0.31025302 -3.496585 0.81212634 -2.9554927 1.7904633 -0.91060394 -1.2715654 4.865171 1.7069285 -1.8950238 -5.0881658 2.88244
드리다 -1.9673136 -2.355248 -0.9526669 0.9027521 1.2680936 -0.6186197 -2.1710947 2.4704242 1.9395828 2.0999274 0.42044187 0.16667737 3.0847595 -3.4555113 -0.6737821 -1.0675371 1.8815196 -0.39029112 2.1688957 -3.663863 -0.25872955 -2.3857512 0.14559034 -1.9924712 1.7902496 -4.3157134 0.4449961 1.0777 -2.9178224 -4.6400175 -0.7132996 -1.0902756 -0.6486495 -1.5439863 -2.5325365 -2.2746801 -4.0980954 4.37074 1.7532464 -4.165576 -5.003059 -1.7459174 0.12586442 1.3669643 -4.400301 0.70831704 -2.0488396 1.2963499 -0.88737863 2.8334675 0.13459656 1.8752666 -2.3265126 4.712233 0.8745215 2.3281672 -0.7599248 0.79625475 0.62615544 -3.5277956 3.3247833 -3.2335086 -1.3639605 -0.04242511 -1.3414392 1.0042753 -1.2482611 -0.632229 0.73521817 -4.2094927 1.009427 -1.4685351 3.0972934 -1.0794482 2.6857579 -0.2179513 -0.42350206 0.7507105 1.3724711 -0.5693392 4.0553627 -0.26040056 1.2871172 2.0248945 -2.4888341 -0.17741922 -0.11070917 0.09372386 -1.8692591 2.1286483 3.3014455 -1.6101686 -2.8763015 1.4211828 -2.2782423 2.9128747 5.4689546 -1.3425771 -0.4383627 -1.0649827
읽다 1.2173924 -2.0827024 -2.0463862 -0.49084002 2.8912077 1.1252834 0.53065485 -0.25221613 -5.1076345 2.5696201 -0.09221095 2.7933784 5.663739 -1.9627656 0.03543191 1.8977683 2.3845005 0.2727657 -4.5107846 1.3223165 -3.6075056 -1.8349851 0.19917037 -2.6603467 -1.3325341 -4.479252 1.1944726 3.519086 -3.2511392 -1.5525681 -0.4072447 0.4134212 2.436526 -1.6791743 0.8303334 -2.7225227 -2.6252465 3.7646296 -0.98311603 3.096257 0.22603369 -0.6773669 -2.6113684 -1.881095 1.4466329 1.0871952 -2.1901872 2.2956429 -0.30889985 -1.1151841 2.6144965 1.5657895 3.0754597 -1.7987448 -2.0192266 -2.3628025 3.4449916 -1.5447829 -7.2979293 -3.3905087 2.1747198 2.1852152 3.2059999 -4.3830633 -1.557212 0.4363347 -0.7397581 -1.4375727 2.4492242 2.3569603 -2.196915 -4.9632683 -3.1616468 0.7531557 -1.8467267 -0.017548675 0.88816005 -3.1336875 2.0921838 3.2884824 6.2359304 4.396359 0.07552228 -2.9607115 -1.1748364 -0.20460129 1.7915071 -0.95206434 -0.2456539 -1.643935 0.05684374 -1.3546885 1.3967967 -0.3424495 0.23757066 -0.16542995 0.23223421 -1.2828921 0.48600805 0.77468807
근데 1.1123335 -4.015543 1.4778029 -0.48532128 -0.22383645 3.3285334 0.7808062 -4.95134 -0.7082782 4.2430844 1.2139255 -1.03515 -4.8212624 -0.36697257 -2.0457432 -0.763278 -2.07493 -1.4378914 4.2715154 -5.7846503 -1.551855 -2.735049 0.51388586 -3.436677 1.4397697 -4.0611925 3.1013649 0.5223246 -2.6470723 0.74786055 -2.5930758 4.885579 2.952033 3.2043352 -1.423086 0.5647174 -1.5758263 2.195819 4.375212 0.8666635 -0.119489186 0.30958563 -1.0407873 0.75918484 3.3404725 4.099556 -0.556997 1.4808395 3.3310664 -0.40079933 3.5032783 -2.2669182 -0.99559426 1.9219824 0.36137375 2.289248 -2.6057112 -1.1650215 -1.5622954 0.7433185 2.0610304 -3.1712213 3.7453558 1.5285943 -3.5490608 3.2706308 0.3480001 5.2138777 4.1888914 1.0057644 -0.49832913 4.301465 -1.7670125 -0.85613567 -3.7185895 -1.6907487 1.6816441 -1.2275429 -4.718844 -3.156555 0.7376976 -3.3569274 -4.912851 3.1418974 -1.3870461 3.987164 -2.593426 -4.305784 -1.7555852 -0.39408824 -4.7360387 0.8881747 -1.3635883 0.47590452 -1.7877003 4.88723 -1.885112 0.5393223 1.354783 -3.7605104
좋다 0.9970364 1.3588431 -4.308324 2.7070436 1.6573577 -2.9123003 4.075768 -5.0658216 -0.506346 0.84038675 2.0451057 -2.3513734 -0.39452377 0.80421335 -3.94427 2.394171 1.1285988 1.9914253 1.3130254 0.18286411 -2.7267032 -3.4464018 -0.023284608 -5.3599143 0.8070688 1.3110441 -4.0434 3.978071 -1.0991443 -0.14194553 3.829997 -1.7853236 -0.63094854 -1.3056068 3.2217078 1.4977785 -3.3497338 2.0309906 0.259749 0.24351072 -2.227563 -0.09473368 1.1669877 0.0175905 -0.68268913 0.60874456 0.033769723 -3.6285102 -1.3170489 2.649186 0.86870944 -0.4659695 -1.7874308 0.4686798 2.139016 0.8071888 0.66566575 -1.7809284 -1.6254199 0.16456789 -0.60089254 2.6911204 0.29009327 0.38448927 -2.7186067 -0.8732422 1.8940758 1.0453198 0.48946947 1.2827132 2.6141999 0.82219136 -5.6356916 2.3945777 0.89288205 2.7782853 0.3291619 -0.86845654 2.7068539 2.1008077 -2.8238409 2.411649 0.869404 0.45377386 2.131104 3.8347237 -4.696573 0.35589042 -0.7020549 2.8768642 -0.83340466 -1.1026849 1.3847187 2.363233 1.481467 -1.5790921 2.2880063 0.9533493 -1.1708992 -1.7024145
가다 0.8383857 -2.4631388 0.58298385 -0.14708085 1.0151728 -0.40685943 0.82489544 -1.0929087 -1.3981891 4.145954 2.9364064 4.730263 -5.695628 1.0872648 5.737107 -1.8389382 1.0458847 0.42507476 1.0189773 1.5460489 1.9417067 1.9134955 -3.5603273 -0.4516639 -1.1339777 -0.75111467 -3.8687334 0.7802527 -0.22351322 -0.1518642 0.519485 0.3289044 -0.007174906 -3.7486129 2.2274616 -1.5607067 1.6574998 -0.45972416 0.45890537 1.4410324 1.1561595 2.0270042 -1.3377144 -0.9840321 -0.34151533 -2.1576579 -2.8425152 -2.8159583 -3.203255 3.7356043 -1.2092185 -1.7890594 0.37336898 0.334143 -1.0498272 0.30122408 -1.9414909 -1.9216127 -1.4716794 -0.6934062 0.23663568 -0.6161112 -0.73650885 -4.420148 0.17301999 3.6341047 2.50905 0.9004781 -0.8666491 2.1790824 1.0798917 2.1134276 2.4066389 1.2459277 1.8010375 0.7334755 0.93397385 -0.8499117 -0.8020321 -1.0283977 0.2726675 0.33490467 0.6990765 -0.6786393 -0.35062143 -0.7728351 -3.0359619 2.3432477 -2.2668788 0.46036917 3.9936922 -0.7980426 2.9115307 2.0066059 0.45379388 2.496238 -4.67436 3.2673175 -0.3132024 0.8053092
하고 3.6977565 -1.2030865 2.504834 -4.4616 1.6960638 1.0840695 1.8798108 -2.8216748 -3.016047 -3.4556446 0.85069096 -3.5250502 -2.9056547 2.7767372 0.6836497 -2.5193577 -3.712839 2.8863027 -1.9805669 0.56428015 -2.3234322 3.1696606 4.7162833 -0.6963115 3.155601 1.031085 -0.84541994 -0.40577435 4.6672864 1.3673487 -0.5478766 -2.6615288 1.3238032 -0.70577973 0.84419036 1.0841883 -2.0549483 1.9391437 2.5377593 -0.10377844 2.2283049 -1.4675897 2.9927287 -1.8305869 3.3392181 -1.1695489 -3.129925 4.1005435 3.5013134 2.188772 4.514771 6.226055 2.5891304 1.1463606 1.177989 -0.88710845 2.4643056 5.7761774 4.2940226 3.8903844 0.34368545 2.2939303 -0.5152141 2.9396577 -3.3260477 -1.7561946 0.52352047 2.7037046 4.0436277 -0.35076645 -2.0235462 1.7089859 -1.8047878 -0.7074135 2.821176 2.0139832 -3.2607033 3.160756 -2.4637182 -3.9179637 1.269349 -1.5321425 -6.277957 0.58419657 1.9305606 3.1254215 -1.8602258 -3.164203 -0.3186917 -5.5307927 3.038095 2.3050508 -1.1765245 1.6967157 0.409333 -0.5382049 1.3823594 -7.2652073 -2.5588696 0.5988051
신다 -1.7692235 0.48068175 -0.92755836 -0.2548469 1.3953191 1.334773 -1.2035456 -0.3891499 1.3755677 -4.012735 0.5391621 3.6180465 -0.6380412 -4.6808968 0.61968946 -0.34625274 -3.0067317 0.36695245 -6.047593 -0.763858 0.72233975 -0.9826287 5.1731763 3.9594135 -0.013164825 0.1905087 -0.7952585 0.04304771 0.83339053 -3.3933032 -0.5818557 3.9357646 0.44552386 -1.87205 -0.82066476 -2.8765092 1.0934292 -2.2539315 -0.92133725 0.59930587 3.3803132 0.40557036 -0.1218884 1.6479814 0.075265 -0.22264081 3.160899 -2.8379085 2.5029514 2.402181 -0.18464188 -0.5356121 3.1612582 0.43499306 1.4619802 -2.6625617 2.0021234 -0.6923716 -1.217536 -3.3227806 3.6633022 1.0976039 -2.101731 -0.21151634 1.9129527 1.5154194 3.815671 0.2884638 0.3714557 -5.8044767 0.9916504 -0.72362846 0.4626068 -1.7343348 6.2845716 0.10929257 -0.15605952 1.49193 2.6518328 -3.6895807 1.1174294 -1.4157634 -0.7399403 -1.8048681 -3.1419487 -2.2394547 -0.83221817 1.1434686 -0.2167918 -1.2331325 -1.8795391 2.073581 -3.0272417 -1.104868 -5.9278584 1.7643052 -1.2917783 -3.5225365 0.06987104 0.24001995
궁금하다 0.017913213 0.09477761 -1.933147 0.6181419 1.1381495 0.69456756 -0.90642697 -0.1820577 -0.8311329 -2.24683 -0.0324746 1.7168639 0.38293728 -2.583711 -4.1511884 -4.5863323 0.03555623 1.1443874 0.9332781 -1.2180775 -0.6109572 -1.2583746 -3.3497052 -4.5731378 1.8384304 1.53342 -2.469534 3.1056929 -1.7778566 3.882716 -1.9889979 -0.7882651 -0.13268173 0.5233073 0.93400544 0.7405774 0.71325886 1.8554275 -0.057540104 -1.1544635 0.30440173 -1.067102 4.7286224 -1.6678135 1.4823815 3.818403 -1.4227896 0.25497648 -0.09195942 -0.75112826 -5.429756 3.1060178 -0.34611464 1.7207881 1.1264532 1.6968232 -4.674559 -1.8167204 2.7949386 2.2614315 4.827407 -1.7694489 -1.7076324 2.112904 1.54508 -0.7138094 -3.757957 -2.8979337 -2.3990266 2.605111 -1.1838338 -4.7859864 -0.06979448 -0.5002286 0.5188963 0.3243554 -2.5284803 -3.7608912 0.65178823 -5.157738 3.7636688 -0.1271364 3.7497134 0.3200683 -0.5168061 -3.1655867 -2.3771307 -1.3394113 -2.0889986 0.51128995 0.8550608 -1.4730142 -4.2561936 1.7420042 3.2737906 3.095857 0.79849553 -3.175701 0.38091078 -0.70481515
중학교 4.4167476 1.0716596 -0.832025 0.026300495 -0.42366192 -1.8052788 -2.961752 0.2367557 1.4989352 0.51213163 -1.7361976 -3.7091215 -2.6535146 2.5185177 4.5307283 0.017146325 0.4282026 0.6326581 -1.354217 3.599344 0.10819784 1.0641783 -2.9821696 0.09223827 1.4048824 1.7120452 -1.5802653 4.7981844 -2.0767512 -0.7329773 -0.7686805 -1.1396769 -3.6664357 0.36389306 0.78863585 -0.47595534 -3.585013 2.6366956 -1.5812572 0.35966855 -1.5459636 -3.524326 -0.8573241 -0.51291823 -0.5842674 2.2405457 -1.6158748 3.2080529 -0.4669347 -2.5408902 -1.6864532 -1.8986825 -3.5563471 3.9360187 3.3258426 0.3066365 0.0355091 2.2766664 2.4881952 -1.5996202 1.2842059 1.8650569 -2.427282 4.759472 -0.56282616 1.1617156 1.1735423 1.2824966 0.61397654 -0.814566 -0.6279802 2.4269106 -1.1909702 -2.7461731 4.7123327 -1.3155307 4.5412083 -0.11256742 0.43973854 1.6150252 0.27886292 2.7437146 3.3007107 -1.8029178 -1.6905749 2.3185024 -4.499111 4.4913535 3.2334774 -2.0003328 -2.536302 0.6695141 -2.6834984 4.3974876 1.0482715 1.527913 -0.4597635 1.5022991 0.023992209 1.1257677
시간 -1.2838472 -3.8619344 -2.090235 -0.5817689 2.107043 0.070942216 2.0691187 -3.474406 -0.88199997 0.63245094 3.1797132 -2.8639343 -0.3878188 0.51857615 1.2678084 1.0096701 -2.7951784 -0.85976225 -0.80413705 3.119479 -1.8418665 0.7354926 3.8726385 -2.0832574 -1.1631474 -2.1634486 -1.6701874 -3.3642864 -0.5234176 1.5379702 4.6656594 -5.358308 -0.67507017 3.8462946 -3.1751237 -0.4438206 2.496282 0.9088333 3.8861306 -1.9367907 0.3398674 1.3963369 -0.42920944 0.37115374 -1.4990441 -1.1898396 0.4302331 -3.8465836 -1.1678835 0.6863055 -0.43238008 -3.0512373 -0.19835576 0.0193448 -0.9233744 0.5664091 -1.316664 3.0229445 -3.307908 2.2739336 -0.6442951 3.0847845 3.6050236 -0.092585646 -2.2805834 0.3623426 0.12386026 -1.2021931 -1.5343505 2.8576465 0.81258863 2.1093426 1.8146529 -0.9732613 -3.01727 -2.7560308 -0.1436846 1.2506893 0.84352785 0.15591916 -4.3797956 0.70694095 2.554306 1.5644993 -0.21228847 -4.11531 2.30426 -1.6001703 1.9382528 3.5023754 1.5086235 0.15727916 -0.613393 3.043837 1.4513106 2.274173 -2.8742437 -0.038056687 1.1639185 -1.2376418
마이 -1.1612747 -2.4103816 -0.910871 2.8796165 -2.5049815 -0.57438093 0.7046637 -1.0084764 0.47168726 -0.25495687 2.640211 -0.23947112 1.7697711 0.7804093 -0.14469291 -0.031142648 1.1156758 1.7361493 4.032819 -0.7559517 0.4888334 0.68855983 0.13392739 -1.2033813 -4.2162933 -0.963684 -1.0931374 -1.6701615 0.1839091 2.8508344 1.3158246 3.5197196 2.575572 -2.4461787 2.0703368 0.15202752 -1.2973076 -4.599021 -0.47105822 -2.0729141 -1.354447 1.4852633 -1.3928024 -3.082999 -4.28753 2.2690573 -6.4566793 -1.3210034 0.17735796 -0.5541273 1.1489248 3.7003288 -0.31843886 -1.120195 -0.29237264 0.6849518 2.8432298 1.1381255 -3.5435214 2.2913673 1.4457422 2.2564132 3.7589087 -0.5021531 -1.6679057 -0.6009395 1.2642927 0.37328202 0.89947057 3.5729072 2.9681444 2.736256 0.16730359 -1.5625534 -1.0305134 -2.1314745 4.1222396 -3.748999 -0.58590937 -0.10478674 0.6610031 -0.84132624 2.5534277 -0.32226622 2.8009686 -1.7284802 2.9359868 2.6495378 3.23895 3.5048988 0.6463817 2.0143287 4.8079195 5.0006256 -1.0025806 -3.6445606 -0.57725626 -1.9051174 -1.5111712 -0.55666864
위치 0.7485701 0.6325126 -1.4782642 0.22479007 -2.1452265 -1.6241268 1.5550703 4.232705 -0.40224 -0.79811704 0.4059963 2.0769517 -1.6002312 -0.24884748 -1.0065634 -2.988262 -3.0800784 -1.5609673 2.9859786 0.48260882 -2.4390173 -1.2445465 0.03365682 -2.0127676 0.82118946 -1.0299164 1.7497324 0.0007328795 3.0340192 -0.84107995 -2.8676958 -2.0233612 -3.920267 -2.619591 0.1966954 3.7879903 3.0477967 3.0455031 0.7224258 -1.1400976 3.6981869 2.4633274 -5.005997 -0.2982126 1.9737266 -0.5472788 0.15996896 5.1860976 2.3896 0.68148595 0.61627567 -0.3223088 -3.156567 -1.4382354 4.0746207 0.8427389 3.0675547 1.4736922 -2.6451838 1.3856292 2.8104184 0.3323526 2.6485465 2.622673 -3.8868663 3.3027635 1.3502672 -3.0723715 -2.3407173 0.69680977 1.3774691 2.3679314 -1.0343536 -0.68736947 0.32295462 3.833889 -2.3583276 -2.312616 0.6475353 -0.67175955 0.12323249 -0.2285886 3.68605 1.3938671 0.3841591 1.7911936 2.095104 3.0702212 0.9741935 4.3405333 -0.08780887 -0.44447184 0.5654299 5.562255 -0.41530493 -2.5053163 -0.77090466 -0.43019733 2.1818666 -2.4852748
얼굴 -1.2617605 2.2799609 0.016402643 2.083836 -1.4103957 -0.52278316 5.0007124 -1.6245424 3.3286414 0.34862965 1.3982176 0.35332608 0.4578165 2.97934 -2.434617 6.380526 0.09073693 4.3967705 2.3621235 -1.8196038 -3.0781043 -1.9988476 -1.0511801 1.5357577 2.2614653 1.251991 0.5940242 -7.225958 0.24817581 -0.24838334 4.1226997 -1.4226336 -1.136091 2.1590998 0.33222526 -0.26927564 0.6899182 1.6763883 -4.345252 1.7327423 -0.5439385 -2.9342172 -0.44032887 0.7831788 5.0866456 -1.9644368 -3.765484 -2.9144912 -1.0074761 -1.68864 0.04660695 -4.384741 1.4734534 1.6512647 -1.9213172 0.7260053 -0.12651362 -5.220349 3.832717 -0.544863 -0.41814095 0.15039554 -1.193771 -0.28421283 0.26746038 2.1749098 1.5054077 -3.0944655 -3.829716 1.9932404 2.4084868 -1.2109196 1.593562 1.7874031 -1.3314869 1.5580751 -0.11187216 0.63297874 -2.9822683 -2.2477775 3.1185644 -5.5602555 -2.101186 2.3476856 -2.1406355 4.3710766 1.6713594 -2.3569806 0.344332 2.430072 -0.84055686 -1.6996086 -0.4024259 3.892331 -5.104501 -4.3004766 4.665361 -2.577927 -3.842285 -2.6644943
주다 1.2773107 3.0755792 -1.3872203 -2.189782 -3.0068111 -3.014779 0.7119757 0.22863095 -1.8422731 -0.4119299 -1.2332896 0.0617852 0.35856685 0.8832372 0.43383542 1.5899925 2.4675794 -5.110212 -0.6180694 -2.48685 2.977592 -3.53661 -1.5086005 1.7489269 -0.607389 4.4591265 0.8058214 -1.1553208 -2.8494651 4.379595 -1.669547 4.164857 1.9274925 0.48921883 3.0725813 1.9320326 5.349014 0.78149194 0.7875978 0.7828968 -4.7244554 0.39811987 3.220111 -1.6669348 -4.93104 -1.1220242 -4.4018307 2.7624466 -4.406305 -4.3466787 0.09862421 0.8044081 2.336753 -0.03798794 0.7369465 -0.43777278 -1.1367135 4.2024627 -2.456816 3.8760843 -3.556768 -4.7371554 -1.7763686 -0.702266 3.2778533 -5.732568 2.891554 3.075028 -3.5389366 2.0511224 1.5291917 0.90665174 -1.8442162 -4.8079424 -2.927965 -1.6750079 -0.1527114 0.56399137 -0.8776716 2.953334 -1.8794518 -7.971599 4.5191646 3.352444 -2.647933 -4.0176845 0.61951655 -3.3199697 -2.342497 -1.799897 4.93939 -0.25631127 3.9927723 0.58855 -4.52694 -3.2303438 -0.75355154 0.62602067 -0.44000378 -1.2594917
따다 -1.0706568 4.138014 -2.84791 -0.87263227 1.9171522 -1.862573 1.6250652 1.225279 -2.6481237 -4.0911045 -1.2739973 0.35725427 1.4524381 0.045601882 2.6341374 -2.4647784 2.2219162 -2.4643195 -5.565217 -0.3265222 -1.0262141 1.8310714 2.6738105 -0.06551568 0.14085771 -0.35161626 0.3418311 0.005014683 -2.5727296 0.36819267 1.836045 0.9358842 -2.7367916 -5.2598343 2.9331532 -0.3802546 2.2029865 -1.4694787 1.3252461 -1.8232185 6.369338 -0.33966073 -0.96344495 -3.457957 -0.26782888 0.54237133 1.1771228 -0.9909184 -2.5129185 -0.89107776 2.8574197 -0.8750866 4.0248494 -2.1132536 -0.43576986 -0.6527736 -0.68619287 1.1042562 1.5076903 1.2173796 -1.0095676 2.5073051 -1.0609794 -2.4437864 0.48518822 0.7612451 1.3189324 -3.4878755 -1.2685428 1.3645312 -2.7727177 1.4181466 0.10310512 -2.4891348 0.822564 -1.3840561 -0.4985875 2.0915585 -1.7628539 -6.147603 -1.4432484 0.17864557 1.2015911 0.012975869 -1.243395 1.2559394 3.6995769 1.0172446 -1.0505564 -5.084143 2.0844376 -0.42061952 3.9530857 1.1264653 -0.9959317 -1.8477113 2.1758797 3.6124942 0.79528165 2.3506224
걸 -0.03953348 -1.3270923 3.0645318 -1.4048682 3.1406808 -2.517587 0.54380906 0.15709479 -0.58922124 1.1410072 -3.3524954 2.4857666 -1.6004754 -1.5557264 -0.715809 0.6860788 -2.0892913 6.6810517 -0.17783283 -0.7066168 -5.8178515 -2.275011 -2.0649133 -1.6569741 0.95729506 3.5815108 -0.16158566 2.3032064 -2.1286955 -2.1891856 -0.5248786 -0.41499472 3.6268215 4.8148656 0.98959744 -0.2960372 2.5336406 0.10367828 1.123103 0.62869495 0.79724294 2.423659 -0.114680305 -2.1126978 -1.7551621 -0.42220226 3.2958608 -6.6221824 6.4284554 -2.4114923 -0.9711977 0.49299666 0.5746934 1.02295 0.82654345 5.6517916 1.9972022 -0.79527277 0.63375425 1.3510097 2.826457 5.863751 -3.718636 3.7665133 1.9145844 2.8018095 1.1081077 3.9680424 4.0726066 0.81701136 -4.056216 -0.40044993 -2.2983994 -2.0059824 3.3403692 1.9880261 -0.10517445 -1.8557043 -0.38257757 0.4392257 0.4155465 2.1072373 -0.72293675 -1.4879823 3.9592834 -0.47439808 4.4867377 3.9423096 3.708819 -1.8421944 0.3789513 0.93113875 3.217504 -1.7157512 2.1948328 -2.4925675 -1.3977839 -1.4306484 -1.8747839 -2.4326422
학년 -3.5133026 0.72093487 5.1528244 1.7936031 -3.140275 3.8790314 0.7620127 3.3998318 5.9698863 -0.6349108 0.9174497 1.7745978 0.0034816312 -2.7064376 -0.060562886 -1.9937487 -4.3976793 3.7863708 0.42971402 -0.13317084 -0.38273048 -1.0597223 -3.3378003 1.9726273 -0.60571563 -2.447261 -1.9935303 1.2763938 3.2270381 0.07014723 -1.3430957 0.14206818 -2.825818 0.2827446 2.6423159 -1.4583899 0.49019125 -0.101336405 1.872356 -1.9980975 1.6323079 0.8559291 0.9379106 0.4005227 0.4440986 2.286603 -2.216614 -1.6509471 -3.5009396 0.3652004 0.64504546 2.2414534 -3.0946422 -2.4160252 -0.9567868 -0.18087345 -0.015004698 0.28783005 2.6728277 -1.2985742 5.132617 3.7183867 -2.3170915 -1.629916 -0.50485426 -3.484269 0.7017973 4.8086534 1.7290779 -3.7274818 0.65489376 1.6899143 2.9517934 0.8429583 4.343938 0.6209753 0.43637288 -0.15426238 2.7314537 -1.2801845 3.1933968 -2.2420633 -3.8629925 0.9311211 0.073786005 -0.7268557 -5.034854 -0.7881737 0.5007754 -0.79098153 0.12647805 -2.6385117 0.32846192 2.0339568 0.3788185 -2.7699053 -0.49104294 0.1625346 -1.8871342 3.5073373
ㅎㅎ 2.8626606 1.8105078 3.6909862 2.037445 -5.776412 -1.4336438 3.5609198 1.2906915 1.3339953 -1.0449653 0.3329265 0.8364568 -1.9578072 1.910303 -5.4164762 -3.386301 -0.40969095 -1.2480545 -0.1143412 -5.043945 2.51251 -0.93319994 3.678737 -0.4594134 4.2126303 -1.0344993 -0.7465801 -0.59348834 -3.6412787 1.2826673 1.7674929 -2.031792 -3.247557 -0.15252724 -1.3475999 1.4436538 -0.7525147 4.2265754 -0.8625719 -2.3856454 -1.7963771 0.028511114 1.194089 1.638849 0.6285796 0.99348193 4.15818 -1.7625588 -2.8695776 -2.4746585 0.65219754 -1.8193371 -1.9636296 -1.4690993 0.78264517 -2.5514567 2.758243 -3.0363762 1.4696411 2.8685632 0.4428753 -1.3538772 -1.3570484 -4.663124 -2.7640538 2.652879 -2.431132 1.3783956 0.5924915 -2.6084878 -2.494235 1.1418536 -0.77403855 1.0120914 8.059196 -0.6949386 2.4571936 -2.6535091 1.3932571 -2.353237 3.099236 0.095171876 0.0127630755 -1.5131824 3.7903974 -4.3605886 0.93506116 -1.0623854 -0.51071507 0.90033007 -0.16183186 -3.2921784 3.3677604 -0.31710917 0.7828319 -0.31752807 2.063614 3.209469 1.9872358 2.9418623
그렇다 3.3587463 0.27132797 2.2718282 1.2093233 -2.0414293 0.17930464 -0.5631549 5.5263877 3.3809571 4.7141423 3.7162778 -0.8722731 -5.749921 2.059888 0.13247 -1.4618424 3.4818833 0.26418486 -2.4949293 -1.7393057 -5.359458 2.723517 0.40429303 3.0791667 1.0446482 -1.9185119 -0.3716223 1.1655699 0.34071773 -2.9011595 -3.5967083 4.0496387 -2.4225528 1.5688803 2.335018 2.7596037 -3.7977877 -2.8239925 0.7620017 3.5056555 1.7625664 1.8102523 0.3244734 2.4123445 -2.951446 -0.81028575 1.9591331 -0.8138958 -1.3731501 2.2843454 1.8938459 1.4300065 -0.6178782 -0.63869834 -2.3252132 -3.2918112 0.28894493 1.4758365 1.2949976 0.89200014 0.036601275 -0.6143443 1.9537972 -3.6299272 0.28304318 0.5020894 -2.9857652 0.8032028 2.5722537 -0.78782946 -0.8876843 -2.4314864 1.4197037 -1.3749983 3.156039 1.2227045 -0.4117989 -0.3753545 1.5013582 4.725412 -0.5767142 3.023209 -0.06989152 0.2509678 -0.7526131 4.308627 -1.3004948 -1.7973821 -2.2415051 0.348434 -4.8664837 -1.6681811 -1.4447335 -0.0050080284 -0.081735566 -1.758183 0.029176658 -3.5280683 -0.4954264 -4.712177
예쁘다 -2.3604426 1.4413201 -3.9657848 -1.3693514 -0.19154947 -0.06566487 -1.7843257 -1.6589018 0.34686494 -2.408427 -1.390432 3.0752676 2.7265592 2.575187 -2.1407592 0.8395396 -0.051121227 2.5599244 -4.0631666 -0.51450956 -0.63222384 3.4496713 1.9995042 -4.5157037 3.4091773 -2.5074325 1.548976 0.9959511 -1.1892211 1.9967055 -0.717664 1.0758541 1.7127322 -0.8994236 1.6130267 -0.9573329 1.561992 -3.061442 -2.653821 0.5341121 3.3084214 1.8512877 -0.06415075 -0.6108777 -0.46533996 -1.5746803 0.679382 -0.945641 2.9157546 -0.7879204 -2.5703592 1.0743549 -0.85323226 0.8011993 -1.3113606 3.11605 3.1637318 0.6331979 0.18104696 -1.1857157 1.6874131 1.1796232 2.4162128 -5.1433964 1.805853 -1.1332128 -2.7456837 2.985699 -0.71100146 -4.344481 -2.6328657 2.8125765 -2.710912 -2.4673235 4.8365717 2.9436126 0.62804514 5.407606 2.13696 -0.18844642 -0.8770086 0.1731391 -1.5130373 -3.3085477 -3.7880247 -1.2146435 -2.9455662 -2.291141 6.752419 0.64067984 0.80905837 -0.30012903 -3.1810534 -0.70362335 -0.37050265 1.3588463 1.3841076 -1.3655211 0.75873625 -0.15906337
산다 -0.99384975 -1.0179422 -1.7474018 1.636101 3.4311006 -1.5040088 4.0058007 -0.652504 -0.37196007 -1.2523865 2.72788 1.2854189 3.4652033 1.919159 -1.7419444 -1.0430478 0.64857745 -0.24861519 3.1838863 -0.29975292 0.89006764 0.5706078 1.5646359 -1.7755401 -0.5056339 2.8049805 -0.49514902 -0.11255406 0.30528882 1.5227784 -1.9726638 -2.3169577 3.8977623 -1.2121018 1.6457646 1.4107853 3.5047388 -0.57933956 -0.3829423 -2.1241832 -2.0770469 1.9451827 1.5579729 -2.2237308 -2.5250275 -5.528158 0.04458604 -3.4550726 -0.36448216 -3.7623248 3.3371253 -0.9373825 0.9202949 -0.6461117 -0.85442555 0.5344646 -2.3171167 1.9391779 0.15190701 3.8665261 2.5693946 -1.9067428 1.5066504 -0.9724412 0.5965628 2.2766125 0.36557898 3.2347622 2.625429 -1.7056102 -2.5713806 1.2027686 1.9480282 1.4339954 -2.414473 -1.1213757 -3.001635 -1.4557067 -1.8603878 0.9570242 -0.08188864 0.2739926 -1.0402786 -1.0667741 -2.2505944 -2.0797353 -2.693325 1.4090064 -2.8268304 0.94269586 -0.28963274 -4.682681 3.5296052 -1.2154211 -0.5573906 3.0521803 -1.7972476 2.2870524 -2.1299934 -2.1920624
다니다 0.27426353 1.9362601 2.9953468 -3.3812575 4.7467785 3.174003 1.1927085 0.8161869 -2.1434355 -1.3798863 -1.9549167 1.2210047 -2.4877157 -1.960534 2.277034 0.87200254 6.7657733 -3.3680408 0.28737694 1.2033825 -2.1890059 -2.383671 -0.93737024 -0.62877834 -1.1966174 2.1599624 1.6503254 3.7301362 2.1246943 -5.0756984 1.0685655 1.0126318 -6.259822 -0.29920632 -0.07385513 1.6500391 -2.520934 -4.130429 3.3579223 -1.9220346 -1.2945352 -3.3539698 0.908235 2.3339138 -0.45208344 -4.279745 3.4880254 -2.0075278 -2.9745502 -0.07946461 -1.604765 2.7965806 -1.0404068 -2.185339 -1.2414105 0.71252227 2.2981248 2.1313083 -3.615617 -0.006510852 -4.717326 -0.09080983 -1.1064322 -0.8223813 -3.4296513 0.784326 1.9207867 -2.009895 1.5235463 -1.4394256 0.5829459 -2.082036 -0.7870475 -0.5443347 -1.6735247 1.9015224 1.912643 -1.2823023 1.0263581 0.5418283 -2.7623358 1.0454981 0.5069607 2.21306 3.2419758 0.69756705 3.6330163 0.6656819 -0.36083797 4.2774 -1.0697156 -0.061374027 1.6420547 -5.8388476 4.1279793 -0.78911257 -1.3623173 -1.4302558 -0.7541265 0.40185207
랑 5.1834006 -0.532389 -1.6671422 -4.6158113 -2.462785 -3.971764 0.1184035 0.83083624 1.2797463 -0.90933627 -1.5131958 0.45024806 -3.1835237 -2.4189622 -0.3376159 2.6573775 0.29699272 -1.3386208 -0.3929083 0.06067631 2.984266 -0.27546552 3.3844793 0.21121791 -0.20551747 5.344103 3.9612231 -1.590357 -0.005274531 -3.9586704 2.0640473 -0.65245557 3.787557 -0.13989156 0.23524143 -2.6601715 -1.4703021 -2.5035203 0.78581893 3.5714364 0.79375553 -0.30338016 -0.7800537 -2.4076416 -0.5025333 -0.05699732 -4.6709547 -1.341909 3.708483 0.13462694 -0.38628608 -1.7227324 0.60371965 -0.71008617 6.3478947 2.652317 -1.0153017 -2.2048917 2.6194234 -1.0283376 -0.3046533 -0.048301015 -4.2857485 1.3820318 3.2228384 -4.950005 -1.4775991 1.6550622 2.342755 4.461346 1.884953 -2.6011434 -1.8103371 -1.5351909 2.4708872 1.1316882 -2.3502684 1.9339708 -1.1479365 0.8494035 0.017039109 2.294655 1.7198796 -0.1424149 1.7208809 -1.9537781 0.34949762 0.40887892 4.2477536 -0.9376006 -1.0624712 -0.048083875 -0.76206464 0.15437011 1.2355686 3.7255397 -0.017051946 -3.49526 2.8556364 6.277811
다리 -1.0396452 0.36181667 1.6888232 0.49615708 0.034912594 -1.9077272 -3.620495 -0.16944575 1.7720177 2.5146408 4.1633887 1.4980719 -1.5044677 2.032712 3.2865016 0.50834244 1.2973346 2.044327 2.6298559 2.1753287 1.8613238 0.38872147 1.0622284 -1.9733104 -1.6116544 -1.8940538 -0.9735997 0.33700293 -0.16215077 1.5433207 1.8507789 -1.3357558 1.2842062 2.1457498 0.56000006 -2.2886443 -0.69757104 3.9435856 -1.5307231 -3.1824257 2.0046093 0.12928207 -0.05664843 -0.14207521 0.4680305 3.3764827 -4.425851 -0.73563874 1.474253 -3.476304 3.7435858 -0.3639082 -2.8132496 -0.76452327 -2.9496968 -6.8372326 -2.3115673 -1.2141114 -2.2112315 2.2451127 4.7518005 2.0420008 -3.0521832 -1.9566797 0.074345104 -2.272299 -0.68223405 -2.338375 -0.8920658 3.1496096 -5.904491 -1.8081957 2.774209 0.9322849 -3.248219 1.9419532 -1.5063908 1.6708106 -2.1768076 2.6842182 -3.1464643 -2.1696181 -2.4643397 -1.2968423 2.1441405 4.2959857 3.352467 1.9935834 -1.5922061 -4.237549 -1.865753 0.895782 -6.2264466 -2.4739652 -1.9270753 -0.26536444 -1.5507241 -0.34486875 -3.583789 4.34734
코팅 4.6244893 5.843071 6.058378 -0.27360645 -3.0666742 -0.87948096 1.9575008 -4.579931 -4.0313387 1.6608993 1.5771288 -2.3091738 1.3844255 1.6493435 -0.58183575 2.1835024 1.4050525 1.5465375 4.4870152 -3.732586 -0.97016585 1.6411097 -1.2790817 -1.370513 2.2101476 -5.417151 0.8554468 -1.9925406 -0.83570486 2.889341 1.5293906 -0.83201337 -0.91865456 -0.3359117 0.613153 -0.5542156 -5.0596786 -0.26598772 3.8496206 -2.9138227 1.4360648 -1.2414024 -2.5971272 -0.7119496 3.4619305 -2.4551415 -2.1870744 4.0105886 0.6267899 -2.418725 -3.2058632 -1.5194557 1.1368603 3.706711 -0.34138608 -2.1112397 0.1384531 -2.185107 -0.7091488 0.615841 1.9044199 -3.6029649 1.3531716 1.100128 2.6038568 -1.295907 -4.804611 -1.080635 -0.70646125 1.0368159 -0.45033163 -2.4860556 4.4271393 2.6144285 -2.7388816 -1.1923791 1.1640688 1.2154659 0.9433069 -2.931495 1.4400169 -2.3622813 0.6192807 1.629346 -0.40981403 0.29300994 2.04195 0.92242134 4.385869 -2.8454304 -2.129962 2.044247 2.869599 -1.0167642 -1.1541367 3.6707156 2.9438744 1.380575 0.33650976 0.6752899
내다 -1.6330615 -1.1425073 3.4881752 0.35840723 5.882466 1.6865324 0.5358103 -0.40164956 4.107001 0.70204145 -7.58656 -2.1490426 0.39521664 1.244575 -2.5377884 3.272859 -1.2732575 1.448204 -0.59719545 -1.0720279 3.745627 -2.4692132 -0.17434008 -0.47956043 -3.6220856 0.6843317 -3.1909714 2.5588229 0.50472933 -0.9417544 -0.91790265 -0.47495678 -0.57502687 -0.2316254 3.7872005 2.2118301 3.920782 2.578928 2.937136 -5.2156143 1.3873029 -0.25466216 -3.4864318 -0.24067502 -5.7826824 -3.7640278 2.827392 1.251274 -1.3895456 4.9562335 -3.5653126 1.9638321 -3.305069 -2.3595095 1.51461 -0.72770905 1.2020289 -2.7098203 0.7722983 1.1056771 2.382097 -2.8305736 -1.3451557 -4.8161497 -1.7302202 -2.0862124 -3.3623288 2.7819893 -3.3341322 1.6639924 1.5893734 2.8709128 -0.9082991 0.62149405 2.296267 0.34183908 2.15774 -1.3106617 -1.5151595 0.3075189 1.7419256 -0.3436659 1.7224163 3.4577875 1.3859507 -4.358563 1.4927888 0.56937295 -5.050229 0.9896292 2.5022004 1.0131732 -5.0953965 3.2623317 2.7553556 2.1904066 -3.403699 -0.44496125 0.27569628 -4.8804584
가져가다 2.19368 -5.0611753 -3.5685973 0.47089332 -0.70065814 1.4404588 -0.9161035 3.3313735 1.162076 -0.6255627 0.5768291 0.01727623 3.6315494 -2.4923666 -2.6027694 -0.53923523 0.44540986 -0.14279598 -3.588605 -0.38793284 -1.0632821 0.767962 1.0343595 -0.029084206 -1.3426315 -4.6293716 0.94295716 2.3052852 0.8062312 -1.8013989 -0.5285022 -0.85225207 -2.730376 0.1502579 -3.7747924 -2.1188822 3.6736038 0.1856334 -0.6421685 2.0260472 -0.32111317 1.9968239 -3.9427216 4.5546145 -1.7910526 -0.022035137 1.918603 0.36232442 3.7339683 0.058391903 -0.98987913 -1.6339904 -1.7367547 -0.9880524 -3.780259 1.0920583 -1.8572956 -0.15514925 0.21281473 -0.23285772 0.5149762 0.56104386 0.71358365 -0.0691698 2.0820043 -0.84663886 4.396036 0.4431441 3.2612882 -1.0034283 -4.056134 2.7641075 -0.31559044 -6.5296497 -0.97211236 1.4084138 0.5063688 0.85503036 1.3288633 -0.44769004 -0.33165443 -7.1828637 -2.6158853 -3.8791747 2.8206975 5.093427 0.6003618 -0.05691207 2.0292802 -1.4527184 1.5681506 -1.3357768 3.915662 1.8834919 2.7708561 1.9837627 -2.1763022 -2.2461731 -0.403951 1.6190506
알다 0.30656323 -0.06567251 2.7952905 -0.98996615 -4.008029 0.78567684 1.5949098 -0.3878624 1.3071129 2.6730053 -3.1410751 3.9319289 -0.03742247 1.9116198 1.431136 1.7573162 -2.65921 -2.0035136 1.6589092 -3.3689628 1.2584134 -1.9919022 -0.62313837 3.420812 0.7128577 -1.0818022 -2.171328 2.5869503 -0.16710296 0.70667624 -0.52053964 -3.323647 5.3239207 -0.6814184 0.25118244 -3.5927725 1.3571717 -5.635203 0.23032352 -1.1705574 2.0946522 -3.7519236 -0.25123206 5.329774 0.40567222 1.6437985 -0.28588855 2.129465 1.0987575 -1.3340436 2.489799 2.27463 1.3657084 2.688467 -0.22399795 -0.88561636 1.2608641 0.8795504 -1.6512737 -0.7166694 -0.029677067 0.063410126 1.7320656 3.86729 -2.690183 4.422998 0.3286955 -2.363328 -4.1653085 0.76364017 -2.140175 -2.6270778 0.13228674 -0.2788845 3.965021 3.542922 0.8634874 0.79315394 -0.012262337 -0.024541302 -2.4995108 3.8486607 -1.3384297 -0.30838993 0.4963298 1.647215 -4.7250147 -3.1557508 -0.3390789 -0.75506926 0.20264003 -6.3766212 -2.910768 -1.4933676 -0.5285942 4.971095 -7.0274305 -0.14576526 -1.505316 -2.0748236
채우다 0.06276885 -0.5196506 -1.5285616 1.8748293 2.2831004 0.38225797 3.535566 0.021814898 -3.5331852 3.2665489 -2.370436 -1.7885199 -3.14971 -1.3524667 1.2064861 1.1593682 2.8714337 0.533305 0.7503954 1.6830087 -1.3955404 -2.7408783 2.3674278 -2.0497656 -2.3433807 4.087744 -0.707589 -1.4202666 -1.6940912 0.028983394 2.3309424 -1.2073975 -0.31616545 0.77043 -1.787182 0.060732625 0.9705766 0.20009294 2.5635493 0.39149073 -1.9390761 0.15246443 -1.3742031 -1.2749974 -3.7880526 -3.7642097 0.8344947 -1.0983295 0.9250422 -1.534714 0.042317502 2.4219027 0.4908933 -0.9521136 1.2042333 0.5328683 0.53246844 2.792468 -0.50806963 3.4690568 0.6504384 1.2514498 4.733958 4.5758247 -2.744551 -2.136706 3.2423944 3.448705 -5.3534107 1.9930744 0.318217 -2.8937573 0.6705537 0.33140355 -3.515093 -0.05423007 -0.76515955 -3.1921723 -1.3369695 -0.6218758 -3.5350683 -0.048464708 2.2358456 -1.3853877 1.5652207 -1.9127017 2.1198134 2.2949038 3.179253 -0.16980791 3.0957067 1.1084954 -0.40772036 3.9225392 0.44291124 2.0479717 -2.1800902 4.000119 -0.81166327 -0.7445943
너무 0.55171055 -5.5167766 2.2973413 0.3648513 -0.6959038 3.2984579 0.49476612 0.20818926 0.80141765 0.002972268 -1.6846836 0.6835595 -6.3875794 -2.9015114 -1.1909063 1.7037522 2.4306693 -0.12449713 -2.3362563 4.5021863 1.0155766 -0.47715297 3.647424 1.3994153 3.4373214 -0.4180406 0.16892633 -0.029007463 5.287134 -0.05624878 -1.121814 2.401916 0.18290003 1.8579524 0.2896675 -1.9091768 2.1239421 -1.9882283 0.5413831 5.88421 6.820558 -6.3886757 0.2772792 1.6647768 5.025074 0.39461106 -4.510295 2.1698418 2.8011854 3.884411 -0.76240826 0.40101957 2.6569643 -1.2727118 5.314668 -2.426138 1.8078756 3.187665 0.6114982 -7.915997 3.2422562 -1.0291989 -0.30907214 6.891271 -0.35579893 3.1529284 -3.9469023 3.409291 -3.1491473 2.0980523 -5.596185 -1.8774655 -2.5673554 2.3891354 -4.006262 -6.493021 1.0412173 1.8708527 2.4197435 -1.8356239 -2.1470776 1.2324635 2.7642796 1.2803007 0.3825296 -1.0085154 1.1107678 -0.1637625 -1.1336167 3.8380108 -1.6581329 4.246367 4.2496347 3.880981 2.6418762 -3.1171222 -0.8527175 0.24383181 0.38287443 -0.6312549
아니다 -1.950365 -1.5828261 -3.4325957 1.7505568 1.1661693 -1.7175531 4.4775305 -1.7922809 4.111115 -0.1191234 -0.246631 -2.6700268 3.0261972 3.637614 -0.78398496 0.9783815 -6.15511 -3.2864766 1.1682879 -2.0973666 -1.5615437 -5.775976 -5.1733766 -0.001579015 -1.8470056 2.5431247 -0.09497932 -2.942107 -1.1171149 3.420249 0.11833048 -1.966576 4.1568627 -3.5030065 -1.4393151 0.055965316 -4.409182 1.4518114 0.33316305 -4.329044 1.8464352 1.8940152 -1.3277316 -1.1475447 -0.7415214 -0.3402554 -3.5215547 -0.55790913 -1.6919743 -0.770109 0.79476285 2.8266852 4.075794 -1.3242259 1.3015597 -5.5687404 -0.19195989 -1.441162 1.3290725 7.7711744 2.3788886 -4.152044 -0.09300835 -0.95319366 -1.2418926 -0.93389595 2.0314727 3.4120972 -5.1723776 -5.2268214 1.9431926 3.2608442 3.8621628 -0.5015889 -2.9727051 0.5698673 8.069991 2.9545774 -2.469963 -0.17720047 0.65075964 -1.4855915 0.3648556 2.8632689 2.6064997 4.7448587 -1.0030073 4.548375 2.766228 -5.6407948 -1.6293721 -3.6517553 5.2294855 -0.48186585 -5.799356 -1.0680236 -0.33428645 -0.81096345 -2.1823843 0.86403966
준비물 -3.4665272 3.7365272 3.6080859 -5.1656394 -0.5931618 -1.0931606 -0.7075138 2.9292958 -4.0113373 2.7663429 -4.338055 0.11196819 -5.2766395 1.09413 5.4052877 -3.102284 0.7363941 -0.4652554 1.3853687 3.295522 -0.26165485 1.108577 2.432291 -1.8545879 -3.2332125 1.4867183 -2.319863 1.9689735 2.1423404 -4.4724183 -3.7809217 1.0336149 0.19491445 -0.13118908 0.385523 2.9094782 -1.163337 -2.7483165 -1.3353294 -2.826657 -1.8977166 -2.9305384 0.40435395 -2.6473477 2.5385718 -0.92518175 -1.8318832 -0.9101699 -4.5769277 4.0327363 1.2377889 0.522285 4.2247086 3.2205944 -0.2706277 -4.0717487 2.7981658 -0.33911344 4.1088753 4.0730186 3.1227167 -1.8708493 -0.9816788 -4.563995 1.8489507 -2.3399174 3.2132397 3.0603127 0.96292716 -3.8738656 -1.8827655 2.7534366 4.4841156 4.186951 4.718252 -4.162281 2.7783659 -5.756265 -5.122847 0.6563037 -1.566233 0.83786523 1.1640795 4.259943 -4.8031507 -2.7043257 0.22361019 -0.28057617 -4.863512 -5.9026666 -0.85478216 2.788828 -0.7526169 -1.0590587 0.28482485 -1.2248595 -1.5337914 -0.6653237 -1.8051727 4.6901426
돼다 1.2603247 -1.0861412 -0.5236425 2.3989015 0.8462706 -1.0516362 1.8567278 -1.8887062 0.09204146 -0.9345062 -1.8617854 1.7819258 -0.41844842 -4.436952 1.4364436 -0.030797534 5.776287 -1.8262099 -2.3369837 1.0986357 3.1298242 -0.50372505 0.2415908 -4.5245 -4.880256 1.1222439 2.0967946 0.45415244 4.045794 -0.036686376 0.46620908 1.4084526 -0.6352126 4.595607 -0.4997065 0.68740034 -0.40162045 0.70068336 3.113285 3.4781883 -2.44857 4.19746 -1.519382 -0.9870834 -0.44264203 2.0330105 -0.7284978 -0.27829763 -0.6727702 -3.4395173 -0.32333997 0.45405012 -2.6678119 -4.771844 0.13680172 3.1559417 -0.9509754 1.5312063 -1.8803645 -3.9087908 0.122353986 -0.20854007 -0.22695656 5.5573874 1.5670547 1.4379143 1.052297 -3.7829812 -0.5109472 0.67697227 0.7475249 -0.72022676 -4.370678 2.978444 1.5266806 -1.2459925 -6.852247 -1.2435974 0.5076063 -1.8713832 -1.374302 2.8799946 1.06076 -3.1986463 3.9061449 -0.91622084 0.3238555 0.3642162 0.46797764 -0.84306544 -1.0299083 -0.13510808 -0.64392495 0.073236614 3.9408276 -5.6328416 -1.4959861 0.74405324 -0.05740332 -1.7477968
드릴 -10.090295 -0.5282032 0.7686216 -3.4206247 -4.990639 0.07106433 -5.2761064 -3.4032629 -3.486889 1.7279317 -0.84715885 2.0056314 2.1386113 4.951692 -3.8572505 -1.1467378 3.9600384 1.7737418 0.30693927 1.8844515 -5.4535384 1.3404 0.63981354 3.2346337 -1.7661251 -3.3748143 3.4154663 -3.5377512 -0.5205913 1.506274 0.19112478 2.4284902 1.0568136 -1.5296264 -2.042145 -3.022416 -0.32787275 -2.5585663 4.2664757 -3.0521579 0.12995115 -2.446018 3.719913 -1.129914 -2.3337233 1.6724873 -2.000961 1.2387737 -3.991701 -2.2606494 2.0504441 -2.2623544 4.0159197 5.772726 2.0228713 0.795336 -0.7358534 3.8466532 -2.5571759 -3.028812 5.3107505 0.0530255 1.4345413 2.6135287 5.3492494 -2.1522698 -2.6715531 5.2440977 2.665277 3.34034 -3.011844 1.2816604 -1.6076795 0.35779133 -2.584123 -3.388329 -4.468905 0.67910826 3.0025408 -3.6113036 -0.9814896 3.825292 -1.0127922 -3.9261072 -0.20453213 2.4570813 1.2194712 -4.387636 -4.184311 1.5548728 -3.0942338 0.68960154 -0.25537527 -2.2483892 -2.2992582 -7.468712 1.5221725 -2.0747118 0.17229564 1.5947468
ㅠㅠ -2.1866186 -0.7288319 -0.8789795 -2.3745742 7.3901668 2.7060187 -1.1671716 -2.007984 1.354545 1.6548824 -0.091700085 -0.8980547 -6.4714484 0.20513684 0.69509447 -1.7382947 1.9498122 2.922912 2.4220946 3.2588837 3.2144601 -3.5453644 -6.1251583 3.556285 -2.1819038 -2.1008368 0.6755702 -0.62710994 0.26322326 -4.220958 2.49154 -2.3253546 0.4286978 -1.5640099 -2.0906878 -0.44439545 1.0156076 2.0176246 -2.7140186 -0.23145391 -3.034622 1.407493 2.101206 1.2292486 -1.0876498 -1.2942121 -2.3892152 0.8786905 3.726102 2.4644418 -0.4287664 -4.858532 2.0183516 -1.5521271 -2.1477897 3.259027 0.6116171 -1.762135 1.7144936 1.0873009 -2.4361334 1.3642489 -0.48492467 2.380581 -1.1374018 0.0771881 0.25494424 -2.3370311 0.9984635 -0.3197584 0.17727424 4.0654106 2.8256416 -4.47246 0.6792377 -1.7563907 0.030434368 -0.9994224 -0.6912447 1.0012664 0.37714407 -0.45764607 -1.8812469 -0.06625637 -4.654233 -1.6162028 -3.5055375 -0.6375461 -1.11291 0.22189383 0.08574845 1.0067842 1.9482747 -0.3043331 5.2387304 -4.4907737 -6.5534205 2.5275247 -2.9808216 -2.7180457
사회 -1.9513046 0.3753041 -0.3198997 -3.6940892 -2.5831482 -0.7461145 -3.6184506 1.5261397 -0.21668617 -0.6080402 3.430663 0.11718404 -1.4924225 4.7401605 2.2675958 -0.31844544 0.41458791 -1.0978059 -2.1389816 -1.0131323 0.8960771 2.9875457 -2.60174 -0.37717846 0.0131545225 1.5620298 0.7635373 2.497527 -0.21265264 -4.0372233 0.38146034 0.078567736 -2.2439654 -0.9426805 -2.184043 -0.8940692 0.021073129 2.0867136 1.8492175 -0.12793308 0.9514214 3.6858056 0.19271281 0.102641076 3.2302577 -0.9669991 -2.0200012 -0.8684191 -4.7748837 3.7105052 1.6858344 1.8209118 2.522819 -0.266145 0.120576 -2.551297 -2.370535 3.0327024 -0.41830027 -0.98861754 -0.31218433 -1.0916511 1.0128314 -2.1998334 0.011026496 -0.0332089 -3.21385 1.868849 2.1424658 -1.304975 0.74363196 2.3975518 1.5545774 0.9249877 -0.4686982 1.6230899 -2.0839634 1.3868868 -3.7437365 -1.3223534 3.9019685 0.9269756 -1.6873296 -0.39977887 -2.4838123 -1.0297381 4.0916357 4.389969 1.6692501 -1.237982 1.6396025 -0.6599811 -0.89895856 -1.5361019 0.08080364 1.0843736 0.57511806 1.1544265 3.1182861 1.5379657
과를 -1.4628904 1.96913 -0.28104112 -1.0022812 -5.235292 -0.25932223 -3.598436 3.8160331 -2.171884 -2.1005409 4.375908 0.7599978 -3.4424927 6.654935 4.3972664 -0.7143421 -0.28885823 -0.7366197 -1.9097975 0.5276499 -1.4829266 1.0273443 -0.76738775 1.0513772 -1.6748248 0.7171458 -1.230313 1.1011071 0.61444026 -2.8335657 3.3543766 -0.7147105 0.12928367 0.37043014 -2.0444021 -1.4212371 1.8966836 -0.40728563 1.3637602 -0.8088017 -1.4036261 1.5969708 -0.38718313 0.048299477 -2.1149156 -1.3699569 -0.91068953 -0.013122722 -5.784715 5.3166285 2.0254931 -0.16373825 3.3500254 -1.3826808 -0.7183448 -0.7520412 0.2972153 0.06395638 -2.9491205 2.1424108 2.8898747 1.9083129 -1.2359523 -0.7287084 3.9756465 2.392242 -1.0212678 3.8923345 -0.251317 -0.65855694 -1.2130693 3.5371354 -1.9615345 -1.0101374 -2.1691523 1.7859119 1.016939 1.8253644 -0.95857126 -1.5251195 5.9745083 1.561147 -0.982753 -1.9275345 -1.0788157 -0.87518775 -0.50564456 1.943546 0.1718151 -1.3850515 -3.3044896 -3.1908991 -2.420944 -0.6640063 -1.8092202 -0.037183512 -0.88181865 -1.3471597 2.7085114 0.25367397
복지 1.086932 0.66121334 -0.06967005 -0.81417227 -2.2971373 -1.3521972 -1.1054602 2.459784 0.34157273 0.48757768 3.4217596 0.91056514 -0.8912293 3.1402013 1.4327866 2.622558 -2.6359093 -0.89398676 -3.0845828 4.0668936 0.7910923 1.3315287 -2.4683278 -0.9352209 -2.4387808 -0.3286113 -2.314522 -0.42583933 -1.8023162 -3.1151817 3.2120926 -0.71277064 -2.0810177 0.033655073 -0.7765796 3.301366 1.9257817 -1.6310998 3.4151204 1.6373354 -2.2111242 1.8860741 -1.5344994 -1.2623086 1.8162853 -2.474771 -4.032657 1.305151 -4.044255 3.0135853 -2.1908271 2.3671024 3.0296102 -0.5318779 0.2127381 -3.2084208 -1.2692327 -1.8823179 0.4423669 -2.3608725 5.640265 2.5507236 -0.6677498 -0.9185407 0.39718926 0.22564752 -2.9579592 3.4672315 0.5613975 -0.35925242 -0.003467938 1.824866 2.1852994 1.3186059 -1.6961564 -0.05867148 -1.6049622 0.28306645 0.6195633 -0.7145973 3.240319 -0.3981452 -2.914742 0.23266971 1.1292655 0.6282511 3.9925947 2.8651621 -3.5081172 -1.6629691 -1.2057834 -1.3941935 -0.23668255 1.1511065 -0.78777 -2.006688 -3.5141864 0.38611805 2.2513628 2.5546165
사려 -1.6014758 -2.7918227 -3.4727476 1.827426 2.5217323 -0.2796121 2.234802 -0.088571414 -0.9509916 -0.45199746 2.1863487 4.0808372 1.5176069 -1.2369217 0.46634302 1.0806528 1.6778775 -4.0489554 -1.917518 5.8674417 -1.2272266 -6.2514124 3.0261502 -0.32518777 2.8180335 4.017225 0.5147543 -2.7273805 4.880956 3.656134 1.3350605 2.744382 2.3569987 -0.8470948 -1.7669015 2.9340854 4.315121 2.5373197 0.7417477 0.1885672 -0.07134048 1.4935844 -1.8069032 -3.3919737 2.6599958 2.119606 1.2584448 3.6475348 -0.88380545 -1.2421055 0.19486311 0.63831836 -0.4286971 2.6803682 1.3694799 4.4624014 2.967698 1.4843829 -4.6088543 -1.7857882 -1.6851639 -1.8241099 -3.0675938 3.653601 -0.4808364 -2.8681488 0.6125184 -4.5255046 -2.7302508 5.404432 1.7515721 2.093213 -1.024912 1.6866632 -1.5115188 -1.134359 -0.23986077 -1.345526 -5.651979 -1.7653353 -2.259634 0.33216915 0.039388683 -0.82056653 2.1405683 1.0067277 7.0797353 3.9384124 5.805632 4.7201414 1.4298794 0.05124697 4.452043 4.4931016 2.8793628 2.498925 0.82724917 -4.2533956 -2.7131166 -2.4702127
안되다 3.6274636 2.314146 0.8599575 0.22767207 -0.5948222 0.93040484 -0.08511593 -1.8695141 0.24069802 -0.73522013 -0.4290224 3.4486678 1.1994977 3.124784 3.4298851 2.0499885 1.0962944 2.3579712 0.083940394 -2.0288947 -5.0481257 -2.239137 2.0179284 -0.046777017 0.66066706 -0.3917676 0.37147728 -5.2804017 -0.69760406 0.4467477 3.760977 0.98576957 -4.0106163 -1.5551668 2.876624 -0.54564404 -4.8609204 2.2072234 6.7768617 -1.1586219 1.2874006 1.9324592 -0.8231487 0.70838016 2.2388833 -2.8727279 -0.9016569 2.084201 -2.1585326 -2.3703468 -0.26854855 -0.01005405 3.8444526 -4.631515 1.6914498 -4.510827 6.683136 -0.6605879 -1.852684 0.23738645 2.5880556 -3.7933857 3.2007713 -0.8706437 6.833108 -7.100064 -1.1661998 0.13330385 5.3832793 -1.7947464 -2.2793307 -0.5588775 -0.054188117 2.4905756 -2.8011498 1.504447 -6.6214733 4.675809 0.58822346 -2.768903 3.1344354 -0.08902256 3.664194 1.3500099 2.5801601 -2.2358294 2.8010473 -3.102453 1.0261127 -3.5552187 2.1161478 0.17908797 -0.14313154 -2.7902696 -4.383229 3.8937626 -0.48307428 0.8417588 -9.325078 3.035683
누르다 -2.1731021 -1.5485834 0.6614789 -2.6876166 3.7978601 -0.55075204 1.9607888 -4.624066 5.3665 -6.069604 -1.3592818 2.0819185 -0.29501286 -2.4729602 0.49966475 -0.8478527 -4.002085 -0.22610891 -4.8455105 -0.13993809 2.048508 3.6819012 -0.895239 3.462803 -2.1860933 3.709719 -1.1308291 -0.2772221 1.2269498 1.4461753 1.3958471 -3.6302035 10.393514 3.2092764 0.038874548 7.098203 1.7411141 0.6234952 1.9963114 -0.49071026 -3.1479316 2.0674603 -2.9016166 -1.3221724 -5.536988 -4.781388 -6.48229 1.2082077 5.851864 3.3112664 6.278922 -4.4667296 3.001499 1.823297 3.6116254 -2.3548222 -2.492223 2.4432588 7.8562303 -0.95920604 0.39734945 -0.64603186 3.478972 -1.14474 2.7451978 -1.053877 3.465831 -0.7754848 0.0026195599 -1.2771287 -4.8451223 3.333695 -0.39694577 1.2270972 -4.653849 -0.3609112 6.6641636 2.7290113 2.181849 4.4132166 -1.0962173 -0.5918709 3.3141317 6.2859173 0.5844503 -3.4155657 -1.743441 0.38612038 -5.9317985 -0.9695092 0.60420674 3.1184545 3.8071818 0.6566759 -1.6217973 5.093317 1.9292086 5.243192 0.28893426 -4.3641496
으로 2.1411703 -5.3019643 -1.1628296 -1.801011 0.7446618 -3.3920555 0.72152936 3.4646986 -2.0907016 -6.4985986 0.13910727 5.049077 -0.5065021 -5.2206883 0.07776013 -2.100878 -0.06912086 0.36052576 5.307802 0.7781399 1.3727984 2.325485 -6.56367 -2.3912199 -2.7406142 1.1499503 -2.2696583 4.820479 1.0373389 -4.540587 4.535123 0.27203745 2.6838148 0.2826689 -6.635785 1.825067 -6.191181 2.8865983 -0.8028472 4.515355 1.509996 -1.013213 -0.41966087 4.234078 -0.0521288 -0.3908279 5.691679 -2.652986 -0.45772672 4.760139 -2.5096493 3.8310187 -1.7424432 -1.3031602 3.2261422 -1.6393648 -2.378536 1.1961449 -1.0091189 -5.363257 1.3759327 -0.91091436 -1.448203 3.1898952 -0.9040874 0.86169463 4.585827 -0.9417334 -1.5375897 5.379982 2.7524078 -1.8218226 0.44742316 1.4081244 -0.26636297 0.8927825 1.3651932 0.83549684 -2.6027217 1.2902714 0.9604841 -2.569515 2.4016018 -1.5665271 -4.5156307 1.341178 -1.4083579 0.6702107 -2.9161832 2.7176719 -1.8233514 -2.153609 4.136125 -0.3564772 6.5345 -1.5264206 2.8560014 3.4039457 -4.9155474 3.9948044
학교 0.115430385 2.023136 -2.9184237 -4.321861 -4.6521673 2.8325882 1.2375172 2.9469595 2.7947557 -1.4306864 -2.8296964 3.0219972 -0.55897295 -0.76985174 5.26968 -3.9573505 0.21266247 -0.14780504 -0.83341265 1.5523773 -2.909332 3.5870538 6.1237135 -0.5343226 -0.3669427 -1.714866 2.9218175 -4.156447 -6.1620727 -1.4995542 -0.64268196 2.3247297 0.8547567 -4.661994 -3.9120529 -1.6438994 -0.23566605 -2.10596 -1.1829693 2.4227588 -1.4320025 -4.048272 -3.8435442 1.7305661 -0.038978808 2.2711892 -0.13543873 -1.7682359 -1.2205456 2.3689382 0.42369553 1.9888835 -2.7187488 -2.3785417 -4.951036 -1.4900196 3.2086687 -1.775972 -2.0362027 3.5957859 3.3060207 0.5168671 2.791602 -2.110693 0.2205151 -4.9479265 0.30297738 2.9510114 4.45479 -1.4224441 0.38908136 -0.57025385 -1.8191375 0.6877868 5.2711945 -1.6460029 -4.54764 0.06918302 1.2766056 1.732961 -2.8520849 2.9460804 0.7635832 5.4229393 -1.8428301 1.677491 -1.5503637 3.994078 -4.446138 -4.396573 -0.097507805 0.2972293 -1.9544005 1.2874386 -4.533161 -0.0844493 -1.3251802 4.5975437 -1.4820714 0.22408515
신발 2.638126 -1.6139592 -4.038453 3.8984914 1.7705868 -1.4215465 -0.87209076 2.2276728 2.3897302 -2.0580113 0.35269657 1.7703357 -1.9161237 -1.4545277 -0.22833896 -0.71801025 -4.977762 2.8133 1.0294676 -1.0080414 3.1252744 -2.4244478 2.4600976 -0.63777924 5.2719636 -2.8041377 -1.6234239 0.37667266 1.229447 2.2606213 2.8903575 2.7916806 -0.29573032 -0.6999524 -0.9824906 -4.5071325 2.4439878 2.2919772 -2.4818866 2.2666638 -1.6784356 4.599098 -1.7696159 0.54210097 -1.4287331 -3.0968351 -2.5001504 1.9801068 3.8134444 -3.499141 3.0526361 -1.6664182 3.0540934 -0.26076373 -2.6334395 -0.5389376 -2.9443994 -0.73149097 0.25006226 -0.55284935 0.524416 1.500985 -0.36483476 0.87373316 0.5253654 7.834983 -3.3383317 3.087156 0.8178287 -6.550855 -0.5932272 1.1344608 -1.1831619 -4.778726 3.6306562 -0.3545101 2.8366811 4.339113 6.2102046 1.4629127 -1.8854772 -3.856397 -4.3042855 -0.21206097 4.78724 -1.4510204 1.3150154 -3.4533982 3.7091107 2.0325055 -4.9218326 -1.4489715 -2.3235347 -3.4212751 3.632197 3.656623 -0.9858357 0.9379605 -0.41363862 1.8833165
ㅇㅇ 0.04398509 -1.6431606 1.2152013 2.5892773 -3.6075196 2.4458997 0.01809215 6.0677524 6.16555 -0.28749022 2.8630323 0.6027294 0.56333137 -3.2051055 0.036308404 -0.54723483 -4.230162 -0.83813 0.20243661 3.4253678 -1.3455594 -4.8083377 -1.9953878 -1.739475 1.7720294 0.014326614 -0.5488113 -0.90407985 0.49797243 0.8022413 0.5334367 1.9240115 1.8332876 -1.9571545 3.0623882 -4.116728 -6.7134356 -1.2912534 6.0177493 2.2953377 1.0211706 0.7879008 -1.6092337 -3.4400673 -0.35652426 2.293332 0.723805 -0.96456945 -1.3043469 -1.3996122 2.8730938 0.5194121 3.6761441 -4.1313615 0.38760072 1.2660066 2.5743487 0.78716505 1.070951 0.2832505 -1.6706165 -0.0036877806 -0.8411847 0.12913616 -2.9124568 -1.9174132 0.89968824 2.0819995 5.6854467 0.7508955 0.4727141 1.8583752 0.19567247 1.9233116 1.5066639 1.4155922 0.62591785 0.3025721 2.0273063 1.2431507 5.206524 4.9213357 -4.0323944 2.1457417 0.2062787 0.22233286 1.2213141 1.8956078 -2.5658357 4.046787 3.8305764 -3.270943 -2.2519448 -4.0741878 4.2168803 -3.5289693 1.0202159 -1.3935683 0.48895487 2.1282225
보이다 0.36629155 3.4846196 -2.1075802 -0.16790617 1.9257047 4.49825 -4.02829 1.6267692 2.3868246 -2.9794426 -2.1745286 2.4774823 1.6997739 -0.04830483 -1.3402091 -3.47345 -4.313781 3.5254796 3.220892 -1.1210935 0.8245703 0.20481743 -3.6225479 0.018818103 0.5791374 -3.5598392 3.6078649 -0.941574 -2.7046995 -6.3825197 -0.79069275 1.4387139 -1.474459 0.90615654 -0.030395556 1.8241351 2.1629417 -1.5788504 -2.3237736 2.0563147 3.006121 0.26860458 -3.0924551 1.0154002 0.17813137 0.41478544 5.0234046 6.8195214 -0.3165582 -0.37025052 -0.64414275 1.957999 2.646679 -1.1290854 -1.4345249 -2.7366703 3.116676 -0.5328581 1.0858189 -2.7793703 1.3287655 3.1076493 0.25690377 0.30036145 2.672585 1.0678108 -2.811395 0.3116902 -2.837181 -7.336822 -0.78199124 2.2015479 1.8145113 2.519001 -0.99295866 5.2074327 2.288579 6.9728384 1.1723975 0.75881386 -0.6372857 0.25674024 -2.0184917 0.88165975 -1.8517374 2.482507 0.9720396 1.1876812 3.9076672 2.2087698 -1.2660116 -1.947496 -3.4643388 -1.4808974 1.5588067 1.2358016 2.442835 -6.590108 -0.8595215 -4.6242657
초딩 -3.0681498 -1.9692285 3.3455093 -4.4621444 1.446781 3.412117 3.5148194 1.5999501 5.551665 -0.21985598 4.2187767 -1.3210377 -0.41326714 -0.7944241 7.332291 -3.2896593 -0.5189086 -2.3765306 1.0913482 1.1458014 -3.814135 2.1682782 0.5549798 2.8694916 -0.489908 -1.399108 -2.2224205 0.12705712 -1.5439123 -0.5931839 1.9172022 -2.151118 0.62381536 1.4547311 2.4577181 -1.8106911 -2.8741367 -0.77125895 3.8226702 3.110638 -2.2557669 3.0617988 2.5527558 2.1089954 0.70055676 6.7855983 -0.037453886 1.2334275 -1.0273254 -2.407656 3.0692818 -1.0200278 4.3841076 -4.9783845 -4.488421 -2.2083497 0.63999045 1.1089994 1.2494793 -2.4514837 0.3474071 1.2160937 -1.1452676 1.105678 0.91969335 -0.10301809 -0.14263456 2.8515153 1.6885923 -0.38202932 -0.44279733 0.9166992 0.9629997 -1.240463 0.3306907 -0.2945727 -3.0582004 -3.8417995 -3.7027829 1.7389637 6.1802006 4.6090145 -2.508605 0.30871034 -0.84477496 -3.8047042 3.0572717 0.26966187 0.59283054 -2.1969278 -1.6512092 -1.1749122 3.178412 -1.2129173 -5.16222 0.15244944 0.7620084 -3.5624282 2.0829484 -2.4275284
지나다 -2.386699 2.6315415 0.25026214 -1.1762085 0.28128803 -0.61653024 -3.2360291 -1.5294241 6.1565228 1.231547 1.8188028 4.436844 -1.7697216 0.60760945 1.8796973 -7.7149496 -4.4491916 2.9938097 1.1494347 3.7484367 2.1369429 0.50751305 -0.49493328 1.9846858 0.40710336 -5.904164 -3.0953703 -3.7956414 -1.1790193 -1.5561087 0.83622235 -0.3315898 -1.5533346 -3.9250016 0.9536777 -3.9246664 -4.804617 -1.4920375 2.46001 4.5476193 1.3822803 0.9337417 -0.7008614 0.92363936 -2.269916 -2.2085488 4.129398 -2.927812 -4.237373 1.6154802 -1.9185058 -0.7414581 0.73329914 -9.863449 2.2989686 3.8412676 3.3045595 1.4396576 2.2982872 5.0839734 3.4044385 2.059758 -1.0902499 -2.1497977 2.5098307 1.4713534 -1.788866 3.0741289 -6.5475435 3.0582516 -0.3023994 -3.3728163 1.9862362 -1.4884096 -1.2692021 -5.97209 0.5063517 1.4566339 -0.5869211 -2.4373255 8.664873 1.2916648 0.4032261 2.175438 -1.0515076 -0.27146417 -0.59609646 -1.7239304 -0.74474436 2.4160638 4.329859 0.02704758 -1.5804541 3.466923 2.2267888 -0.8325935 3.674326 1.6892457 -2.7549741 0.49579588
검정색 3.9550412 2.222167 -4.8552213 -2.0173156 3.268954 -2.9561667 -1.623272 -3.2004132 -1.5361959 -1.9190217 -1.3692374 2.801156 2.859279 -0.13808629 2.3469393 2.7095218 -2.3843598 2.8920891 -4.5225325 -1.6424431 0.38296255 0.7879836 5.5416 -3.616263 5.4071865 -4.7333326 1.9402678 3.0678174 0.9147036 0.5724942 -1.7847503 2.7145016 -1.7845125 1.9484483 -4.155109 -2.6388028 0.25857764 -2.2481596 -6.3369255 6.569391 1.0223334 4.314768 -1.6022227 3.8886583 0.650668 -6.1715484 0.18636073 1.2783161 8.851461 -0.32945338 2.168498 -0.9412894 6.5581594 0.5529773 -3.5339484 2.610605 -2.3855684 4.6540112 3.4474425 -0.8816861 3.744386 1.8914951 -1.4087613 -0.63329595 -1.2369885 5.216257 4.907485 -1.7572699 -4.5796366 1.4677674 1.6933137 -0.07579674 -2.1574104 -3.6875749 -0.9941668 -1.690513 0.8572743 -3.295486 1.5751778 -9.552797 -4.1484914 -4.0625143 0.59534717 -0.33499923 7.091366 -1.0866977 0.6709349 0.6695853 1.3072292 -0.41714245 -5.3662314 0.91018283 -1.5873479 0.4231261 4.020909 0.09875967 -2.9795258 -4.0302486 -1.8063405 1.710516
반년 -1.3601474 3.2982225 5.0904207 0.49670407 -1.3713471 4.882728 -1.6503044 1.1305331 4.548883 2.1738727 5.489824 3.291806 -0.884661 -3.40591 -0.6276715 -2.167433 -4.098578 -2.093801 1.5353818 2.1651733 -1.9006989 0.008633568 -0.7852058 4.938258 -2.9485471 3.165528 -5.4477324 -2.0361583 -0.010271787 -6.341705 3.8217742 1.6743205 -1.3775463 -0.95139545 2.0186517 0.11170987 -1.1225957 0.6600787 2.3232293 -2.5814204 1.9721235 -2.4594955 -0.82813245 5.355929 -1.0683581 5.485042 2.1074603 -4.569456 -6.0773315 -0.16821644 2.9280164 -0.3879148 0.73272836 -2.3252468 -2.9708793 1.0776733 -0.2447592 1.7258115 -0.8929588 1.9682558 3.136287 -0.7243817 -1.3265079 2.4514055 2.3011937 -0.62411344 -1.3212684 -4.335211 1.7045388 -0.7464301 2.381743 4.832307 3.31175 -1.469894 -3.9368386 -2.5397384 -1.7936027 2.004509 0.29822785 4.11943 10.485532 1.8184121 0.770484 -1.680685 5.7373905 1.1588954 -5.360419 1.7224466 -2.804468 0.6115226 0.95136416 0.13981546 -1.7043678 7.520178 0.33851182 -1.4622344 0.6714687 0.14930694 -1.7874005 2.0000837
저번 5.5066204 1.8330504 -7.117098 4.337937 2.561058 -5.825307 -3.522531 -4.2326827 -2.9610999 1.4724116 -2.9573786 -2.2998357 -2.319635 -5.4866166 -2.3782024 -0.11869633 -0.33475778 3.2300406 -3.3828716 2.727991 1.1145734 1.4388667 1.3255854 0.39690712 -0.49437872 0.32050082 2.6604054 0.45030117 4.532014 -1.1016628 -0.7317956 0.16431084 -0.1133125 -3.0779061 -0.9962452 -6.5557203 3.3587468 3.1454263 -1.949445 -3.087595 3.6842659 5.4271655 -3.105801 7.27981 -2.0792003 -5.5067215 2.6078691 2.8435175 1.214331 1.6398698 -0.56403583 3.079591 -0.32847768 2.5675159 -0.34081012 -1.9109043 -4.116542 0.97824544 -4.554128 2.8505304 1.1008799 0.049616355 1.5247592 -2.4582205 -3.7622287 6.5792184 4.5102587 1.0717859 0.635899 2.2778113 -0.21173675 -5.734808 -5.340571 -2.0401409 -0.83157027 1.3480078 -5.5952187 2.8872352 2.2902536 -4.824762 -4.0303664 -7.356516 2.0356867 -3.1627538 -0.7207472 -5.6532207 3.3291883 0.2624665 -0.52994156 0.28299525 -2.316781 1.0895625 -1.8024553 3.5856647 6.626107 -1.884488 -2.7056878 0.44565248 1.0606567 2.9238572
완젼 -2.516293 -2.0798707 2.588768 0.2844337 -0.79825634 -2.959166 -5.2790194 0.17109331 6.122774 -4.3218923 -4.9925056 2.781515 -3.394683 -2.1261296 -4.2452164 -0.6380004 -3.48531 2.021905 4.6435 2.1084015 0.14605467 -0.8333487 1.2950519 3.4154246 4.4282413 -2.9532459 2.4468474 -0.3045487 -1.0786021 -4.030236 4.058393 -2.5363948 -1.4538202 -1.564508 2.533287 1.3753421 2.817825 1.3060086 2.5658767 3.2969344 2.7115262 0.7961508 -0.31067786 1.5219872 -3.8840714 -4.4881177 5.980378 1.9680387 -2.1915052 -0.06976995 -0.881007 0.20088057 5.4790587 -4.3516974 -0.098532945 4.6811447 -0.6192833 4.3252497 2.3921652 5.0250273 0.1752707 2.688781 3.761443 -1.566351 0.5039589 2.7012057 -0.78076833 -3.2270489 1.1697682 -5.0172205 6.0696425 0.27625787 0.68237066 2.8501112 -1.4607496 -5.0519013 -2.3651016 0.8060349 1.512605 -5.226187 5.6686864 4.039286 1.8408666 -2.9041207 2.6067011 -1.4788672 -3.137424 1.1204845 -5.281147 -0.8684177 -0.5612239 0.19978689 2.3641922 0.49984047 -6.1917925 -1.2189969 2.9004931 -3.4021297 1.080789 6.107165
물다 3.421263 1.299691 -2.875857 7.0889077 -0.1524737 0.60345304 -2.0863097 2.3800592 0.17829561 -2.615371 -1.1341631 0.049171716 -2.6574492 -4.7410603 -6.137202 2.6318884 -1.7658026 -1.5860078 -2.9419882 2.1273036 1.2670848 -4.7008758 -2.0816379 -5.4333916 -0.8734579 -0.45598838 6.517535 2.9528437 0.13666521 4.7495866 1.3141798 1.5855598 1.4263035 -4.5779514 -1.0579991 -3.691969 -2.174212 0.8820581 -0.69076335 -2.165161 -0.18242002 2.4519794 2.4681535 2.059469 -2.255974 -4.370383 4.454846 -1.0158536 4.810945 -0.47681254 -1.7552589 -0.5149624 -0.40732983 3.056038 3.2824273 4.38182 -6.2865677 3.334718 -2.2178657 1.3643186 2.339054 3.3895452 1.4821763 -2.6541262 -4.955664 1.4728398 5.3329315 -1.3121133 -0.25026017 1.0525739 0.49266708 2.8841293 -2.6197627 1.9577358 -0.05681716 1.8587416 -1.9249586 -2.6094694 1.5628504 -0.4309108 1.5612297 -5.029966 -3.1995785 -2.7404165 6.7518034 1.2680709 -0.061576445 -1.8951719 -3.5872815 4.814988 -1.7219435 4.0946765 -0.79706395 3.4188738 1.8390893 2.8607898 -0.9502777 -0.6485088 0.65826446 0.5263617
내야 1.8119111 -2.1474173 0.691847 1.6352412 5.319003 -1.0853086 1.220358 3.400889 -2.035673 -1.769223 -1.9977912 0.71596473 1.6821798 1.4413215 1.6217114 -3.2559896 1.3099493 -2.161775 -1.5422735 1.1158442 2.4026089 0.18072295 -2.710062 -3.7155373 1.2730716 1.3183237 1.1476789 -1.8221312 0.8224094 -0.36418736 2.711372 0.34408426 2.5165024 -0.0754546 2.9482753 -0.603329 1.2852131 -1.3858515 -0.6081295 -4.638947 -4.3282456 -1.1464549 0.37247908 0.08565782 0.7558757 -1.2743437 -0.20306197 2.1325302 -1.5014465 3.8161845 -5.60197 1.2821048 0.66894 4.668353 -6.912827 3.182362 -1.3083299 -6.2342715 3.7773535 4.2739573 4.003661 -2.0943894 3.2723038 6.0070257 -2.5848632 -0.090248674 0.00692526 -2.663845 2.2029958 -0.91322327 -5.046578 -0.16131009 3.915554 0.7941792 -0.25113064 -1.2293445 1.406095 2.5542998 -4.123252 0.5211424 -3.9283855 -2.4092126 3.5064194 0.52101505 -2.877053 -0.58547324 -1.670131 4.9554243 -5.00676 4.248535 8.938187 -2.6778708 0.7259095 1.8408494 -4.106792 7.2411985 1.8459079 -1.7243072 6.6502123 -6.231911
살인 0.11063704 1.9651647 0.8330118 0.35015658 -5.439884 2.870712 -1.2254544 2.4134297 4.6639056 2.0318894 1.9075493 0.7534882 -0.5774563 2.7390335 1.7912896 -3.2717974 0.9159658 0.8383745 0.7522383 1.3500689 1.4958338 -0.5701685 -0.22299136 1.2161734 -2.8658798 1.7838786 -0.62605935 -3.395504 3.7183235 -0.3982171 -0.30012676 1.2842968 2.576818 3.372628 -0.15180446 -0.26564106 0.25068825 -0.16861409 3.9079957 0.92512524 -1.938536 -0.21400541 1.3913839 -2.5117333 0.97757363 3.4222553 2.4914174 -1.8463918 -3.151241 4.606137 6.8025546 -1.3868443 -0.4772894 -3.4014895 -0.66242373 -3.5152364 2.0637407 -1.7556994 7.31755 1.6445103 2.1185467 -0.88870007 -3.0630758 1.7025993 1.1125393 0.44564605 -1.3820393 1.4628983 3.3912265 -2.186021 0.5928063 -0.55858713 -2.8411598 -1.0822082 2.424343 -2.8623981 1.7181869 -6.5427966 -1.9582858 1.0483552 1.4701333 2.9399693 -2.4795537 -3.6865132 -4.536552 0.17737186 -3.0052948 4.0887475 -1.9709437 -4.5352774 -1.1698924 -1.0583788 -2.143525 -2.935724 -3.3870192 -4.891184 -1.9814622 -0.5104598 -0.6647754 1.2768149
대기 -4.1922684 0.8962173 3.7865708 2.071803 1.3510998 0.24671675 -3.7955647 0.42840657 5.9722652 1.529328 -2.5114148 5.041209 4.9541364 -2.4381003 -6.0535884 -0.59305316 -2.703586 3.5494847 -2.0773492 1.1539367 2.1506963 -3.3728483 0.95659673 -6.35892 1.0388653 0.91508573 3.7475631 -0.15581918 1.2031974 -1.8940356 3.118497 -3.7177253 0.9341069 -0.02821824 -1.8026888 -3.05432 -0.83195543 -4.091682 -1.2506417 1.160173 3.1758223 -1.3706588 6.86228 3.724966 -1.4815407 -3.6572866 4.157803 -0.1083422 2.6610355 0.53013563 -4.009519 -0.8061676 -2.028803 -6.359098 -0.6314232 2.111806 3.1836445 0.8344333 0.86464304 -1.3841673 0.3492174 0.12574585 3.4772053 0.23852256 0.9108267 2.4589865 -2.8767378 0.18789196 -2.9005156 -2.6356955 5.555849 -2.557115 -1.6735153 0.6812816 3.901179 -2.5212543 1.2227768 -1.7776082 -0.39050984 -0.9885738 3.4074173 -3.2542949 -1.9109223 0.18289928 0.9307883 -2.6049695 0.21553323 3.5116122 0.59375453 -0.19051768 -0.77080077 1.7896742 -0.18525206 3.5411274 -4.6953864 -3.0026445 0.7743747 1.2763543 2.4555647 -3.563789
ㅛ 3.5839844 -5.45333 1.5899559 1.2872932 0.14267126 0.5358576 -3.4951801 1.9736898 -0.28305334 3.6731336 -7.47632 1.4619179 2.938095 -8.590017 -1.8326871 5.5447884 -3.897129 4.61722 1.268603 1.0613782 2.9098601 -1.367689 -0.15989196 0.27766714 3.8385196 -1.2010459 4.252973 5.1298475 -0.8063427 1.1288493 3.1184473 -2.3536851 -2.900629 2.2851202 -4.212847 -5.360338 3.2970057 -1.8974068 -0.19983141 -2.5413408 1.9014223 2.962994 1.2406311 2.7119367 -0.74232864 2.6674268 1.7666715 1.8857987 0.92484295 -4.988321 0.66181123 0.03376467 -1.8178345 -2.4060662 -1.734285 5.812884 -4.4463577 4.350522 -1.7208103 3.2143488 0.0076620127 2.6482365 -0.19403373 -1.3913269 -2.759968 -1.2020748 -1.7804765 0.7708496 -2.714866 -3.72627 3.545426 -2.81082 -5.839535 3.4953835 -0.47867906 1.7362033 3.8515673 -0.6318183 -0.15001829 -4.1676307 2.1988127 -3.9225364 4.000122 -2.0724185 3.0651407 0.2576617 -0.4992456 -2.121581 -0.58958906 4.99964 1.3510094 -1.817584 5.4686627 -0.038688514 2.7438748 -0.70329624 0.9661053 0.61724555 1.9203488 0.23071729
내기 0.6273949 -0.31532785 3.6805055 -3.0099373 -6.4316125 2.3233101 -2.0045927 -0.8676524 -2.153755 -0.5356959 -2.1464868 -4.6906266 0.7040329 -2.8621063 -4.6618776 -1.3874254 -0.743104 0.13051496 -1.0852786 1.6434536 1.3445051 -0.70576763 -1.9443792 -2.7205925 -1.6058804 -0.573768 2.935464 0.7623109 -3.0810015 2.129135 -1.0302136 4.826452 -5.1484504 -1.7623088 1.4288025 -2.1853683 0.15605891 -1.3242345 -1.0325431 -3.2674952 -1.4382544 -6.1846824 -1.038698 2.0619292 0.8838851 -4.15925 -2.727549 0.90942615 -4.474191 4.2235427 0.7592656 -0.08998614 -2.9451556 0.97586036 2.2112143 3.5447063 0.8500311 -4.1644597 2.5079637 0.028664798 0.07171494 -1.6292368 -0.93631786 -2.1895642 -5.1575994 1.1640258 -2.4027967 -2.5524004 -3.418214 -1.2422568 0.1974893 -5.3370585 5.5324826 -3.5908954 0.22350901 -0.47359678 -4.4421945 0.6580254 4.1078267 1.1452465 4.941152 -2.2147124 2.5930796 1.1773473 -0.88946676 -1.636322 -1.5277399 -0.5517484 -5.760669 -1.5612235 -0.6160833 -5.419817 2.0911174 2.8369308 5.2226744 0.23846409 1.9128113 -2.0690856 -1.3841822 -2.7458315
려면 -1.7093264 1.8346205 -3.5816708 3.038116 6.817788 -1.3365923 4.537279 -1.460404 -1.7830454 -3.9147708 -2.3612905 1.756659 2.9586833 0.9856224 2.1278539 -1.1543756 1.7506914 0.91944104 3.785424 -0.012752587 0.94365364 -9.516926 2.1794345 3.9250855 -0.98511827 1.7984164 -0.35200107 1.8245974 5.1726074 0.32446176 -0.95422286 -1.2618932 2.8604248 -1.5058507 -1.7558472 -0.1931586 -0.29608583 -2.9376593 -1.6949679 -1.6930615 1.4345461 0.060627252 -2.4136593 -2.1258724 -6.4318795 -0.6155806 0.53617674 2.1756902 -3.3787663 0.5882587 1.5454128 -2.8836846 0.7866104 2.5518754 -3.576309 -3.0325713 0.48056504 -1.2215244 -0.14366035 0.45442873 2.3684094 -4.716357 -0.4943578 5.4854274 -4.3957944 -3.3794365 0.040571444 3.0448296 -3.8769555 -0.8721294 2.4037955 3.923036 0.9961212 -0.033332996 -3.1935737 2.0585063 -0.04580721 3.7454922 -0.9623811 -1.3094507 -0.48565027 2.423926 2.0239341 -2.5026138 -1.8070531 0.5192044 2.2811224 -2.3375533 -1.4358245 3.4737241 0.5398912 -0.6773431 -0.04304445 -1.1887187 -1.9175853 3.7382584 0.12424718 0.61804295 4.486044 -5.0867543
운영 -0.42025977 -0.7343635 -0.8513269 5.71953 2.7053368 -2.1487217 1.0782214 -0.039187163 -1.028806 -0.9903395 -1.7128052 2.5780895 4.8759704 -0.376549 0.15630285 3.454778 -2.3060458 0.8412732 -3.9101622 3.6707675 -0.8010386 -3.3706532 3.4026792 4.436654 -3.9310865 -1.9564279 4.1737 -2.9583058 4.839047 -3.3053002 0.7887194 0.67813754 0.7095561 -0.35199425 -1.1335815 2.620108 -0.037632663 -2.5886981 0.6388693 -3.262716 0.9779132 1.5887958 -1.2416699 2.0737386 -2.0125265 0.27728742 4.3422475 0.12756799 -0.5584525 -3.3892527 -3.4119277 1.0185238 1.3260055 -4.3901906 -2.0126877 1.4854273 -1.406366 3.5932107 1.3943194 -1.2110254 -0.12975134 1.3431216 0.27091196 6.2294493 -2.7175725 -4.273074 -2.1352444 -1.176772 -2.5613134 2.5890741 2.427039 -0.3995379 -3.4118688 3.0844576 -3.3782396 -0.6685314 -0.04733335 -1.4141066 -2.881091 -3.0325181 -0.28949788 6.7378554 -3.6216366 -3.1031399 1.7681954 -0.48334628 6.147014 2.7997525 3.2111812 0.5493419 1.1280726 -1.4003738 -0.74217147 -4.150567 -2.0970356 -2.361988 -2.1297941 0.06527164 4.248946 -2.22796
생각 0.14755549 -2.0716834 -1.1085694 0.3060612 -2.6315536 -2.0929322 -0.8008014 1.9456145 -2.0500207 -0.21743988 0.09669819 -2.4228058 -0.5472563 -0.68405664 -1.7332441 -0.92303103 1.4970112 -1.306885 3.5566487 1.3819366 1.4485674 0.33649907 -3.011606 -1.39184 -0.0670441 2.650744 1.0141988 1.9409165 1.4197763 -4.783974 3.6639504 1.0023093 -0.65492165 4.735237 1.804447 -3.0824249 0.7967149 -4.7563424 -3.8503618 1.2827084 3.4908679 -0.6160337 5.9504933 4.2788386 0.6159113 -1.4476775 -0.7322802 0.8219276 -4.0860004 4.0795965 5.926376 -2.171739 -3.6049576 2.7435162 4.1382837 0.055613536 -1.0416465 -0.16667014 6.1125364 -0.2981067 1.9406143 0.54183286 4.786793 -0.06513311 0.98845017 -0.6229929 -2.382516 -0.8477918 -0.86413896 -3.5758266 -5.4473996 -0.2646278 -2.605543 5.10234 0.9832596 -3.2235403 3.1619267 0.09923652 3.9648628 3.588149 -4.6858325 3.8505177 -1.3722175 5.895375 1.1745092 5.8622108 5.1738915 -0.6433005 1.5595292 -3.0180874 -1.0700598 8.829135 2.6694202 -2.8883464 -0.5810619 -0.82832074 1.4779419 3.7967525 -0.14470254 0.7574542
